{
  "model_type": "regime_obstruction_multiscale_v1",
  "dataset": "C:\\TFG\\TFGpractice\\Datasets\\CKM_Dataset_270326.h5",
  "split_seed": 42,
  "official_metric_mask": "topology == 0 and dataset mask > 0",
  "city_type_thresholds": {
    "density_q1": 0.1956760965207146,
    "density_q2": 0.2549084200418514,
    "height_q1": 10.913664557109195,
    "height_q2": 15.950557886832314
  },
  "antenna_height_thresholds": {
    "q1": 58.12179183959961,
    "q2": 103.85484313964844
  },
  "city_type_by_city": {
    "Abu Dhabi": "dense_highrise",
    "Buenos Aires": "dense_highrise",
    "Canberra": "mixed_midrise",
    "Shanghai": "dense_highrise",
    "Athens": "dense_highrise",
    "Rio de Janeiro": "mixed_midrise",
    "Bilbao": "dense_highrise",
    "Kuala Lumpur": "dense_highrise",
    "Mexico City": "dense_highrise",
    "Tunis": "mixed_midrise",
    "Victoria": "open_lowrise",
    "Kinshasa": "mixed_midrise",
    "Johannesburg": "mixed_midrise",
    "Bangalore": "dense_highrise",
    "Paris": "dense_highrise",
    "Ho Chi Minh City": "dense_highrise",
    "Vancouver": "open_lowrise",
    "Hyderabad": "dense_highrise",
    "Siem Reap": "open_lowrise",
    "Santiago": "dense_highrise",
    "Hanoi": "dense_highrise",
    "Pune": "dense_highrise",
    "Bangkok": "dense_highrise",
    "Berlin": "dense_highrise",
    "Dhaka": "dense_highrise",
    "Copenhagen": "mixed_midrise",
    "Bratislava": "dense_highrise",
    "Carcassonne": "open_lowrise",
    "Jaipur": "dense_highrise",
    "Beijing": "dense_highrise",
    "Valparaiso": "dense_highrise",
    "Nagpur": "dense_highrise",
    "Marrakesh": "open_lowrise",
    "Lyon": "mixed_midrise",
    "Venice": "open_lowrise",
    "Alexandria": "mixed_midrise",
    "Cleveland": "mixed_midrise",
    "Minsk": "mixed_midrise",
    "Munich": "dense_highrise",
    "Antigua Guatemala": "open_lowrise",
    "Vienna": "dense_highrise",
    "Leuven": "mixed_midrise",
    "Halifax": "open_lowrise",
    "Brugge": "mixed_midrise",
    "St. Louis": "mixed_midrise",
    "Surat": "dense_highrise",
    "Abidjan": "mixed_midrise",
    "Barcelona": "dense_highrise",
    "Chiang Mai": "dense_highrise",
    "Fortaleza": "dense_highrise",
    "Nazareth": "mixed_midrise",
    "Luanda": "dense_highrise",
    "Key West": "mixed_midrise",
    "Osaka": "dense_highrise",
    "Salvador": "dense_highrise",
    "Ljubljana": "mixed_midrise",
    "Dubrovnik": "mixed_midrise",
    "Chefchaouen": "open_lowrise",
    "Segovia": "mixed_midrise",
    "Phuket": "dense_highrise",
    "Nice": "mixed_midrise",
    "Dalian": "dense_highrise",
    "Manaus": "dense_highrise",
    "Bath": "mixed_midrise",
    "Thane": "dense_highrise",
    "Toledo": "mixed_midrise"
  },
  "local_kernel_sizes": [
    15,
    41
  ],
  "formula": "hybrid_two_ray_cost231_a2g_nlos",
  "a2g_params_json": null,
  "feature_order": [
    "prior_db_squared",
    "prior_db",
    "log1p_distance_m",
    "local_building_density_small",
    "local_building_density_large",
    "local_mean_height_small_norm",
    "local_mean_height_large_norm",
    "local_building_density_large_x_log1p_distance_m",
    "nlos_support_small",
    "nlos_support_large",
    "nlos_support_large_x_log1p_distance_m",
    "shadow_sigma_db",
    "theta_norm",
    "nlos_support_large_x_theta_norm",
    "bias"
  ],
  "coefficients": {
    "dense_highrise|LoS|low_ant": {
      "weights": [
        -0.0007917977839966092,
        0.5593755829906458,
        5.159741785020929,
        -0.18537093708197652,
        -0.10851104244893736,
        -1.6362486244862844,
        -0.8711944394293584,
        0.022203080852834633,
        0.08646380257739084,
        -0.2560207789393831,
        0.03379087743706293,
        -73.95267411025537,
        -43.49571886679748,
        0.11307899769652172
      ],
      "bias": 80.09913394492746,
      "count": 415795,
      "distance_scale_m": 362.03867196751236,
      "height_scale": 255.0,
      "meters_per_pixel": 1.0,
      "receiver_height_m": 1.5
    },
    "dense_highrise|NLoS|low_ant": {
      "weights": [
        -0.032345136900630976,
        6.433236422078503,
        -51.17592557485778,
        -34.959269264704226,
        -65.84668291084654,
        216.33687389144666,
        -286.12417808640436,
        11.577053080688335,
        -6.5307169084741705,
        -422.7348417620899,
        66.68058757674109,
        -38.86985054769941,
        -377.89560101327726,
        341.591949529655
      ],
      "bias": 349.85527312443725,
      "count": 440554,
      "distance_scale_m": 362.03867196751236,
      "height_scale": 255.0,
      "meters_per_pixel": 1.0,
      "receiver_height_m": 1.5
    },
    "dense_highrise|LoS|mid_ant": {
      "weights": [
        -0.00020049251460361184,
        0.6364591908250671,
        3.5383564237191587,
        -0.246555607232526,
        0.8972088615532823,
        0.9195594301202826,
        -3.9753127602082925,
        -0.13262627530375043,
        0.12066051762208348,
        -0.3951616742097126,
        0.08596251829663594,
        -53.023483277281365,
        -31.308641729242847,
        -0.467333356304728
      ],
      "bias": 59.49168847265456,
      "count": 529585,
      "distance_scale_m": 362.03867196751236,
      "height_scale": 255.0,
      "meters_per_pixel": 1.0,
      "receiver_height_m": 1.5
    },
    "dense_highrise|NLoS|mid_ant": {
      "weights": [
        -0.010463574169680436,
        -0.9470328334611763,
        -5.987122300386658,
        -41.342491256263,
        -2.677387231423631,
        159.3798050756211,
        -269.4208253447177,
        0.9868539193792244,
        -11.732732735501262,
        -228.58670297875275,
        34.882089367320404,
        9.434329206014874,
        -208.84835525297012,
        193.91976257732168
      ],
      "bias": 369.7130886482654,
      "count": 348336,
      "distance_scale_m": 362.03867196751236,
      "height_scale": 255.0,
      "meters_per_pixel": 1.0,
      "receiver_height_m": 1.5
    },
    "mixed_midrise|LoS|high_ant": {
      "weights": [
        -0.00039124180928490663,
        0.7354726676810693,
        2.9992833868546818,
        -0.14534482276341223,
        3.0506682403473135,
        0.12046193367404542,
        -8.019282169429927,
        -0.557998206702558,
        0.10978372478153005,
        -2.2944947305451544,
        0.408027951375797,
        -45.62693057101727,
        -27.10131614690398,
        0.29059765749915745
      ],
      "bias": 48.868256707712106,
      "count": 395780,
      "distance_scale_m": 362.03867196751236,
      "height_scale": 255.0,
      "meters_per_pixel": 1.0,
      "receiver_height_m": 1.5
    },
    "mixed_midrise|NLoS|high_ant": {
      "weights": [
        -0.013090246043931665,
        2.439739480210428,
        3.470714418528558,
        -2.329356910746299,
        133.7116505298063,
        -289.6570601745121,
        284.92017647829556,
        -25.857240868182593,
        -6.164284167011423,
        -61.27103089114913,
        11.700213746360886,
        5.550355550352648,
        -41.38360942506234,
        19.132616750321592
      ],
      "bias": -116.23937882198506,
      "count": 71328,
      "distance_scale_m": 362.03867196751236,
      "height_scale": 255.0,
      "meters_per_pixel": 1.0,
      "receiver_height_m": 1.5
    },
    "mixed_midrise|LoS|mid_ant": {
      "weights": [
        0.0011671703900807777,
        0.3779349205599358,
        3.413363067117105,
        0.0901740103019021,
        2.278615324628521,
        -5.556807614707198,
        1.0008102523736988,
        -0.4801113010977578,
        -0.09529439092529084,
        -2.6696333110399935,
        0.4916646181156516,
        -48.79296323437713,
        -29.036596628021815,
        0.8734987578845885
      ],
      "bias": 69.1169061214758,
      "count": 338346,
      "distance_scale_m": 362.03867196751236,
      "height_scale": 255.0,
      "meters_per_pixel": 1.0,
      "receiver_height_m": 1.5
    },
    "mixed_midrise|NLoS|mid_ant": {
      "weights": [
        -0.0072119491800203776,
        1.1054044635361278,
        -6.960578574454644,
        -31.349003456984466,
        128.80688866663695,
        17.916920082312995,
        -219.854783088217,
        -23.205041964793537,
        -10.816414850951446,
        -96.73783484346087,
        16.813018779914255,
        11.050057596624775,
        -85.08025409127626,
        99.77586967259015
      ],
      "bias": -6.628370077413093,
      "count": 125979,
      "distance_scale_m": 362.03867196751236,
      "height_scale": 255.0,
      "meters_per_pixel": 1.0,
      "receiver_height_m": 1.5
    },
    "dense_highrise|LoS|high_ant": {
      "weights": [
        0.0005557310428289422,
        0.5603833700712072,
        2.920569548895606,
        -0.2527658314291178,
        0.4175299608643125,
        -0.637548134664136,
        -4.16667388484798,
        -0.0245144277138471,
        0.15781343211263002,
        0.22799222811940167,
        -0.06530971278120346,
        -46.11263925201853,
        -27.645480544512044,
        0.0024464909318194466
      ],
      "bias": 57.81830242978797,
      "count": 660649,
      "distance_scale_m": 362.03867196751236,
      "height_scale": 255.0,
      "meters_per_pixel": 1.0,
      "receiver_height_m": 1.5
    },
    "dense_highrise|NLoS|high_ant": {
      "weights": [
        -0.020130656692730398,
        2.1211031623927554,
        14.834971511803033,
        -22.449280925408964,
        71.23332696527503,
        -58.588914317016695,
        -13.27724946136533,
        -12.478920893661131,
        -6.782135697696741,
        -86.6922979217339,
        13.299028375458342,
        8.960020772386542,
        -88.507850196474,
        60.58421555663437
      ],
      "bias": -10.69841335548752,
      "count": 204865,
      "distance_scale_m": 362.03867196751236,
      "height_scale": 255.0,
      "meters_per_pixel": 1.0,
      "receiver_height_m": 1.5
    },
    "open_lowrise|LoS|mid_ant": {
      "weights": [
        -0.0015818023798612037,
        0.8744723702325241,
        3.7258318715481775,
        -0.3696715726768127,
        2.4458322701435398,
        -0.9022391856852208,
        -9.712019917733185,
        -0.33159471387654965,
        0.1048021893471046,
        -2.4521983286624325,
        0.39168633056821134,
        -56.91823297134233,
        -33.78048172619398,
        0.8529553375615646
      ],
      "bias": 51.46995937594467,
      "count": 134955,
      "distance_scale_m": 362.03867196751236,
      "height_scale": 255.0,
      "meters_per_pixel": 1.0,
      "receiver_height_m": 1.5
    },
    "open_lowrise|NLoS|mid_ant": {
      "weights": [
        0.01281992850167133,
        -0.003621426839225961,
        -35.04319215528722,
        -9.363728109850987,
        -60.262080134283075,
        -136.06392489241804,
        -23.67213105095587,
        12.073322496202309,
        -8.514409291217971,
        96.33508824391828,
        -14.111364432112742,
        24.258635613778726,
        89.01328086255047,
        -13.380441826942585
      ],
      "bias": -192.6104776784114,
      "count": 27140,
      "distance_scale_m": 362.03867196751236,
      "height_scale": 255.0,
      "meters_per_pixel": 1.0,
      "receiver_height_m": 1.5
    },
    "mixed_midrise|LoS|low_ant": {
      "weights": [
        -0.0003577545364878831,
        0.7390401676504215,
        2.8499227923894974,
        -0.422628921722635,
        2.27565335861535,
        11.346629207724382,
        -8.19685344608626,
        -0.3820574120599962,
        -0.10453202488688891,
        -0.7865410451611091,
        0.16806184976410551,
        -36.679569142632594,
        -21.475779698789918,
        -0.20241988940173522
      ],
      "bias": 41.89770167978223,
      "count": 286825,
      "distance_scale_m": 362.03867196751236,
      "height_scale": 255.0,
      "meters_per_pixel": 1.0,
      "receiver_height_m": 1.5
    },
    "mixed_midrise|NLoS|low_ant": {
      "weights": [
        -0.014308986648631575,
        0.642315999406903,
        -17.427528678572102,
        -39.319962024934135,
        -28.86125545316148,
        278.557197826415,
        -482.65470496623374,
        5.941924217243205,
        -12.241592813538572,
        -291.438039092994,
        46.49303636704239,
        -39.55753999890326,
        -407.10492209679774,
        321.8989609201321
      ],
      "bias": 619.0003182855211,
      "count": 185069,
      "distance_scale_m": 362.03867196751236,
      "height_scale": 255.0,
      "meters_per_pixel": 1.0,
      "receiver_height_m": 1.5
    },
    "open_lowrise|LoS|low_ant": {
      "weights": [
        -0.0003883871455570575,
        0.8311374936975569,
        2.2056559121300032,
        0.3180677043172268,
        -3.1734777484734997,
        -16.304108984655237,
        -2.334109603279995,
        0.620809131617677,
        -0.18366092528916989,
        3.436530535094897,
        -0.5935792291466218,
        -26.712921769693843,
        -15.078619769798616,
        -1.614045326997855
      ],
      "bias": 28.89668567301901,
      "count": 136254,
      "distance_scale_m": 362.03867196751236,
      "height_scale": 255.0,
      "meters_per_pixel": 1.0,
      "receiver_height_m": 1.5
    },
    "open_lowrise|NLoS|low_ant": {
      "weights": [
        0.01724404020660364,
        -7.912995871610078,
        30.151149144032566,
        -45.37487532269761,
        40.110293808813864,
        441.4738274051885,
        -608.730113406334,
        -6.5132895670909505,
        -8.354244826603964,
        33.0764197232275,
        -5.377239921740231,
        -17.532810476026327,
        -234.33463817459867,
        72.8638678904387
      ],
      "bias": 764.3727654479411,
      "count": 45242,
      "distance_scale_m": 362.03867196751236,
      "height_scale": 255.0,
      "meters_per_pixel": 1.0,
      "receiver_height_m": 1.5
    },
    "open_lowrise|LoS|high_ant": {
      "weights": [
        -0.0027536041978853585,
        1.1583205488299166,
        3.408843369819065,
        -0.12871331925553547,
        6.355918478650608,
        -12.842371079037362,
        7.301958829167479,
        -1.2222534656878161,
        0.13045465722529026,
        -2.7119845335246446,
        0.5892307672048858,
        -49.58196960127359,
        -28.998592625315087,
        -1.2261320293314317
      ],
      "bias": 30.782430654551753,
      "count": 168344,
      "distance_scale_m": 362.03867196751236,
      "height_scale": 255.0,
      "meters_per_pixel": 1.0,
      "receiver_height_m": 1.5
    },
    "open_lowrise|NLoS|high_ant": {
      "weights": [
        -0.007831706137209415,
        0.9712584619655141,
        8.003964929695156,
        31.507222702977508,
        -17.670982872694783,
        -588.6403670778072,
        554.6755241315469,
        -0.6143684570423844,
        1.2540845461845025,
        31.15209732798587,
        -1.6491569038292344,
        -0.9593078219188043,
        -22.384714125633675,
        -33.67737090856752
      ],
      "bias": -21.515415258288712,
      "count": 14219,
      "distance_scale_m": 362.03867196751236,
      "height_scale": 255.0,
      "meters_per_pixel": 1.0,
      "receiver_height_m": 1.5
    }
  },
  "val_results": {
    "overall": {
      "count": 485380287,
      "rmse_db": 23.574597491795608,
      "mae_db": 12.258311800977097
    },
    "LoS": {
      "count": 329805515,
      "rmse_db": 3.8137759043773425,
      "mae_db": 3.044661221994158
    },
    "NLoS": {
      "count": 155574772,
      "rmse_db": 41.26858307306014,
      "mae_db": 31.790481008223853
    }
  }
}