{
  "model_type": "regime_obstruction_multiscale_v1",
  "dataset": "C:\\TFG\\TFGpractice\\Datasets\\CKM_Dataset_270326.h5",
  "split_seed": 42,
  "official_metric_mask": "topology == 0 and dataset mask > 0",
  "city_type_thresholds": {
    "density_q1": 0.1956760965207146,
    "density_q2": 0.2549084200418514,
    "height_q1": 10.913664557109195,
    "height_q2": 15.950557886832314
  },
  "antenna_height_thresholds": {
    "q1": 58.12179183959961,
    "q2": 103.85484313964844
  },
  "city_type_by_city": {
    "Abu Dhabi": "dense_highrise",
    "Buenos Aires": "dense_highrise",
    "Canberra": "mixed_midrise",
    "Shanghai": "dense_highrise",
    "Athens": "dense_highrise",
    "Rio de Janeiro": "mixed_midrise",
    "Bilbao": "dense_highrise",
    "Kuala Lumpur": "dense_highrise",
    "Mexico City": "dense_highrise",
    "Tunis": "mixed_midrise",
    "Victoria": "open_lowrise",
    "Kinshasa": "mixed_midrise",
    "Johannesburg": "mixed_midrise",
    "Bangalore": "dense_highrise",
    "Paris": "dense_highrise",
    "Ho Chi Minh City": "dense_highrise",
    "Vancouver": "open_lowrise",
    "Hyderabad": "dense_highrise",
    "Siem Reap": "open_lowrise",
    "Santiago": "dense_highrise",
    "Hanoi": "dense_highrise",
    "Pune": "dense_highrise",
    "Bangkok": "dense_highrise",
    "Berlin": "dense_highrise",
    "Dhaka": "dense_highrise",
    "Copenhagen": "mixed_midrise",
    "Bratislava": "dense_highrise",
    "Carcassonne": "open_lowrise",
    "Jaipur": "dense_highrise",
    "Beijing": "dense_highrise",
    "Valparaiso": "dense_highrise",
    "Nagpur": "dense_highrise",
    "Marrakesh": "open_lowrise",
    "Lyon": "mixed_midrise",
    "Venice": "open_lowrise",
    "Alexandria": "mixed_midrise",
    "Cleveland": "mixed_midrise",
    "Minsk": "mixed_midrise",
    "Munich": "dense_highrise",
    "Antigua Guatemala": "open_lowrise",
    "Vienna": "dense_highrise",
    "Leuven": "mixed_midrise",
    "Halifax": "open_lowrise",
    "Brugge": "mixed_midrise",
    "St. Louis": "mixed_midrise",
    "Surat": "dense_highrise",
    "Abidjan": "mixed_midrise",
    "Barcelona": "dense_highrise",
    "Chiang Mai": "dense_highrise",
    "Fortaleza": "dense_highrise",
    "Nazareth": "mixed_midrise",
    "Luanda": "dense_highrise",
    "Key West": "mixed_midrise",
    "Osaka": "dense_highrise",
    "Salvador": "dense_highrise",
    "Ljubljana": "mixed_midrise",
    "Dubrovnik": "mixed_midrise",
    "Chefchaouen": "open_lowrise",
    "Segovia": "mixed_midrise",
    "Phuket": "dense_highrise",
    "Nice": "mixed_midrise",
    "Dalian": "dense_highrise",
    "Manaus": "dense_highrise",
    "Bath": "mixed_midrise",
    "Thane": "dense_highrise",
    "Toledo": "mixed_midrise"
  },
  "local_kernel_sizes": [
    15,
    41
  ],
  "formula": "hybrid_shadowed_ripple_two_ray_cih7_nlos",
  "a2g_params_json": null,
  "feature_order": [
    "prior_db_squared",
    "prior_db",
    "log1p_distance_m",
    "local_building_density_small",
    "local_building_density_large",
    "local_mean_height_small_norm",
    "local_mean_height_large_norm",
    "local_building_density_large_x_log1p_distance_m",
    "nlos_support_small",
    "nlos_support_large",
    "nlos_support_large_x_log1p_distance_m",
    "shadow_sigma_db",
    "theta_norm",
    "nlos_support_large_x_theta_norm",
    "bias"
  ],
  "coefficients": {
    "dense_highrise|LoS|high_ant": {
      "weights": [
        -0.0030370950541511095,
        -0.13481950146087315,
        14.939550573721352,
        -0.35483366859703724,
        11.975724663584842,
        0.8756205211181416,
        -4.441913135056033,
        -2.230313324952279,
        0.17357624103540253,
        -8.047230017502818,
        1.5379536108365321,
        -276.1208228434123,
        -169.91020281442707,
        -0.3352392987704611
      ],
      "bias": 276.0448765377646,
      "count": 1552045,
      "distance_scale_m": 362.03867196751236,
      "height_scale": 255.0,
      "meters_per_pixel": 1.0,
      "receiver_height_m": 1.5
    },
    "dense_highrise|NLoS|high_ant": {
      "weights": [
        -0.030840596036644182,
        7.790738906264585,
        -12.853950333435856,
        -21.839824808675527,
        86.73762364711426,
        -91.72657694677349,
        46.28348270275469,
        -15.99225054697312,
        -6.488319630449167,
        -104.10182819632058,
        16.574314056389397,
        21.52807147826441,
        -5.9730666459394826,
        58.86769221070553
      ],
      "bias": -522.4230908242422,
      "count": 487211,
      "distance_scale_m": 362.03867196751236,
      "height_scale": 255.0,
      "meters_per_pixel": 1.0,
      "receiver_height_m": 1.5
    },
    "dense_highrise|LoS|low_ant": {
      "weights": [
        0.024340539808521484,
        -5.7307470781645815,
        19.145245193301363,
        -0.0510764363963999,
        -12.35366086667074,
        1.02789629411865,
        -3.640623122691655,
        2.4320802579544987,
        -0.18073084211553667,
        5.83236244971969,
        -1.1012761146405923,
        -235.26030817032944,
        -137.40830153387438,
        1.0293025733544365
      ],
      "bias": 503.7649819284443,
      "count": 1008669,
      "distance_scale_m": 362.03867196751236,
      "height_scale": 255.0,
      "meters_per_pixel": 1.0,
      "receiver_height_m": 1.5
    },
    "dense_highrise|NLoS|low_ant": {
      "weights": [
        -0.01870483703599584,
        4.426664480412096,
        -56.56545694292229,
        -34.39268119240938,
        -105.99266461862469,
        202.32978203912592,
        -265.54349775224557,
        20.02660541868415,
        -8.342342816337466,
        -328.8025978641251,
        51.46563491812367,
        41.99236272861552,
        -94.31554131005325,
        267.10351323491955
      ],
      "bias": -165.45570818619018,
      "count": 1080963,
      "distance_scale_m": 362.03867196751236,
      "height_scale": 255.0,
      "meters_per_pixel": 1.0,
      "receiver_height_m": 1.5
    },
    "open_lowrise|LoS|mid_ant": {
      "weights": [
        0.028602270030792604,
        -7.86188208371965,
        29.352646992074217,
        -0.4132230720967894,
        -9.903354713577569,
        -0.5068030740122649,
        -9.677285222330127,
        2.050059547048596,
        0.056407389562571394,
        7.0136216510111655,
        -1.3587822997443146,
        -444.2649358332301,
        -265.660062804005,
        0.3033765031930428
      ],
      "bias": 779.8519972433578,
      "count": 402397,
      "distance_scale_m": 362.03867196751236,
      "height_scale": 255.0,
      "meters_per_pixel": 1.0,
      "receiver_height_m": 1.5
    },
    "open_lowrise|NLoS|mid_ant": {
      "weights": [
        -0.07065144206046814,
        17.86442495828626,
        -25.163758205503473,
        -11.537053904468443,
        -91.32357908186478,
        -187.27057766360608,
        -74.2437191815655,
        19.006945558620863,
        -5.576107674737869,
        59.91978834592133,
        -8.743018067162684,
        -9.240123734600639,
        -68.44539110724824,
        -35.14890684238746
      ],
      "bias": -893.7463780733999,
      "count": 81650,
      "distance_scale_m": 362.03867196751236,
      "height_scale": 255.0,
      "meters_per_pixel": 1.0,
      "receiver_height_m": 1.5
    },
    "mixed_midrise|LoS|mid_ant": {
      "weights": [
        0.019865422360979473,
        -5.949147714628898,
        27.147053614248154,
        -0.020389349756301467,
        -9.660576610453063,
        0.6984060132288478,
        2.424249966647991,
        1.8098138023582628,
        -0.057582162752514564,
        4.388899714321928,
        -0.8416661339121445,
        -419.71750563162425,
        -251.41932619207736,
        0.37425987095574736
      ],
      "bias": 669.3602076174178,
      "count": 921633,
      "distance_scale_m": 362.03867196751236,
      "height_scale": 255.0,
      "meters_per_pixel": 1.0,
      "receiver_height_m": 1.5
    },
    "mixed_midrise|NLoS|mid_ant": {
      "weights": [
        -0.04314090183804806,
        10.737689442545795,
        15.425057940588399,
        -32.05236326404615,
        48.51137188742399,
        -12.672836685415534,
        -219.09992095599534,
        -7.96301020884293,
        -11.430589209541271,
        160.9853176376409,
        -25.103172094638385,
        5.285368094964749,
        52.802038004307825,
        -48.42264398367116
      ],
      "bias": -766.2130623911537,
      "count": 343754,
      "distance_scale_m": 362.03867196751236,
      "height_scale": 255.0,
      "meters_per_pixel": 1.0,
      "receiver_height_m": 1.5
    },
    "dense_highrise|LoS|mid_ant": {
      "weights": [
        0.01685499034357002,
        -5.416142210748438,
        27.506067988645455,
        -0.10868692756002835,
        -4.449873959190418,
        -0.17357045918416267,
        -3.3623236801250225,
        0.8771092233168928,
        -0.059414476453719084,
        1.7789209440277354,
        -0.3246523225857196,
        -429.6232138253251,
        -257.57061208045366,
        0.38357135939981757
      ],
      "bias": 651.855489404413,
      "count": 1279378,
      "distance_scale_m": 362.03867196751236,
      "height_scale": 255.0,
      "meters_per_pixel": 1.0,
      "receiver_height_m": 1.5
    },
    "dense_highrise|NLoS|mid_ant": {
      "weights": [
        -0.008627087103288007,
        2.1489254694140785,
        -42.1498283641303,
        -44.73457914498324,
        -25.98504728442873,
        185.44981980880692,
        -282.76612509017644,
        5.60551361723519,
        -10.107528458147112,
        -199.79794940028637,
        29.878092410672558,
        36.72898587050773,
        -78.51536845566805,
        180.0479154449009
      ],
      "bias": -78.46616290450966,
      "count": 865446,
      "distance_scale_m": 362.03867196751236,
      "height_scale": 255.0,
      "meters_per_pixel": 1.0,
      "receiver_height_m": 1.5
    },
    "open_lowrise|LoS|low_ant": {
      "weights": [
        0.03203190140341408,
        -7.189921800184823,
        18.922645154380305,
        -0.020107344584582548,
        -33.7984390038278,
        -9.623553501541995,
        22.88823433304538,
        6.443382626200502,
        -0.017202966659889532,
        10.350695725819236,
        -2.07467042889254,
        -212.34879225660958,
        -124.23834742468365,
        3.79462186404511
      ],
      "bias": 556.1134126608922,
      "count": 345980,
      "distance_scale_m": 362.03867196751236,
      "height_scale": 255.0,
      "meters_per_pixel": 1.0,
      "receiver_height_m": 1.5
    },
    "open_lowrise|NLoS|low_ant": {
      "weights": [
        -0.007876996226638634,
        2.0430630608969507,
        -11.620258832683637,
        -49.459835914701635,
        160.57597280120373,
        419.3707211043845,
        -746.5990401435218,
        -25.12181996289726,
        -13.847862027593651,
        -3.618865091305908,
        3.921210702242539,
        -19.09275524347574,
        -141.7133803929982,
        12.520050686246986
      ],
      "bias": 102.0879607017645,
      "count": 96856,
      "distance_scale_m": 362.03867196751236,
      "height_scale": 255.0,
      "meters_per_pixel": 1.0,
      "receiver_height_m": 1.5
    },
    "mixed_midrise|LoS|high_ant": {
      "weights": [
        -0.0027128296077690043,
        -0.5110535758460621,
        17.587730304017246,
        -0.1412040525565346,
        10.547014331513981,
        -0.5810110736314901,
        -7.944000578058883,
        -1.9529949184582578,
        0.10494348733674681,
        -9.960095951408722,
        1.8377814878347483,
        -324.90853277239444,
        -199.6799676631354,
        0.4187361834360887
      ],
      "bias": 333.58838907876486,
      "count": 1089562,
      "distance_scale_m": 362.03867196751236,
      "height_scale": 255.0,
      "meters_per_pixel": 1.0,
      "receiver_height_m": 1.5
    },
    "mixed_midrise|NLoS|high_ant": {
      "weights": [
        -0.012229989325460688,
        3.1256232480623036,
        -9.65179499390396,
        10.452471587957755,
        73.01714836404328,
        -431.6618147840723,
        503.2636477649213,
        -16.184702809773814,
        -4.877242093945262,
        -78.96035028107592,
        14.395741996552239,
        11.942835484708423,
        -13.897355759847022,
        22.35369649564369
      ],
      "bias": -200.4874640570076,
      "count": 172615,
      "distance_scale_m": 362.03867196751236,
      "height_scale": 255.0,
      "meters_per_pixel": 1.0,
      "receiver_height_m": 1.5
    },
    "open_lowrise|LoS|high_ant": {
      "weights": [
        -0.0012558421686560105,
        -1.3749105507896193,
        22.730047615089447,
        -0.20191494611891692,
        22.09547364066832,
        -2.070100195789791,
        -8.716381031996551,
        -3.9776256189935797,
        0.10012279378592652,
        -13.636108786921499,
        2.6249990410389312,
        -413.48299261548476,
        -253.4892781155899,
        -1.476568925803889
      ],
      "bias": 445.57979450706523,
      "count": 353992,
      "distance_scale_m": 362.03867196751236,
      "height_scale": 255.0,
      "meters_per_pixel": 1.0,
      "receiver_height_m": 1.5
    },
    "open_lowrise|NLoS|high_ant": {
      "weights": [
        0.05079417598080181,
        -12.212920373224922,
        6.501071853695349,
        45.125000157335165,
        -46.89112289795156,
        -990.7130475422952,
        961.3255761923139,
        5.315346960771645,
        5.02076452102012,
        164.63903955188638,
        -21.846114342769415,
        -3.461265481672563,
        -0.465870385507005,
        -96.90036152314609
      ],
      "bias": 715.647703082406,
      "count": 26761,
      "distance_scale_m": 362.03867196751236,
      "height_scale": 255.0,
      "meters_per_pixel": 1.0,
      "receiver_height_m": 1.5
    },
    "mixed_midrise|LoS|low_ant": {
      "weights": [
        0.027472690529476523,
        -6.330637532222679,
        19.07554561912219,
        -0.03928527042347517,
        -13.798695803790553,
        -4.5290476859350415,
        -4.826860621478402,
        2.6988109345013838,
        -0.029831579235894162,
        3.1404797055721225,
        -0.6991740311684161,
        -221.79679897137078,
        -129.77829466141657,
        4.686376877721628
      ],
      "bias": 522.2868454275941,
      "count": 798740,
      "distance_scale_m": 362.03867196751236,
      "height_scale": 255.0,
      "meters_per_pixel": 1.0,
      "receiver_height_m": 1.5
    },
    "mixed_midrise|NLoS|low_ant": {
      "weights": [
        -0.02994701666015485,
        7.1863076458664255,
        -48.99104486747676,
        -37.543220964457745,
        -18.737824273077088,
        278.50965849489,
        -439.1539739619944,
        3.9927244132949604,
        -9.971334735416013,
        -263.8346438384785,
        42.80667160690523,
        3.7829617479955036,
        -219.12097478710572,
        254.83953234140364
      ],
      "bias": -120.6215305083064,
      "count": 465926,
      "distance_scale_m": 362.03867196751236,
      "height_scale": 255.0,
      "meters_per_pixel": 1.0,
      "receiver_height_m": 1.5
    }
  },
  "val_results": {
    "overall": {
      "count": 47726515,
      "rmse_db": 23.717168501641982,
      "mae_db": 12.105223343879183
    },
    "LoS": {
      "count": 31939056,
      "rmse_db": 3.3741252395792647,
      "mae_db": 2.556234000707631
    },
    "NLoS": {
      "count": 15787459,
      "rmse_db": 40.95673781754982,
      "mae_db": 31.423449514460433
    }
  }
}