{
  "model_type": "regime_obstruction_multiscale_v1",
  "dataset": "C:\\TFG\\TFGpractice\\Datasets\\CKM_Dataset_270326.h5",
  "split_seed": 42,
  "official_metric_mask": "topology == 0 and dataset mask > 0",
  "city_type_thresholds": {
    "density_q1": 0.1956760965207146,
    "density_q2": 0.2549084200418514,
    "height_q1": 10.913664557109195,
    "height_q2": 15.950557886832314
  },
  "antenna_height_thresholds": {
    "q1": 58.12179183959961,
    "q2": 103.85484313964844
  },
  "city_type_by_city": {
    "Abu Dhabi": "dense_highrise",
    "Buenos Aires": "dense_highrise",
    "Canberra": "mixed_midrise",
    "Shanghai": "dense_highrise",
    "Athens": "dense_highrise",
    "Rio de Janeiro": "mixed_midrise",
    "Bilbao": "dense_highrise",
    "Kuala Lumpur": "dense_highrise",
    "Mexico City": "dense_highrise",
    "Tunis": "mixed_midrise",
    "Victoria": "open_lowrise",
    "Kinshasa": "mixed_midrise",
    "Johannesburg": "mixed_midrise",
    "Bangalore": "dense_highrise",
    "Paris": "dense_highrise",
    "Ho Chi Minh City": "dense_highrise",
    "Vancouver": "open_lowrise",
    "Hyderabad": "dense_highrise",
    "Siem Reap": "open_lowrise",
    "Santiago": "dense_highrise",
    "Hanoi": "dense_highrise",
    "Pune": "dense_highrise",
    "Bangkok": "dense_highrise",
    "Berlin": "dense_highrise",
    "Dhaka": "dense_highrise",
    "Copenhagen": "mixed_midrise",
    "Bratislava": "dense_highrise",
    "Carcassonne": "open_lowrise",
    "Jaipur": "dense_highrise",
    "Beijing": "dense_highrise",
    "Valparaiso": "dense_highrise",
    "Nagpur": "dense_highrise",
    "Marrakesh": "open_lowrise",
    "Lyon": "mixed_midrise",
    "Venice": "open_lowrise",
    "Alexandria": "mixed_midrise",
    "Cleveland": "mixed_midrise",
    "Minsk": "mixed_midrise",
    "Munich": "dense_highrise",
    "Antigua Guatemala": "open_lowrise",
    "Vienna": "dense_highrise",
    "Leuven": "mixed_midrise",
    "Halifax": "open_lowrise",
    "Brugge": "mixed_midrise",
    "St. Louis": "mixed_midrise",
    "Surat": "dense_highrise",
    "Abidjan": "mixed_midrise",
    "Barcelona": "dense_highrise",
    "Chiang Mai": "dense_highrise",
    "Fortaleza": "dense_highrise",
    "Nazareth": "mixed_midrise",
    "Luanda": "dense_highrise",
    "Key West": "mixed_midrise",
    "Osaka": "dense_highrise",
    "Salvador": "dense_highrise",
    "Ljubljana": "mixed_midrise",
    "Dubrovnik": "mixed_midrise",
    "Chefchaouen": "open_lowrise",
    "Segovia": "mixed_midrise",
    "Phuket": "dense_highrise",
    "Nice": "mixed_midrise",
    "Dalian": "dense_highrise",
    "Manaus": "dense_highrise",
    "Bath": "mixed_midrise",
    "Thane": "dense_highrise",
    "Toledo": "mixed_midrise"
  },
  "local_kernel_sizes": [
    15,
    41
  ],
  "formula": "hybrid_shadowed_ripple_two_ray_vinogradov_nlos",
  "a2g_params_json": null,
  "feature_order": [
    "prior_db_squared",
    "prior_db",
    "log1p_distance_m",
    "local_building_density_small",
    "local_building_density_large",
    "local_mean_height_small_norm",
    "local_mean_height_large_norm",
    "local_building_density_large_x_log1p_distance_m",
    "nlos_support_small",
    "nlos_support_large",
    "nlos_support_large_x_log1p_distance_m",
    "shadow_sigma_db",
    "theta_norm",
    "nlos_support_large_x_theta_norm",
    "bias"
  ],
  "coefficients": {
    "dense_highrise|LoS|high_ant": {
      "weights": [
        -0.0030370950541511095,
        -0.13481950146087315,
        14.939550573721352,
        -0.35483366859703724,
        11.975724663584842,
        0.8756205211181416,
        -4.441913135056033,
        -2.230313324952279,
        0.17357624103540253,
        -8.047230017502818,
        1.5379536108365321,
        -276.1208228434123,
        -169.91020281442707,
        -0.3352392987704611
      ],
      "bias": 276.0448765377646,
      "count": 1552045,
      "distance_scale_m": 362.03867196751236,
      "height_scale": 255.0,
      "meters_per_pixel": 1.0,
      "receiver_height_m": 1.5
    },
    "dense_highrise|NLoS|high_ant": {
      "weights": [
        -0.01160242355287461,
        3.1144499528042506,
        -11.08457367740268,
        -21.871070911077194,
        91.24386217978707,
        -91.05689565455073,
        47.10132288757743,
        -16.697947516343262,
        -6.656821156976534,
        -91.7882063889334,
        14.949915213119386,
        19.758072047966166,
        -7.388244746698738,
        51.16056513834181
      ],
      "bias": -238.1385287117081,
      "count": 487211,
      "distance_scale_m": 362.03867196751236,
      "height_scale": 255.0,
      "meters_per_pixel": 1.0,
      "receiver_height_m": 1.5
    },
    "dense_highrise|LoS|low_ant": {
      "weights": [
        0.024340539808521484,
        -5.7307470781645815,
        19.145245193301363,
        -0.0510764363963999,
        -12.35366086667074,
        1.02789629411865,
        -3.640623122691655,
        2.4320802579544987,
        -0.18073084211553667,
        5.83236244971969,
        -1.1012761146405923,
        -235.26030817032944,
        -137.40830153387438,
        1.0293025733544365
      ],
      "bias": 503.7649819284443,
      "count": 1008669,
      "distance_scale_m": 362.03867196751236,
      "height_scale": 255.0,
      "meters_per_pixel": 1.0,
      "receiver_height_m": 1.5
    },
    "dense_highrise|NLoS|low_ant": {
      "weights": [
        -0.006736476409285465,
        1.7648303422982825,
        -56.2666410952966,
        -34.635319158716534,
        -104.06040230629739,
        203.04112545145156,
        -262.8767888777487,
        19.740407374650207,
        -8.281753604713487,
        -316.75476029076066,
        49.69985513211336,
        40.798662668460025,
        -96.43627399581509,
        254.93604205271885
      ],
      "bias": -13.050541655278998,
      "count": 1080963,
      "distance_scale_m": 362.03867196751236,
      "height_scale": 255.0,
      "meters_per_pixel": 1.0,
      "receiver_height_m": 1.5
    },
    "open_lowrise|LoS|mid_ant": {
      "weights": [
        0.028602270030792604,
        -7.86188208371965,
        29.352646992074217,
        -0.4132230720967894,
        -9.903354713577569,
        -0.5068030740122649,
        -9.677285222330127,
        2.050059547048596,
        0.056407389562571394,
        7.0136216510111655,
        -1.3587822997443146,
        -444.2649358332301,
        -265.660062804005,
        0.3033765031930428
      ],
      "bias": 779.8519972433578,
      "count": 402397,
      "distance_scale_m": 362.03867196751236,
      "height_scale": 255.0,
      "meters_per_pixel": 1.0,
      "receiver_height_m": 1.5
    },
    "open_lowrise|NLoS|mid_ant": {
      "weights": [
        -0.019609189808237438,
        5.422709056753322,
        -15.205441322902157,
        -8.00284268768414,
        -93.37745286771725,
        -222.13668741795536,
        -23.568115618886356,
        18.532290349412698,
        -6.781091350829067,
        89.49640342477785,
        -14.28653588895589,
        -10.060257150355724,
        -72.63811998051982,
        -26.8548771697464
      ],
      "bias": -186.28536566757535,
      "count": 81650,
      "distance_scale_m": 362.03867196751236,
      "height_scale": 255.0,
      "meters_per_pixel": 1.0,
      "receiver_height_m": 1.5
    },
    "mixed_midrise|LoS|mid_ant": {
      "weights": [
        0.019865422360979473,
        -5.949147714628898,
        27.147053614248154,
        -0.020389349756301467,
        -9.660576610453063,
        0.6984060132288478,
        2.424249966647991,
        1.8098138023582628,
        -0.057582162752514564,
        4.388899714321928,
        -0.8416661339121445,
        -419.71750563162425,
        -251.41932619207736,
        0.37425987095574736
      ],
      "bias": 669.3602076174178,
      "count": 921633,
      "distance_scale_m": 362.03867196751236,
      "height_scale": 255.0,
      "meters_per_pixel": 1.0,
      "receiver_height_m": 1.5
    },
    "mixed_midrise|NLoS|mid_ant": {
      "weights": [
        -0.012701487576520006,
        3.448826785293313,
        19.929188611672366,
        -31.764760509222796,
        51.96073357330702,
        -8.915304383442878,
        -210.47016574812375,
        -8.716918279226626,
        -11.766951936272532,
        195.95380647686721,
        -30.81928102880607,
        6.242697723535894,
        58.3713226967323,
        -64.4388160969012
      ],
      "bias": -363.4975106889331,
      "count": 343754,
      "distance_scale_m": 362.03867196751236,
      "height_scale": 255.0,
      "meters_per_pixel": 1.0,
      "receiver_height_m": 1.5
    },
    "dense_highrise|LoS|mid_ant": {
      "weights": [
        0.01685499034357002,
        -5.416142210748438,
        27.506067988645455,
        -0.10868692756002835,
        -4.449873959190418,
        -0.17357045918416267,
        -3.3623236801250225,
        0.8771092233168928,
        -0.059414476453719084,
        1.7789209440277354,
        -0.3246523225857196,
        -429.6232138253251,
        -257.57061208045366,
        0.38357135939981757
      ],
      "bias": 651.855489404413,
      "count": 1279378,
      "distance_scale_m": 362.03867196751236,
      "height_scale": 255.0,
      "meters_per_pixel": 1.0,
      "receiver_height_m": 1.5
    },
    "dense_highrise|NLoS|mid_ant": {
      "weights": [
        -0.002715385711685744,
        0.7263182714405862,
        -41.083377074096596,
        -44.808910621811556,
        -23.260294648729975,
        185.92855670443473,
        -282.8460152082326,
        5.1693590300487795,
        -10.191641426172602,
        -192.08694106457946,
        28.704221135570446,
        36.52622037862895,
        -78.05326311329816,
        175.7788136200597
      ],
      "bias": 2.078940094145348,
      "count": 865446,
      "distance_scale_m": 362.03867196751236,
      "height_scale": 255.0,
      "meters_per_pixel": 1.0,
      "receiver_height_m": 1.5
    },
    "open_lowrise|LoS|low_ant": {
      "weights": [
        0.03203190140341408,
        -7.189921800184823,
        18.922645154380305,
        -0.020107344584582548,
        -33.7984390038278,
        -9.623553501541995,
        22.88823433304538,
        6.443382626200502,
        -0.017202966659889532,
        10.350695725819236,
        -2.07467042889254,
        -212.34879225660958,
        -124.23834742468365,
        3.79462186404511
      ],
      "bias": 556.1134126608922,
      "count": 345980,
      "distance_scale_m": 362.03867196751236,
      "height_scale": 255.0,
      "meters_per_pixel": 1.0,
      "receiver_height_m": 1.5
    },
    "open_lowrise|NLoS|low_ant": {
      "weights": [
        -0.001552435716268759,
        0.5121458586481695,
        -10.021221322431991,
        -49.58734362439836,
        160.69471605856106,
        426.17739747494784,
        -779.9057836888321,
        -25.0949558470728,
        -13.747286335686042,
        3.5568150432177625,
        2.4263861065365044,
        -17.10549091189514,
        -137.26802192340475,
        11.579498275952966
      ],
      "bias": 172.12308395898128,
      "count": 96856,
      "distance_scale_m": 362.03867196751236,
      "height_scale": 255.0,
      "meters_per_pixel": 1.0,
      "receiver_height_m": 1.5
    },
    "mixed_midrise|LoS|high_ant": {
      "weights": [
        -0.0027128296077690043,
        -0.5110535758460621,
        17.587730304017246,
        -0.1412040525565346,
        10.547014331513981,
        -0.5810110736314901,
        -7.944000578058883,
        -1.9529949184582578,
        0.10494348733674681,
        -9.960095951408722,
        1.8377814878347483,
        -324.90853277239444,
        -199.6799676631354,
        0.4187361834360887
      ],
      "bias": 333.58838907876486,
      "count": 1089562,
      "distance_scale_m": 362.03867196751236,
      "height_scale": 255.0,
      "meters_per_pixel": 1.0,
      "receiver_height_m": 1.5
    },
    "mixed_midrise|NLoS|high_ant": {
      "weights": [
        -0.005399790916140305,
        1.4305793906282733,
        -8.255145809263741,
        10.881130834707195,
        75.0548169875856,
        -434.1664806934393,
        511.4220225748637,
        -16.587352580791613,
        -5.260932654051705,
        -73.8531167559125,
        13.900284003641337,
        10.214378961835571,
        -15.6299319601444,
        18.045567361096975
      ],
      "bias": -92.61422793497633,
      "count": 172615,
      "distance_scale_m": 362.03867196751236,
      "height_scale": 255.0,
      "meters_per_pixel": 1.0,
      "receiver_height_m": 1.5
    },
    "open_lowrise|LoS|high_ant": {
      "weights": [
        -0.0012558421686560105,
        -1.3749105507896193,
        22.730047615089447,
        -0.20191494611891692,
        22.09547364066832,
        -2.070100195789791,
        -8.716381031996551,
        -3.9776256189935797,
        0.10012279378592652,
        -13.636108786921499,
        2.6249990410389312,
        -413.48299261548476,
        -253.4892781155899,
        -1.476568925803889
      ],
      "bias": 445.57979450706523,
      "count": 353992,
      "distance_scale_m": 362.03867196751236,
      "height_scale": 255.0,
      "meters_per_pixel": 1.0,
      "receiver_height_m": 1.5
    },
    "open_lowrise|NLoS|high_ant": {
      "weights": [
        0.022768808405656402,
        -5.6947699284939,
        6.362280448085317,
        45.1039937132985,
        -46.29843669975146,
        -984.0222622745096,
        961.7680899152634,
        5.1975573587420065,
        5.077772363279678,
        163.34783928906626,
        -21.765748194329728,
        -1.8265708998457066,
        4.854326645767943,
        -95.04916846199643
      ],
      "bias": 326.290450052713,
      "count": 26761,
      "distance_scale_m": 362.03867196751236,
      "height_scale": 255.0,
      "meters_per_pixel": 1.0,
      "receiver_height_m": 1.5
    },
    "mixed_midrise|LoS|low_ant": {
      "weights": [
        0.027472690529476523,
        -6.330637532222679,
        19.07554561912219,
        -0.03928527042347517,
        -13.798695803790553,
        -4.5290476859350415,
        -4.826860621478402,
        2.6988109345013838,
        -0.029831579235894162,
        3.1404797055721225,
        -0.6991740311684161,
        -221.79679897137078,
        -129.77829466141657,
        4.686376877721628
      ],
      "bias": 522.2868454275941,
      "count": 798740,
      "distance_scale_m": 362.03867196751236,
      "height_scale": 255.0,
      "meters_per_pixel": 1.0,
      "receiver_height_m": 1.5
    },
    "mixed_midrise|NLoS|low_ant": {
      "weights": [
        -0.010839855086148478,
        2.910832771868951,
        -48.37382971129567,
        -37.957250154668834,
        -15.627216741453356,
        281.0160975352303,
        -427.67673390932197,
        3.3697574608492817,
        -9.84413213032445,
        -253.26253167862976,
        41.314931608775915,
        7.29317389626178,
        -208.5625716267123,
        239.04461504754934
      ],
      "bias": 87.80660882132871,
      "count": 465926,
      "distance_scale_m": 362.03867196751236,
      "height_scale": 255.0,
      "meters_per_pixel": 1.0,
      "receiver_height_m": 1.5
    }
  },
  "val_results": {
    "overall": {
      "count": 47726515,
      "rmse_db": 23.710445400606233,
      "mae_db": 12.087357661014009
    },
    "LoS": {
      "count": 31939056,
      "rmse_db": 3.3741252395792647,
      "mae_db": 2.556234000707631
    },
    "NLoS": {
      "count": 15787459,
      "rmse_db": 40.94496857184369,
      "mae_db": 31.36944049677857
    }
  }
}