{
  "model_type": "regime_obstruction_multiscale_v1",
  "dataset": "C:\\TFG\\TFGpractice\\Datasets\\CKM_Dataset_270326.h5",
  "split_seed": 42,
  "official_metric_mask": "topology == 0 and dataset mask > 0",
  "city_type_thresholds": {
    "density_q1": 0.1956760965207146,
    "density_q2": 0.2549084200418514,
    "height_q1": 10.913664557109195,
    "height_q2": 15.950557886832314
  },
  "antenna_height_thresholds": {
    "q1": 58.12179183959961,
    "q2": 103.85484313964844
  },
  "city_type_by_city": {
    "Abu Dhabi": "dense_highrise",
    "Buenos Aires": "dense_highrise",
    "Canberra": "mixed_midrise",
    "Shanghai": "dense_highrise",
    "Athens": "dense_highrise",
    "Rio de Janeiro": "mixed_midrise",
    "Bilbao": "dense_highrise",
    "Kuala Lumpur": "dense_highrise",
    "Mexico City": "dense_highrise",
    "Tunis": "mixed_midrise",
    "Victoria": "open_lowrise",
    "Kinshasa": "mixed_midrise",
    "Johannesburg": "mixed_midrise",
    "Bangalore": "dense_highrise",
    "Paris": "dense_highrise",
    "Ho Chi Minh City": "dense_highrise",
    "Vancouver": "open_lowrise",
    "Hyderabad": "dense_highrise",
    "Siem Reap": "open_lowrise",
    "Santiago": "dense_highrise",
    "Hanoi": "dense_highrise",
    "Pune": "dense_highrise",
    "Bangkok": "dense_highrise",
    "Berlin": "dense_highrise",
    "Dhaka": "dense_highrise",
    "Copenhagen": "mixed_midrise",
    "Bratislava": "dense_highrise",
    "Carcassonne": "open_lowrise",
    "Jaipur": "dense_highrise",
    "Beijing": "dense_highrise",
    "Valparaiso": "dense_highrise",
    "Nagpur": "dense_highrise",
    "Marrakesh": "open_lowrise",
    "Lyon": "mixed_midrise",
    "Venice": "open_lowrise",
    "Alexandria": "mixed_midrise",
    "Cleveland": "mixed_midrise",
    "Minsk": "mixed_midrise",
    "Munich": "dense_highrise",
    "Antigua Guatemala": "open_lowrise",
    "Vienna": "dense_highrise",
    "Leuven": "mixed_midrise",
    "Halifax": "open_lowrise",
    "Brugge": "mixed_midrise",
    "St. Louis": "mixed_midrise",
    "Surat": "dense_highrise",
    "Abidjan": "mixed_midrise",
    "Barcelona": "dense_highrise",
    "Chiang Mai": "dense_highrise",
    "Fortaleza": "dense_highrise",
    "Nazareth": "mixed_midrise",
    "Luanda": "dense_highrise",
    "Key West": "mixed_midrise",
    "Osaka": "dense_highrise",
    "Salvador": "dense_highrise",
    "Ljubljana": "mixed_midrise",
    "Dubrovnik": "mixed_midrise",
    "Chefchaouen": "open_lowrise",
    "Segovia": "mixed_midrise",
    "Phuket": "dense_highrise",
    "Nice": "mixed_midrise",
    "Dalian": "dense_highrise",
    "Manaus": "dense_highrise",
    "Bath": "mixed_midrise",
    "Thane": "dense_highrise",
    "Toledo": "mixed_midrise"
  },
  "local_kernel_sizes": [
    15,
    41
  ],
  "formula": "a2g_paper_eq9_eq10_eq11",
  "a2g_params_json": null,
  "feature_order": [
    "prior_db_squared",
    "prior_db",
    "log1p_distance_m",
    "local_building_density_small",
    "local_building_density_large",
    "local_mean_height_small_norm",
    "local_mean_height_large_norm",
    "local_building_density_large_x_log1p_distance_m",
    "nlos_support_small",
    "nlos_support_large",
    "nlos_support_large_x_log1p_distance_m",
    "shadow_sigma_db",
    "bias"
  ],
  "coefficients": {
    "dense_highrise|LoS|low_ant": {
      "weights": [
        -0.0011203728786147837,
        1.1017598243630875,
        1.3086218119078337,
        -0.182955284446617,
        0.21926480931223688,
        -1.6360655726658864,
        -0.8633376503922062,
        -0.04087517217019633,
        0.08227579172398257,
        -0.31843430532034833,
        0.04960643767068045,
        -4.108432419385522
      ],
      "bias": -3.798867580789123,
      "count": 415795,
      "distance_scale_m": 362.03867196751236,
      "height_scale": 255.0,
      "meters_per_pixel": 1.0,
      "receiver_height_m": 1.5
    },
    "dense_highrise|NLoS|low_ant": {
      "weights": [
        0.056702274696310194,
        -5.49318661270659,
        -39.41857918888912,
        -35.32027959116647,
        -67.27290348629727,
        218.39258419260463,
        -284.6773636803848,
        11.862313478674684,
        -6.091539661872886,
        -72.49501144965343,
        9.635995743382539,
        32.35383379003736
      ],
      "bias": 170.0251170977574,
      "count": 440554,
      "distance_scale_m": 362.03867196751236,
      "height_scale": 255.0,
      "meters_per_pixel": 1.0,
      "receiver_height_m": 1.5
    },
    "dense_highrise|LoS|mid_ant": {
      "weights": [
        0.0012147422340161127,
        0.7174056492891641,
        0.6679394163826358,
        -0.24147038121277153,
        1.0596552908492538,
        0.8787819156307256,
        -3.893909023052855,
        -0.16598304319756074,
        0.11716868136239265,
        -1.2726451224014028,
        0.23172314786420958,
        -1.9616811787542743
      ],
      "bias": 13.481712565460072,
      "count": 529585,
      "distance_scale_m": 362.03867196751236,
      "height_scale": 255.0,
      "meters_per_pixel": 1.0,
      "receiver_height_m": 1.5
    },
    "dense_highrise|NLoS|mid_ant": {
      "weights": [
        0.016981343777360013,
        -0.7787091998626021,
        -19.93466964663553,
        -41.620863560626766,
        0.32461269878611415,
        161.18338085138566,
        -269.7990052830197,
        0.473552279609979,
        -11.29549198648633,
        62.712328759685434,
        -11.296170784669435,
        33.163103775842536
      ],
      "bias": -90.32449868516356,
      "count": 348336,
      "distance_scale_m": 362.03867196751236,
      "height_scale": 255.0,
      "meters_per_pixel": 1.0,
      "receiver_height_m": 1.5
    },
    "mixed_midrise|LoS|high_ant": {
      "weights": [
        -0.0015159832720024584,
        1.195202744370073,
        0.9604395451686608,
        -0.13332776518808517,
        3.8798299327914516,
        0.026515656336451986,
        -7.70382282899884,
        -0.7143498172792945,
        0.1106354436361833,
        -2.4020197216741694,
        0.45187729432804125,
        -2.785417946068076
      ],
      "bias": -8.298523436021332,
      "count": 395780,
      "distance_scale_m": 362.03867196751236,
      "height_scale": 255.0,
      "meters_per_pixel": 1.0,
      "receiver_height_m": 1.5
    },
    "mixed_midrise|NLoS|high_ant": {
      "weights": [
        0.02803979468436827,
        -4.077762215261767,
        -4.182898916347727,
        -2.839778453176423,
        129.63944903324597,
        -286.3858772271283,
        282.60588973664534,
        -24.946901576884713,
        -5.83378185427567,
        -24.807551516859625,
        6.412509632273197,
        15.671584326048924
      ],
      "bias": 91.6340986088578,
      "count": 71328,
      "distance_scale_m": 362.03867196751236,
      "height_scale": 255.0,
      "meters_per_pixel": 1.0,
      "receiver_height_m": 1.5
    },
    "mixed_midrise|LoS|mid_ant": {
      "weights": [
        0.002308361272949667,
        0.48259426837639735,
        0.8278284635334743,
        0.0952969913386903,
        2.7021315722130015,
        -5.634557082031904,
        1.2274648070002845,
        -0.5613122555261835,
        -0.09795446580716766,
        -1.6117875656127916,
        0.3314389389992671,
        -1.8019238769766526
      ],
      "bias": 25.006807131044468,
      "count": 338346,
      "distance_scale_m": 362.03867196751236,
      "height_scale": 255.0,
      "meters_per_pixel": 1.0,
      "receiver_height_m": 1.5
    },
    "mixed_midrise|NLoS|mid_ant": {
      "weights": [
        -0.16844178751886524,
        24.46762411306178,
        -2.105829714856671,
        -31.613279601573527,
        128.55755155845853,
        21.151092239490687,
        -221.2708450716998,
        -23.104272326007123,
        -10.582320869053222,
        52.849001170830356,
        -6.987036736432804,
        20.645831880257386
      ],
      "bias": -979.8871159405442,
      "count": 125979,
      "distance_scale_m": 362.03867196751236,
      "height_scale": 255.0,
      "meters_per_pixel": 1.0,
      "receiver_height_m": 1.5
    },
    "dense_highrise|LoS|high_ant": {
      "weights": [
        -0.0007354446693649276,
        1.055482244955424,
        0.8454365644465992,
        -0.2495629815453158,
        0.5531172783244662,
        -0.7287396623243754,
        -4.060006515752143,
        -0.05040503239014088,
        0.1657216214389501,
        0.14738960774999246,
        -0.05231791154050094,
        -2.4324600226106234
      ],
      "bias": -1.6889019669330962,
      "count": 660649,
      "distance_scale_m": 362.03867196751236,
      "height_scale": 255.0,
      "meters_per_pixel": 1.0,
      "receiver_height_m": 1.5
    },
    "dense_highrise|NLoS|high_ant": {
      "weights": [
        0.01219110480655296,
        -0.5963678202195412,
        -11.663867152061679,
        -23.371388827238444,
        59.45093226581859,
        -55.51942456355953,
        -13.30129516014533,
        -9.963328220503975,
        -5.96217052589461,
        32.63273268734456,
        -3.948380447692402,
        25.148507370920544
      ],
      "bias": -91.4511847450499,
      "count": 204865,
      "distance_scale_m": 362.03867196751236,
      "height_scale": 255.0,
      "meters_per_pixel": 1.0,
      "receiver_height_m": 1.5
    },
    "open_lowrise|LoS|mid_ant": {
      "weights": [
        -0.0002032004050119905,
        0.9906840445927501,
        0.6613086129720454,
        -0.3611193465054324,
        2.959466575643656,
        -1.0818281156697018,
        -9.611177240923192,
        -0.42848820916875535,
        0.10152668929795476,
        -1.5125998224305681,
        0.25306347828547693,
        -2.0284513034310963
      ],
      "bias": 0.3945758111305399,
      "count": 134955,
      "distance_scale_m": 362.03867196751236,
      "height_scale": 255.0,
      "meters_per_pixel": 1.0,
      "receiver_height_m": 1.5
    },
    "open_lowrise|NLoS|mid_ant": {
      "weights": [
        0.2384294169635933,
        -34.960809538993544,
        5.608385221965858,
        -9.251184211478185,
        -52.383193900775545,
        -137.29515824105266,
        -20.600711688872185,
        10.57235971355901,
        -8.54389725505286,
        72.68285558145779,
        -10.322449819500257,
        -4.284082868050204
      ],
      "bias": 1292.407121975147,
      "count": 27140,
      "distance_scale_m": 362.03867196751236,
      "height_scale": 255.0,
      "meters_per_pixel": 1.0,
      "receiver_height_m": 1.5
    },
    "mixed_midrise|LoS|low_ant": {
      "weights": [
        -0.0012319404061222681,
        1.0988790316921202,
        1.4689690778119304,
        -0.41624941398143156,
        2.0757573782168057,
        11.285794047439216,
        -8.058012520117861,
        -0.34339028360914386,
        -0.10920567124744975,
        -0.9367413291679125,
        0.19165459325587758,
        -4.079637942677413
      ],
      "bias": -3.383807183047086,
      "count": 286825,
      "distance_scale_m": 362.03867196751236,
      "height_scale": 255.0,
      "meters_per_pixel": 1.0,
      "receiver_height_m": 1.5
    },
    "mixed_midrise|NLoS|low_ant": {
      "weights": [
        -0.022373381851992048,
        4.367642659697021,
        -21.75175615881124,
        -40.12244782705689,
        -25.968177113430745,
        289.9468558650375,
        -487.1654270568839,
        5.502166659165696,
        -11.366406638481298,
        27.18982273768852,
        -5.582113233958483,
        38.54463167090748
      ],
      "bias": -279.6404070601253,
      "count": 185069,
      "distance_scale_m": 362.03867196751236,
      "height_scale": 255.0,
      "meters_per_pixel": 1.0,
      "receiver_height_m": 1.5
    },
    "open_lowrise|LoS|low_ant": {
      "weights": [
        -0.0013790190856139504,
        1.1338639210773758,
        1.4883355060455843,
        0.3196501014444836,
        -4.921029541535772,
        -16.209069484095707,
        -2.0976301029177415,
        0.947925601403762,
        -0.1955692613057728,
        2.684487129317756,
        -0.48819794857128285,
        -4.678437945847892
      ],
      "bias": -5.058180091696434,
      "count": 136254,
      "distance_scale_m": 362.03867196751236,
      "height_scale": 255.0,
      "meters_per_pixel": 1.0,
      "receiver_height_m": 1.5
    },
    "open_lowrise|NLoS|low_ant": {
      "weights": [
        -0.11146928201276689,
        14.393561755835456,
        3.0709847344105925,
        -46.1258865690511,
        33.27529229090649,
        448.30650873441124,
        -610.750984217674,
        -5.1873816792178475,
        -7.804642582803136,
        130.01958065184652,
        -21.92453126576243,
        26.618002181773438
      ],
      "bias": -622.4180407698444,
      "count": 45242,
      "distance_scale_m": 362.03867196751236,
      "height_scale": 255.0,
      "meters_per_pixel": 1.0,
      "receiver_height_m": 1.5
    },
    "open_lowrise|LoS|high_ant": {
      "weights": [
        -0.004082891456214561,
        1.6786321541280889,
        1.1495066725599428,
        -0.12114679099310263,
        8.141562099805723,
        -12.875627471689679,
        6.057642854455854,
        -1.6192172508528864,
        0.12526073759969605,
        -6.142804272590518,
        1.1629102755322247,
        -3.404727166208207
      ],
      "bias": -31.703632660618418,
      "count": 168344,
      "distance_scale_m": 362.03867196751236,
      "height_scale": 255.0,
      "meters_per_pixel": 1.0,
      "receiver_height_m": 1.5
    },
    "open_lowrise|NLoS|high_ant": {
      "weights": [
        0.03006028085042346,
        -4.286156797671764,
        -9.90717480558424,
        31.837617020305203,
        -17.06665882377482,
        -577.3813845189466,
        525.0554278969728,
        -0.8816456605545046,
        0.533996137776516,
        -28.386618921178293,
        6.869054913307611,
        13.18974710004989
      ],
      "bias": 129.25174476796735,
      "count": 14219,
      "distance_scale_m": 362.03867196751236,
      "height_scale": 255.0,
      "meters_per_pixel": 1.0,
      "receiver_height_m": 1.5
    }
  },
  "val_results": {
    "overall": {
      "count": 485380287,
      "rmse_db": 23.60373829155331,
      "mae_db": 12.277330691867386
    },
    "LoS": {
      "count": 329805515,
      "rmse_db": 3.814301284570905,
      "mae_db": 3.0449134581143613
    },
    "NLoS": {
      "count": 155574772,
      "rmse_db": 41.32041576679855,
      "mae_db": 31.84928366589891
    }
  }
}