{
  "model_type": "regime_obstruction_multiscale_v1",
  "dataset": "C:\\TFG\\TFGpractice\\Datasets\\CKM_Dataset_270326.h5",
  "split_seed": 42,
  "official_metric_mask": "topology == 0 and dataset mask > 0",
  "city_type_thresholds": {
    "density_q1": 0.1956760965207146,
    "density_q2": 0.2549084200418514,
    "height_q1": 10.913664557109195,
    "height_q2": 15.950557886832314
  },
  "antenna_height_thresholds": {
    "q1": 58.12179183959961,
    "q2": 103.85484313964844
  },
  "city_type_by_city": {
    "Abu Dhabi": "dense_highrise",
    "Buenos Aires": "dense_highrise",
    "Canberra": "mixed_midrise",
    "Shanghai": "dense_highrise",
    "Athens": "dense_highrise",
    "Rio de Janeiro": "mixed_midrise",
    "Bilbao": "dense_highrise",
    "Kuala Lumpur": "dense_highrise",
    "Mexico City": "dense_highrise",
    "Tunis": "mixed_midrise",
    "Victoria": "open_lowrise",
    "Kinshasa": "mixed_midrise",
    "Johannesburg": "mixed_midrise",
    "Bangalore": "dense_highrise",
    "Paris": "dense_highrise",
    "Ho Chi Minh City": "dense_highrise",
    "Vancouver": "open_lowrise",
    "Hyderabad": "dense_highrise",
    "Siem Reap": "open_lowrise",
    "Santiago": "dense_highrise",
    "Hanoi": "dense_highrise",
    "Pune": "dense_highrise",
    "Bangkok": "dense_highrise",
    "Berlin": "dense_highrise",
    "Dhaka": "dense_highrise",
    "Copenhagen": "mixed_midrise",
    "Bratislava": "dense_highrise",
    "Carcassonne": "open_lowrise",
    "Jaipur": "dense_highrise",
    "Beijing": "dense_highrise",
    "Valparaiso": "dense_highrise",
    "Nagpur": "dense_highrise",
    "Marrakesh": "open_lowrise",
    "Lyon": "mixed_midrise",
    "Venice": "open_lowrise",
    "Alexandria": "mixed_midrise",
    "Cleveland": "mixed_midrise",
    "Minsk": "mixed_midrise",
    "Munich": "dense_highrise",
    "Antigua Guatemala": "open_lowrise",
    "Vienna": "dense_highrise",
    "Leuven": "mixed_midrise",
    "Halifax": "open_lowrise",
    "Brugge": "mixed_midrise",
    "St. Louis": "mixed_midrise",
    "Surat": "dense_highrise",
    "Abidjan": "mixed_midrise",
    "Barcelona": "dense_highrise",
    "Chiang Mai": "dense_highrise",
    "Fortaleza": "dense_highrise",
    "Nazareth": "mixed_midrise",
    "Luanda": "dense_highrise",
    "Key West": "mixed_midrise",
    "Osaka": "dense_highrise",
    "Salvador": "dense_highrise",
    "Ljubljana": "mixed_midrise",
    "Dubrovnik": "mixed_midrise",
    "Chefchaouen": "open_lowrise",
    "Segovia": "mixed_midrise",
    "Phuket": "dense_highrise",
    "Nice": "mixed_midrise",
    "Dalian": "dense_highrise",
    "Manaus": "dense_highrise",
    "Bath": "mixed_midrise",
    "Thane": "dense_highrise",
    "Toledo": "mixed_midrise"
  },
  "local_kernel_sizes": [
    15,
    41
  ],
  "formula": "a2g_paper_eq9_eq10_eq11",
  "a2g_params_json": "C:\\TFG\\TFGpractice\\TFGFortyFifthTry45\\prior_calibration\\a2g_best_params_train_search.json",
  "feature_order": [
    "prior_db_squared",
    "prior_db",
    "log1p_distance_m",
    "local_building_density_small",
    "local_building_density_large",
    "local_mean_height_small_norm",
    "local_mean_height_large_norm",
    "local_building_density_large_x_log1p_distance_m",
    "nlos_support_small",
    "nlos_support_large",
    "nlos_support_large_x_log1p_distance_m",
    "shadow_sigma_db",
    "theta_norm",
    "nlos_support_large_x_theta_norm",
    "bias"
  ],
  "coefficients": {
    "dense_highrise|LoS|low_ant": {
      "weights": [
        -0.0015858510983001715,
        0.45745961823283254,
        7.405733368488172,
        -0.18737452036358743,
        -0.1203936453847841,
        -1.600378310018642,
        -0.9053280737604394,
        0.024999838031598685,
        0.08716562615115324,
        -0.19158823744199993,
        0.022527998517204363,
        -106.34454365758042,
        -62.28314583917827,
        0.0677770042380589
      ],
      "bias": 110.55103855417964,
      "count": 415795,
      "distance_scale_m": 362.03867196751236,
      "height_scale": 255.0,
      "meters_per_pixel": 1.0,
      "receiver_height_m": 1.5
    },
    "dense_highrise|NLoS|low_ant": {
      "weights": [
        0.0818056242593626,
        -7.311611112276838,
        -90.62234844000578,
        -34.9865576643143,
        -72.38048182101899,
        216.64493605902618,
        -286.22321859454786,
        12.802596389197943,
        -6.999887498532107,
        -417.0920558741357,
        65.98131228389673,
        -0.5730339387330652,
        -364.7755160530908,
        334.6577892563825
      ],
      "bias": 738.9855046279765,
      "count": 440554,
      "distance_scale_m": 362.03867196751236,
      "height_scale": 255.0,
      "meters_per_pixel": 1.0,
      "receiver_height_m": 1.5
    },
    "dense_highrise|LoS|mid_ant": {
      "weights": [
        -0.0005275303817953166,
        0.7277824835052626,
        3.3870671259125666,
        -0.24663769198191515,
        0.9085510988439124,
        0.9250390074541308,
        -3.9759859957837778,
        -0.1347039901019606,
        0.11996331914814809,
        -0.3775686056400299,
        0.0835935255619743,
        -48.97526570594464,
        -28.477292767628292,
        -0.4852992419588238
      ],
      "bias": 51.160684588304214,
      "count": 529585,
      "distance_scale_m": 362.03867196751236,
      "height_scale": 255.0,
      "meters_per_pixel": 1.0,
      "receiver_height_m": 1.5
    },
    "dense_highrise|NLoS|mid_ant": {
      "weights": [
        0.10966419226541388,
        -12.083310544595337,
        -58.95124083800602,
        -41.342359880318405,
        -2.423700209913719,
        159.46563023406395,
        -269.487501318333,
        0.9423603887587592,
        -11.771477441428564,
        -226.99829354121542,
        34.683165275718395,
        25.821405762559408,
        -178.01287480822023,
        192.0544187333595
      ],
      "bias": 561.7445551913345,
      "count": 348336,
      "distance_scale_m": 362.03867196751236,
      "height_scale": 255.0,
      "meters_per_pixel": 1.0,
      "receiver_height_m": 1.5
    },
    "mixed_midrise|LoS|high_ant": {
      "weights": [
        -0.0006434197979299203,
        0.7953723832813268,
        2.9515007301887515,
        -0.1457523553491026,
        3.14280077917061,
        0.12367838153588592,
        -8.013636616380323,
        -0.5755308815262946,
        0.11066777215268761,
        -2.3693151044628102,
        0.42173875950929957,
        -44.19833520116472,
        -26.084873601099314,
        0.2934314769740938
      ],
      "bias": 44.44737804202664,
      "count": 395780,
      "distance_scale_m": 362.03867196751236,
      "height_scale": 255.0,
      "meters_per_pixel": 1.0,
      "receiver_height_m": 1.5
    },
    "mixed_midrise|NLoS|high_ant": {
      "weights": [
        0.041316964004524226,
        -5.4506770577059465,
        -8.420866846767504,
        -2.305757212985426,
        133.15806852178403,
        -289.88553634135286,
        284.34802517373305,
        -25.754164689180875,
        -6.210149173279099,
        -64.45544469877773,
        12.254768470353941,
        16.265042801574282,
        -12.76206827811537,
        19.8902788934732
      ],
      "bias": 148.21633253469088,
      "count": 71328,
      "distance_scale_m": 362.03867196751236,
      "height_scale": 255.0,
      "meters_per_pixel": 1.0,
      "receiver_height_m": 1.5
    },
    "mixed_midrise|LoS|mid_ant": {
      "weights": [
        0.0008014080960776496,
        0.47082076182187366,
        3.3078438637842913,
        0.09048831124431565,
        2.2745118338906942,
        -5.563802269505203,
        1.013902876337728,
        -0.479246117642104,
        -0.0957305383615123,
        -2.6611508655704736,
        0.49009325525859726,
        -45.47385927523758,
        -26.63852450298688,
        0.8704717185513878
      ],
      "bias": 61.32200190708008,
      "count": 338346,
      "distance_scale_m": 362.03867196751236,
      "height_scale": 255.0,
      "meters_per_pixel": 1.0,
      "receiver_height_m": 1.5
    },
    "mixed_midrise|NLoS|mid_ant": {
      "weights": [
        -0.1690447646277662,
        21.836213145807264,
        -18.601238086327054,
        -31.339968162187994,
        126.69679359849297,
        18.271982928747168,
        -220.3235969434162,
        -22.800216493614048,
        -10.858521631080642,
        -92.16131215542484,
        16.0755386630677,
        20.087101657962943,
        -70.1552189998199,
        97.19728431100478
      ],
      "bias": -688.9068992778099,
      "count": 125979,
      "distance_scale_m": 362.03867196751236,
      "height_scale": 255.0,
      "meters_per_pixel": 1.0,
      "receiver_height_m": 1.5
    },
    "dense_highrise|LoS|high_ant": {
      "weights": [
        0.0003100388967361975,
        0.6186504956991945,
        2.8752071499263745,
        -0.2531917785016382,
        0.4994388420455822,
        -0.6350736629785577,
        -4.165702958582057,
        -0.04010341210578141,
        0.15868858876417635,
        0.1664114644287995,
        -0.053894417505596495,
        -44.73132383019556,
        -26.657748671160007,
        0.003072665824112195
      ],
      "bias": 53.51828290036353,
      "count": 660649,
      "distance_scale_m": 362.03867196751236,
      "height_scale": 255.0,
      "meters_per_pixel": 1.0,
      "receiver_height_m": 1.5
    },
    "dense_highrise|NLoS|high_ant": {
      "weights": [
        0.06837042816018617,
        -8.354606014783707,
        -25.07455329603287,
        -22.41117818603503,
        72.53646700570157,
        -58.641946048090645,
        -13.387057565130222,
        -12.730191715556668,
        -6.854583457992851,
        -92.3597238296302,
        14.296699848910873,
        29.341017164112465,
        -32.77990339676202,
        61.518582955886664
      ],
      "bias": 248.7334494253379,
      "count": 204865,
      "distance_scale_m": 362.03867196751236,
      "height_scale": 255.0,
      "meters_per_pixel": 1.0,
      "receiver_height_m": 1.5
    },
    "open_lowrise|LoS|mid_ant": {
      "weights": [
        -0.0020166525764715297,
        0.9721852708700544,
        3.693356799025062,
        -0.3703774468811338,
        2.410393468308163,
        -0.887634018049902,
        -9.740704550352952,
        -0.3244171902715273,
        0.10485776168322125,
        -2.460355324489972,
        0.39211372365078556,
        -55.01433275165649,
        -32.26751493149912,
        0.8741943180163595
      ],
      "bias": 44.58835469981502,
      "count": 134955,
      "distance_scale_m": 362.03867196751236,
      "height_scale": 255.0,
      "meters_per_pixel": 1.0,
      "receiver_height_m": 1.5
    },
    "open_lowrise|NLoS|mid_ant": {
      "weights": [
        0.2756150134074129,
        -36.734778948396055,
        14.081895985581795,
        -9.370323038318375,
        -57.07750102857174,
        -136.84155576726423,
        -22.81586008682688,
        11.458683933722153,
        -8.44910890938095,
        83.5112677219538,
        -12.064184877009701,
        8.596260342145563,
        65.49888000237475,
        -6.228025753299417
      ],
      "bias": 1091.1409136091363,
      "count": 27140,
      "distance_scale_m": 362.03867196751236,
      "height_scale": 255.0,
      "meters_per_pixel": 1.0,
      "receiver_height_m": 1.5
    },
    "mixed_midrise|LoS|low_ant": {
      "weights": [
        -0.0014606404553465803,
        0.6703975175468535,
        5.400458999602793,
        -0.42435658804778004,
        2.1615410867532145,
        11.410364509021951,
        -8.156777285516487,
        -0.3587236478948033,
        -0.1045292630124495,
        -0.7420521626086385,
        0.15840797461420564,
        -70.19591294426974,
        -40.29361956415798,
        -0.18112300519138322
      ],
      "bias": 71.0978342328985,
      "count": 286825,
      "distance_scale_m": 362.03867196751236,
      "height_scale": 255.0,
      "meters_per_pixel": 1.0,
      "receiver_height_m": 1.5
    },
    "mixed_midrise|NLoS|low_ant": {
      "weights": [
        0.026513116621934833,
        -1.006199916529831,
        -69.28627830041508,
        -39.327109623278304,
        -30.444071505217593,
        278.7381361900802,
        -482.9633389271236,
        6.239314364872658,
        -12.309644957614024,
        -286.5215814502383,
        45.722803316090655,
        -25.62522148192918,
        -415.110406214869,
        316.75449077480187
      ],
      "bias": 604.5450269071506,
      "count": 185069,
      "distance_scale_m": 362.03867196751236,
      "height_scale": 255.0,
      "meters_per_pixel": 1.0,
      "receiver_height_m": 1.5
    },
    "open_lowrise|LoS|low_ant": {
      "weights": [
        -0.0015640130850621142,
        0.7880847733092666,
        4.687795720868356,
        0.3177453186158742,
        -3.7504511780875,
        -16.2672690367296,
        -2.3390776402742905,
        0.7337586485216762,
        -0.18757050700684294,
        3.4267982669675856,
        -0.6003081723247842,
        -57.66592032939741,
        -32.132004344514584,
        -1.3002229829304741
      ],
      "bias": 54.59873221613448,
      "count": 136254,
      "distance_scale_m": 362.03867196751236,
      "height_scale": 255.0,
      "meters_per_pixel": 1.0,
      "receiver_height_m": 1.5
    },
    "open_lowrise|NLoS|low_ant": {
      "weights": [
        -0.0622611044244779,
        8.047903172798364,
        -17.49139569152383,
        -45.452106054670395,
        40.26841107791241,
        441.1796810913354,
        -608.9240659714015,
        -6.5318836453246405,
        -8.15038184458492,
        30.835763458018512,
        -5.238162212332664,
        -40.5239174069859,
        -251.4355438603281,
        80.6706614361262
      ],
      "bias": 163.14249815190473,
      "count": 45242,
      "distance_scale_m": 362.03867196751236,
      "height_scale": 255.0,
      "meters_per_pixel": 1.0,
      "receiver_height_m": 1.5
    },
    "open_lowrise|LoS|high_ant": {
      "weights": [
        -0.003034743876307893,
        1.2235060210988802,
        3.3648104719439376,
        -0.1295899214454048,
        6.504645092306265,
        -12.828960995228377,
        7.277173067630021,
        -1.2500257328493238,
        0.1311775268742446,
        -2.8282333101766626,
        0.6109235302846315,
        -48.25547327147562,
        -28.053396776723847,
        -1.2261838531222657
      ],
      "bias": 26.188249304765677,
      "count": 168344,
      "distance_scale_m": 362.03867196751236,
      "height_scale": 255.0,
      "meters_per_pixel": 1.0,
      "receiver_height_m": 1.5
    },
    "open_lowrise|NLoS|high_ant": {
      "weights": [
        0.001704844615062312,
        0.46652683860320293,
        -7.378411961849865,
        31.451902170110394,
        -15.634986019964325,
        -587.269643274343,
        553.3398120755475,
        -1.033677903449986,
        1.2736016464396385,
        27.77970445134546,
        -0.9899292459488633,
        7.460574552903386,
        -5.913377099415096,
        -33.57779388303531
      ],
      "bias": -41.168731562076246,
      "count": 14219,
      "distance_scale_m": 362.03867196751236,
      "height_scale": 255.0,
      "meters_per_pixel": 1.0,
      "receiver_height_m": 1.5
    }
  },
  "val_results": {
    "overall": {
      "count": 485380287,
      "rmse_db": 23.57778825901469,
      "mae_db": 12.25910473323621
    },
    "LoS": {
      "count": 329805515,
      "rmse_db": 3.813814603039433,
      "mae_db": 3.0447370207102424
    },
    "NLoS": {
      "count": 155574772,
      "rmse_db": 41.27426222585631,
      "mae_db": 31.79279407221285
    }
  }
}