{
  "model_type": "regime_obstruction_multiscale_v1",
  "dataset": "C:\\TFG\\TFGpractice\\Datasets\\CKM_Dataset_270326.h5",
  "split_seed": 42,
  "official_metric_mask": "topology == 0 and dataset mask > 0",
  "city_type_thresholds": {
    "density_q1": 0.1956760965207146,
    "density_q2": 0.2549084200418514,
    "height_q1": 10.913664557109195,
    "height_q2": 15.950557886832314
  },
  "antenna_height_thresholds": {
    "q1": 58.12179183959961,
    "q2": 103.85484313964844
  },
  "city_type_by_city": {
    "Abu Dhabi": "dense_highrise",
    "Buenos Aires": "dense_highrise",
    "Canberra": "mixed_midrise",
    "Shanghai": "dense_highrise",
    "Athens": "dense_highrise",
    "Rio de Janeiro": "mixed_midrise",
    "Bilbao": "dense_highrise",
    "Kuala Lumpur": "dense_highrise",
    "Mexico City": "dense_highrise",
    "Tunis": "mixed_midrise",
    "Victoria": "open_lowrise",
    "Kinshasa": "mixed_midrise",
    "Johannesburg": "mixed_midrise",
    "Bangalore": "dense_highrise",
    "Paris": "dense_highrise",
    "Ho Chi Minh City": "dense_highrise",
    "Vancouver": "open_lowrise",
    "Hyderabad": "dense_highrise",
    "Siem Reap": "open_lowrise",
    "Santiago": "dense_highrise",
    "Hanoi": "dense_highrise",
    "Pune": "dense_highrise",
    "Bangkok": "dense_highrise",
    "Berlin": "dense_highrise",
    "Dhaka": "dense_highrise",
    "Copenhagen": "mixed_midrise",
    "Bratislava": "dense_highrise",
    "Carcassonne": "open_lowrise",
    "Jaipur": "dense_highrise",
    "Beijing": "dense_highrise",
    "Valparaiso": "dense_highrise",
    "Nagpur": "dense_highrise",
    "Marrakesh": "open_lowrise",
    "Lyon": "mixed_midrise",
    "Venice": "open_lowrise",
    "Alexandria": "mixed_midrise",
    "Cleveland": "mixed_midrise",
    "Minsk": "mixed_midrise",
    "Munich": "dense_highrise",
    "Antigua Guatemala": "open_lowrise",
    "Vienna": "dense_highrise",
    "Leuven": "mixed_midrise",
    "Halifax": "open_lowrise",
    "Brugge": "mixed_midrise",
    "St. Louis": "mixed_midrise",
    "Surat": "dense_highrise",
    "Abidjan": "mixed_midrise",
    "Barcelona": "dense_highrise",
    "Chiang Mai": "dense_highrise",
    "Fortaleza": "dense_highrise",
    "Nazareth": "mixed_midrise",
    "Luanda": "dense_highrise",
    "Key West": "mixed_midrise",
    "Osaka": "dense_highrise",
    "Salvador": "dense_highrise",
    "Ljubljana": "mixed_midrise",
    "Dubrovnik": "mixed_midrise",
    "Chefchaouen": "open_lowrise",
    "Segovia": "mixed_midrise",
    "Phuket": "dense_highrise",
    "Nice": "mixed_midrise",
    "Dalian": "dense_highrise",
    "Manaus": "dense_highrise",
    "Bath": "mixed_midrise",
    "Thane": "dense_highrise",
    "Toledo": "mixed_midrise"
  },
  "local_kernel_sizes": [
    41,
    121
  ],
  "formula": "a2g_paper_eq9_eq10_eq11",
  "a2g_params_json": "C:\\TFG\\TFGpractice\\TFGFortyFifthTry45\\prior_calibration\\a2g_best_params_train_search.json",
  "feature_order": [
    "prior_db_squared",
    "prior_db",
    "log1p_distance_m",
    "local_building_density_small",
    "local_building_density_large",
    "local_mean_height_small_norm",
    "local_mean_height_large_norm",
    "local_building_density_large_x_log1p_distance_m",
    "nlos_support_small",
    "nlos_support_large",
    "nlos_support_large_x_log1p_distance_m",
    "shadow_sigma_db",
    "bias"
  ],
  "coefficients": {
    "dense_highrise|LoS|low_ant": {
      "weights": [
        -0.0009964867177055083,
        1.0815637641649853,
        1.280406388261624,
        -0.1554680098451127,
        -1.283888403311031,
        -1.0305439459719044,
        -0.7459967325339119,
        0.26579294188304664,
        0.011236646523418013,
        0.4271774848214175,
        -0.08774104053140981,
        -4.118713502463085
      ],
      "bias": -2.845176523318242,
      "count": 415795,
      "distance_scale_m": 362.03867196751236,
      "height_scale": 255.0,
      "meters_per_pixel": 1.0,
      "receiver_height_m": 1.5
    },
    "dense_highrise|NLoS|low_ant": {
      "weights": [
        0.06061272391146688,
        -4.904417021144871,
        -38.88483302586682,
        -51.2410784043786,
        -27.94288779561051,
        110.06164368643377,
        -317.5829806408586,
        9.881458934197228,
        -9.555072613533653,
        -44.88638664361096,
        5.864543281765781,
        38.34156105902669
      ],
      "bias": 88.40244622313998,
      "count": 440554,
      "distance_scale_m": 362.03867196751236,
      "height_scale": 255.0,
      "meters_per_pixel": 1.0,
      "receiver_height_m": 1.5
    },
    "dense_highrise|LoS|mid_ant": {
      "weights": [
        0.001252506806085404,
        0.7079385113692978,
        0.6539485856559656,
        -0.16007230496730132,
        2.762158185621798,
        -0.49299606439166604,
        -3.0373292405612,
        -0.48538869239346744,
        0.0514529027766618,
        -2.4494571424989635,
        0.460809404401012,
        -1.9395112092371884
      ],
      "bias": 14.102804848436488,
      "count": 529585,
      "distance_scale_m": 362.03867196751236,
      "height_scale": 255.0,
      "meters_per_pixel": 1.0,
      "receiver_height_m": 1.5
    },
    "dense_highrise|NLoS|mid_ant": {
      "weights": [
        0.08127393516095946,
        -8.538343113400899,
        -19.482360075147714,
        -44.62371623832919,
        8.240094509323118,
        -14.765403116244542,
        -174.76712115229506,
        1.1760548233732278,
        -2.467566676082376,
        86.43295477929314,
        -15.210582539475244,
        33.82389445138582
      ],
      "bias": 140.28616840663955,
      "count": 348336,
      "distance_scale_m": 362.03867196751236,
      "height_scale": 255.0,
      "meters_per_pixel": 1.0,
      "receiver_height_m": 1.5
    },
    "mixed_midrise|LoS|high_ant": {
      "weights": [
        -0.0014666979166299192,
        1.1861467637289933,
        0.9644784277988678,
        -0.11051892749977231,
        3.575159004519236,
        -6.6329578988221,
        -0.9401776014801416,
        -0.6369967375512878,
        0.1192100277197703,
        -1.9802796779519871,
        0.3553474543142017,
        -2.7584840547254794
      ],
      "bias": -7.921070924545003,
      "count": 395780,
      "distance_scale_m": 362.03867196751236,
      "height_scale": 255.0,
      "meters_per_pixel": 1.0,
      "receiver_height_m": 1.5
    },
    "mixed_midrise|NLoS|high_ant": {
      "weights": [
        0.013446513250958077,
        -1.9181003435290493,
        -1.4044611176842896,
        13.746430626499572,
        122.33875500051316,
        -226.85942118857574,
        471.99269829034324,
        -29.008807803768278,
        -3.8634691895470885,
        -48.60926719735068,
        12.168866848439693,
        11.053178773889496
      ],
      "bias": 21.093439232104814,
      "count": 71328,
      "distance_scale_m": 362.03867196751236,
      "height_scale": 255.0,
      "meters_per_pixel": 1.0,
      "receiver_height_m": 1.5
    },
    "mixed_midrise|LoS|mid_ant": {
      "weights": [
        0.0025861832943790057,
        0.43370297318785894,
        0.8137374179626672,
        -0.036554538946101826,
        -0.7134231102996662,
        -2.000279559973627,
        -1.9697344165718131,
        0.07279730812449992,
        -0.053659889404298805,
        0.6869766483070872,
        -0.07745315826944206,
        -1.865455034676013
      ],
      "bias": 27.247105900421968,
      "count": 338346,
      "distance_scale_m": 362.03867196751236,
      "height_scale": 255.0,
      "meters_per_pixel": 1.0,
      "receiver_height_m": 1.5
    },
    "mixed_midrise|NLoS|mid_ant": {
      "weights": [
        -0.19608058804709583,
        25.257850613432904,
        1.184568573130044,
        -14.345366078877072,
        130.93026258921788,
        -281.975632643757,
        85.21808318153401,
        -28.267347707649794,
        -0.6227890089644811,
        65.56270513283745,
        -7.831894550118866,
        16.969883347948986
      ],
      "bias": -906.4404462757051,
      "count": 125979,
      "distance_scale_m": 362.03867196751236,
      "height_scale": 255.0,
      "meters_per_pixel": 1.0,
      "receiver_height_m": 1.5
    },
    "dense_highrise|LoS|high_ant": {
      "weights": [
        -0.0007691999863668498,
        1.0566523780275365,
        0.8828523643815027,
        0.057997365554463436,
        3.6081640257453076,
        -3.6062233793226532,
        -0.4377954202803863,
        -0.6628838039386601,
        0.005665664005286397,
        -2.212400635203064,
        0.40727246972808256,
        -2.5430816901870945
      ],
      "bias": -1.6208114807090328,
      "count": 660649,
      "distance_scale_m": 362.03867196751236,
      "height_scale": 255.0,
      "meters_per_pixel": 1.0,
      "receiver_height_m": 1.5
    },
    "dense_highrise|NLoS|high_ant": {
      "weights": [
        0.025325831548193303,
        -2.3472760796873113,
        -11.575558569995835,
        -3.4627857107581277,
        11.071202930586146,
        -150.2292300861778,
        164.6817820917674,
        -6.044596161850398,
        2.1038094010694075,
        41.30409130874387,
        -4.6970861399154185,
        23.06720097405621
      ],
      "bias": -17.39986091286982,
      "count": 204865,
      "distance_scale_m": 362.03867196751236,
      "height_scale": 255.0,
      "meters_per_pixel": 1.0,
      "receiver_height_m": 1.5
    },
    "open_lowrise|LoS|mid_ant": {
      "weights": [
        -0.00015154281986228346,
        0.9781081985453859,
        0.6532313859210206,
        0.0687689088928581,
        8.089999375294251,
        -3.946261626513692,
        -6.499178744384026,
        -1.355783242545139,
        -0.19201337206262117,
        -5.279404019499722,
        0.9788589202625193,
        -1.9274087315760409
      ],
      "bias": 1.087415403580221,
      "count": 134955,
      "distance_scale_m": 362.03867196751236,
      "height_scale": 255.0,
      "meters_per_pixel": 1.0,
      "receiver_height_m": 1.5
    },
    "open_lowrise|NLoS|mid_ant": {
      "weights": [
        0.26291650747806294,
        -34.49268963497771,
        10.153771860832371,
        2.0017782105427853,
        -196.73861371805873,
        -172.0792899428469,
        68.64439853608567,
        33.593180623256515,
        5.352185328505873,
        171.70812233715023,
        -28.592076991230915,
        -9.503628603865064
      ],
      "bias": 1144.7911164867041,
      "count": 27140,
      "distance_scale_m": 362.03867196751236,
      "height_scale": 255.0,
      "meters_per_pixel": 1.0,
      "receiver_height_m": 1.5
    },
    "mixed_midrise|LoS|low_ant": {
      "weights": [
        -0.0011763990548832226,
        1.0905424309155383,
        1.4523272832019631,
        -0.04721531494627339,
        0.4765283058436047,
        1.2303241039220656,
        -3.6417264348747294,
        -0.07430431014562762,
        0.002069091948068146,
        -0.21482779608968358,
        0.043450683576320336,
        -4.090502803041498
      ],
      "bias": -2.997964825979025,
      "count": 286825,
      "distance_scale_m": 362.03867196751236,
      "height_scale": 255.0,
      "meters_per_pixel": 1.0,
      "receiver_height_m": 1.5
    },
    "mixed_midrise|NLoS|low_ant": {
      "weights": [
        -0.02983084731989177,
        4.950943238634931,
        -19.714960770301758,
        -47.400751254185835,
        -39.68997602730533,
        62.422672682749585,
        -472.22057293818574,
        11.100032896330061,
        -5.12430058342626,
        72.69622889648794,
        -13.051080517023179,
        38.36979581827666
      ],
      "bias": -293.45119041509867,
      "count": 185069,
      "distance_scale_m": 362.03867196751236,
      "height_scale": 255.0,
      "meters_per_pixel": 1.0,
      "receiver_height_m": 1.5
    },
    "open_lowrise|LoS|low_ant": {
      "weights": [
        -0.0011845636118793849,
        1.0994959671886904,
        1.4781893428860038,
        0.13699260748166645,
        -8.074110768801654,
        -11.915895715679964,
        0.18554731536330366,
        1.6154223916287893,
        -0.11616631907428243,
        3.658454360494207,
        -0.6867534113824706,
        -4.762032912394807
      ],
      "bias": -3.448799291265082,
      "count": 136254,
      "distance_scale_m": 362.03867196751236,
      "height_scale": 255.0,
      "meters_per_pixel": 1.0,
      "receiver_height_m": 1.5
    },
    "open_lowrise|NLoS|low_ant": {
      "weights": [
        -0.13468530553862143,
        15.51184575545695,
        5.127476787971669,
        -36.58811817843101,
        -60.288733861081504,
        8.5752697038682,
        -414.8472414144954,
        9.666984593822017,
        4.544490439658409,
        225.37198622952704,
        -38.55318136634473,
        25.380377006733305
      ],
      "bias": -614.5143358826869,
      "count": 45242,
      "distance_scale_m": 362.03867196751236,
      "height_scale": 255.0,
      "meters_per_pixel": 1.0,
      "receiver_height_m": 1.5
    },
    "open_lowrise|LoS|high_ant": {
      "weights": [
        -0.0041032407611714524,
        1.6820194490849614,
        1.1534023699667766,
        -0.058326961964590904,
        7.321728778624549,
        -9.688195967258752,
        12.916110884884812,
        -1.5226240905012685,
        0.09606853503593758,
        -5.52466014207805,
        1.0579644789502818,
        -3.4206663668912434
      ],
      "bias": -31.84552333412002,
      "count": 168344,
      "distance_scale_m": 362.03867196751236,
      "height_scale": 255.0,
      "meters_per_pixel": 1.0,
      "receiver_height_m": 1.5
    },
    "open_lowrise|NLoS|high_ant": {
      "weights": [
        -0.001215970173611901,
        0.5184967934532304,
        -7.147246277555599,
        28.69670574380521,
        2.0929434694066074,
        -149.7206762441594,
        276.75444038435074,
        -11.36818268569102,
        -6.518443842147464,
        -42.385302812214576,
        14.341524784346715,
        9.258338805938829
      ],
      "bias": -41.40016322458226,
      "count": 14219,
      "distance_scale_m": 362.03867196751236,
      "height_scale": 255.0,
      "meters_per_pixel": 1.0,
      "receiver_height_m": 1.5
    }
  },
  "val_results": {
    "overall": {
      "count": 485380287,
      "rmse_db": 23.687332074608516,
      "mae_db": 12.333103649638948
    },
    "LoS": {
      "count": 329805515,
      "rmse_db": 3.814309693669431,
      "mae_db": 3.044886317283194
    },
    "NLoS": {
      "count": 155574772,
      "rmse_db": 41.46939112697857,
      "mae_db": 32.023348166819446
    }
  }
}