{
  "model_type": "regime_obstruction_multiscale_v1",
  "dataset": "C:\\TFG\\TFGpractice\\Datasets\\CKM_Dataset_270326.h5",
  "split_seed": 42,
  "official_metric_mask": "topology == 0 and dataset mask > 0",
  "city_type_thresholds": {
    "density_q1": 0.1956760965207146,
    "density_q2": 0.2549084200418514,
    "height_q1": 10.913664557109195,
    "height_q2": 15.950557886832314
  },
  "antenna_height_thresholds": {
    "q1": 58.12179183959961,
    "q2": 103.85484313964844
  },
  "city_type_by_city": {
    "Abu Dhabi": "dense_highrise",
    "Buenos Aires": "dense_highrise",
    "Canberra": "mixed_midrise",
    "Shanghai": "dense_highrise",
    "Athens": "dense_highrise",
    "Rio de Janeiro": "mixed_midrise",
    "Bilbao": "dense_highrise",
    "Kuala Lumpur": "dense_highrise",
    "Mexico City": "dense_highrise",
    "Tunis": "mixed_midrise",
    "Victoria": "open_lowrise",
    "Kinshasa": "mixed_midrise",
    "Johannesburg": "mixed_midrise",
    "Bangalore": "dense_highrise",
    "Paris": "dense_highrise",
    "Ho Chi Minh City": "dense_highrise",
    "Vancouver": "open_lowrise",
    "Hyderabad": "dense_highrise",
    "Siem Reap": "open_lowrise",
    "Santiago": "dense_highrise",
    "Hanoi": "dense_highrise",
    "Pune": "dense_highrise",
    "Bangkok": "dense_highrise",
    "Berlin": "dense_highrise",
    "Dhaka": "dense_highrise",
    "Copenhagen": "mixed_midrise",
    "Bratislava": "dense_highrise",
    "Carcassonne": "open_lowrise",
    "Jaipur": "dense_highrise",
    "Beijing": "dense_highrise",
    "Valparaiso": "dense_highrise",
    "Nagpur": "dense_highrise",
    "Marrakesh": "open_lowrise",
    "Lyon": "mixed_midrise",
    "Venice": "open_lowrise",
    "Alexandria": "mixed_midrise",
    "Cleveland": "mixed_midrise",
    "Minsk": "mixed_midrise",
    "Munich": "dense_highrise",
    "Antigua Guatemala": "open_lowrise",
    "Vienna": "dense_highrise",
    "Leuven": "mixed_midrise",
    "Halifax": "open_lowrise",
    "Brugge": "mixed_midrise",
    "St. Louis": "mixed_midrise",
    "Surat": "dense_highrise",
    "Abidjan": "mixed_midrise",
    "Barcelona": "dense_highrise",
    "Chiang Mai": "dense_highrise",
    "Fortaleza": "dense_highrise",
    "Nazareth": "mixed_midrise",
    "Luanda": "dense_highrise",
    "Key West": "mixed_midrise",
    "Osaka": "dense_highrise",
    "Salvador": "dense_highrise",
    "Ljubljana": "mixed_midrise",
    "Dubrovnik": "mixed_midrise",
    "Chefchaouen": "open_lowrise",
    "Segovia": "mixed_midrise",
    "Phuket": "dense_highrise",
    "Nice": "mixed_midrise",
    "Dalian": "dense_highrise",
    "Manaus": "dense_highrise",
    "Bath": "mixed_midrise",
    "Thane": "dense_highrise",
    "Toledo": "mixed_midrise"
  },
  "local_kernel_sizes": [
    15,
    41
  ],
  "train_sample_frac": 0.05,
  "val_sample_frac": 0.1,
  "pixel_sample_prob": 0.02,
  "formula": "hybrid_shadowed_ripple_two_ray_vinogradov_nlos",
  "a2g_params_json": null,
  "feature_order": [
    "prior_db_squared",
    "prior_db",
    "log1p_distance_m",
    "local_building_density_small",
    "local_building_density_large",
    "local_mean_height_small_norm",
    "local_mean_height_large_norm",
    "local_building_density_large_x_log1p_distance_m",
    "nlos_support_small",
    "nlos_support_large",
    "nlos_support_large_x_log1p_distance_m",
    "shadow_sigma_db",
    "theta_norm",
    "nlos_support_large_x_theta_norm",
    "bias"
  ],
  "coefficients": {
    "dense_highrise|LoS|low_ant": {
      "weights": [
        0.02400967030456944,
        -5.654248029522322,
        19.19665367694453,
        0.12109325856302129,
        -14.252710641058282,
        -3.697707533785759,
        2.5074661648837964,
        2.762666110908242,
        -0.11201055511682166,
        7.9632209850095,
        -1.5072283643995998,
        -228.44120859891905,
        -132.2828299032431,
        0.2840392228231546
      ],
      "bias": 493.709855597591,
      "count": 199995,
      "distance_scale_m": 362.03867196751236,
      "height_scale": 255.0,
      "meters_per_pixel": 1.0,
      "receiver_height_m": 1.5
    },
    "dense_highrise|NLoS|low_ant": {
      "weights": [
        -0.010831436411242177,
        3.0344050814018613,
        -55.108525427443496,
        -32.65945507334569,
        -92.66603016211677,
        181.32703767310971,
        -249.43835972584822,
        17.355191539666862,
        -8.08211782435048,
        -303.9708024449275,
        47.651722394520206,
        47.44694248656897,
        -69.50570686204722,
        235.13938195855584
      ],
      "bias": -162.8814238311646,
      "count": 205061,
      "distance_scale_m": 362.03867196751236,
      "height_scale": 255.0,
      "meters_per_pixel": 1.0,
      "receiver_height_m": 1.5
    },
    "dense_highrise|LoS|high_ant": {
      "weights": [
        -0.002192384846302937,
        -0.16489989547942047,
        13.796316940069637,
        -0.6782030774591077,
        9.702890462784287,
        1.057309732885898,
        -4.071425564520196,
        -1.7467172943303644,
        0.399838470442614,
        -6.699545360851859,
        1.2353354716628138,
        -256.55880891349904,
        -158.0551270684049,
        -0.18543902586232064
      ],
      "bias": 261.7987216350824,
      "count": 311449,
      "distance_scale_m": 362.03867196751236,
      "height_scale": 255.0,
      "meters_per_pixel": 1.0,
      "receiver_height_m": 1.5
    },
    "dense_highrise|NLoS|high_ant": {
      "weights": [
        -0.008477281728797277,
        2.266385434861445,
        -9.992575642225992,
        -17.2556933761334,
        89.99377163588358,
        -134.9810630313919,
        104.15733189783131,
        -17.884863899756247,
        -7.544663938686873,
        -97.52896517297116,
        16.554345530996557,
        17.93075620752948,
        -10.108762441452429,
        54.456177448695925
      ],
      "bias": -175.92547695552074,
      "count": 100189,
      "distance_scale_m": 362.03867196751236,
      "height_scale": 255.0,
      "meters_per_pixel": 1.0,
      "receiver_height_m": 1.5
    },
    "mixed_midrise|LoS|mid_ant": {
      "weights": [
        0.02045974723132782,
        -6.058863841111038,
        26.962610091722784,
        0.04748251345444042,
        -9.061631180377418,
        -3.3086608447276586,
        4.092225246834038,
        1.6636451974864532,
        0.10934525248333607,
        2.1788944568255966,
        -0.4812894234713432,
        -416.7268935856123,
        -250.0052206813056,
        1.5066301055769091
      ],
      "bias": 673.1464868784598,
      "count": 189227,
      "distance_scale_m": 362.03867196751236,
      "height_scale": 255.0,
      "meters_per_pixel": 1.0,
      "receiver_height_m": 1.5
    },
    "mixed_midrise|NLoS|mid_ant": {
      "weights": [
        -0.010864709165116036,
        2.98516148240313,
        27.663064694642962,
        -30.113540627618693,
        24.69805040744538,
        -93.163098617034,
        -87.66844473624496,
        -1.4500064930452705,
        -10.45706840228132,
        237.91525344317733,
        -39.05372902611452,
        3.4668107575926195,
        81.27435625813183,
        -82.32246265871306
      ],
      "bias": -366.8117662965017,
      "count": 70035,
      "distance_scale_m": 362.03867196751236,
      "height_scale": 255.0,
      "meters_per_pixel": 1.0,
      "receiver_height_m": 1.5
    },
    "open_lowrise|LoS|high_ant": {
      "weights": [
        0.0007812614242796666,
        -2.31692682510437,
        27.50738113524961,
        0.7933020862137684,
        15.979994169631803,
        -37.911190638940255,
        -5.694417458562724,
        -2.857163189742773,
        0.013828630455166963,
        -5.758305342310019,
        1.2296648417374414,
        -496.5121277282659,
        -303.8500818191031,
        -2.129220232332923
      ],
      "bias": 557.2357030824388,
      "count": 93966,
      "distance_scale_m": 362.03867196751236,
      "height_scale": 255.0,
      "meters_per_pixel": 1.0,
      "receiver_height_m": 1.5
    },
    "open_lowrise|NLoS|high_ant": {
      "weights": [
        0.0190541125741262,
        -4.75401401376681,
        2.7585430112551994,
        24.405325704089794,
        -33.02959111278664,
        -735.9010368418524,
        763.8851792639011,
        6.567816753395807,
        6.471101706668206,
        158.9412365198263,
        -22.714666528505816,
        0.8053469031480122,
        6.232394354253447,
        -96.42388320972016
      ],
      "bias": 274.65521330355983,
      "count": 7370,
      "distance_scale_m": 362.03867196751236,
      "height_scale": 255.0,
      "meters_per_pixel": 1.0,
      "receiver_height_m": 1.5
    },
    "open_lowrise|LoS|low_ant": {
      "weights": [
        0.035212714561500234,
        -7.852029047760455,
        19.109535224344093,
        0.4796618575234223,
        -47.80446529956737,
        -23.58075182411132,
        27.81609041306997,
        8.915547398790682,
        -0.1854134251964061,
        11.105303717896879,
        -2.332671380482379,
        -218.5573239417117,
        -129.6245282375249,
        10.756756355631733
      ],
      "bias": 594.4422128277275,
      "count": 73715,
      "distance_scale_m": 362.03867196751236,
      "height_scale": 255.0,
      "meters_per_pixel": 1.0,
      "receiver_height_m": 1.5
    },
    "open_lowrise|NLoS|low_ant": {
      "weights": [
        1.3255531918914942e-05,
        0.08370155148943363,
        3.9426562169144024,
        -49.096113133105,
        51.03617439185991,
        229.4650261538756,
        -349.43103109041283,
        -7.398180267020105,
        -14.495919610847078,
        124.66472767186808,
        -17.98160194645232,
        0.194124630851548,
        -7.874288121791915,
        -55.43024342004169
      ],
      "bias": -3.9821345196882953,
      "count": 19837,
      "distance_scale_m": 362.03867196751236,
      "height_scale": 255.0,
      "meters_per_pixel": 1.0,
      "receiver_height_m": 1.5
    },
    "mixed_midrise|LoS|low_ant": {
      "weights": [
        0.028331351438736926,
        -6.469762284527914,
        18.876365312616798,
        -0.243382611466606,
        -10.315123123103996,
        1.1004383848787969,
        -10.973360413748225,
        2.1217141427040085,
        -0.17018005040021533,
        1.4165537533217454,
        -0.3738208658821069,
        -208.33403510479974,
        -121.95760992384463,
        5.069754403946339
      ],
      "bias": 518.2146777068066,
      "count": 167560,
      "distance_scale_m": 362.03867196751236,
      "height_scale": 255.0,
      "meters_per_pixel": 1.0,
      "receiver_height_m": 1.5
    },
    "mixed_midrise|NLoS|low_ant": {
      "weights": [
        -0.008749041258941388,
        2.388091868837481,
        -47.67953147669607,
        -36.835190207449465,
        -38.41914187578387,
        252.44288295472967,
        -403.38538134419184,
        7.7093016466079005,
        -14.007921642376319,
        -236.20602141368101,
        38.40347453493432,
        24.42493800021729,
        -189.0247600661016,
        260.26741611610873
      ],
      "bias": 1.2659196603329192,
      "count": 98869,
      "distance_scale_m": 362.03867196751236,
      "height_scale": 255.0,
      "meters_per_pixel": 1.0,
      "receiver_height_m": 1.5
    },
    "mixed_midrise|LoS|high_ant": {
      "weights": [
        -0.0007209380038275354,
        -0.832437326528786,
        17.060948904978066,
        -0.3519560670612184,
        9.874307840196387,
        3.019464707213746,
        -4.681334973505975,
        -1.7858633935665358,
        0.14166981748100763,
        -7.348926332851196,
        1.3400953560729971,
        -314.20706714955594,
        -193.05584672314245,
        0.03886065682182788
      ],
      "bias": 340.3868717447272,
      "count": 222855,
      "distance_scale_m": 362.03867196751236,
      "height_scale": 255.0,
      "meters_per_pixel": 1.0,
      "receiver_height_m": 1.5
    },
    "mixed_midrise|NLoS|high_ant": {
      "weights": [
        -0.011200579849900773,
        2.7683369296563125,
        -7.161046311576528,
        9.77654254386119,
        100.88236037907504,
        -434.87996852779537,
        478.61885144688523,
        -21.1672269284394,
        -4.3146746539242,
        -95.09035345452293,
        17.998149019592745,
        6.131275012271954,
        -28.610368097135833,
        25.74769215716276
      ],
      "bias": -147.89783563168515,
      "count": 34396,
      "distance_scale_m": 362.03867196751236,
      "height_scale": 255.0,
      "meters_per_pixel": 1.0,
      "receiver_height_m": 1.5
    },
    "open_lowrise|LoS|mid_ant": {
      "weights": [
        0.04556961990236194,
        -11.440785369040135,
        30.566986824876697,
        -0.0312860456289343,
        -23.5326965833511,
        -7.616820420032903,
        -17.55191253121298,
        4.551144836185988,
        0.17830743886481995,
        -12.433144031805023,
        1.7299164858661724,
        -470.17999569427184,
        -286.35944479894204,
        14.380973863822765
      ],
      "bias": 982.1453187007555,
      "count": 49403,
      "distance_scale_m": 362.03867196751236,
      "height_scale": 255.0,
      "meters_per_pixel": 1.0,
      "receiver_height_m": 1.5
    },
    "open_lowrise|NLoS|mid_ant": {
      "weights": [
        -0.01364778792243829,
        4.372631984789453,
        3.729997673797695,
        1.9664957008727817,
        246.93378357760795,
        -542.9730318104404,
        -253.6524997672948,
        -42.33488640268759,
        -0.9105533765182049,
        219.88795183567743,
        -30.842208009660382,
        22.63533550353131,
        94.5129260274493,
        -227.52589536073592
      ],
      "bias": -503.27914876590745,
      "count": 8844,
      "distance_scale_m": 362.03867196751236,
      "height_scale": 255.0,
      "meters_per_pixel": 1.0,
      "receiver_height_m": 1.5
    },
    "dense_highrise|LoS|mid_ant": {
      "weights": [
        0.01632224470393415,
        -5.325147345165635,
        27.551435692772912,
        -0.13986250032936567,
        -5.317049470893463,
        -0.7154743912953775,
        -3.4279686122838453,
        1.0601747024709334,
        0.05019201117460333,
        0.8411899543596341,
        -0.18951032085363628,
        -432.34860358072086,
        -259.3509155646008,
        0.852136836516522
      ],
      "bias": 649.974098716386,
      "count": 251368,
      "distance_scale_m": 362.03867196751236,
      "height_scale": 255.0,
      "meters_per_pixel": 1.0,
      "receiver_height_m": 1.5
    },
    "dense_highrise|NLoS|mid_ant": {
      "weights": [
        -0.0052555597629595574,
        1.3018250939975766,
        -25.05891468649779,
        -46.38693929326359,
        -14.552119690556058,
        204.02129608174863,
        -345.9660350117121,
        4.623787972773744,
        -9.847362427424205,
        -107.66350986463321,
        15.959148411284648,
        34.78878954005404,
        -26.915683343497417,
        121.11953683820936
      ],
      "bias": -118.8522735302473,
      "count": 156413,
      "distance_scale_m": 362.03867196751236,
      "height_scale": 255.0,
      "meters_per_pixel": 1.0,
      "receiver_height_m": 1.5
    }
  },
  "val_results": {
    "overall": {
      "count": 48861408,
      "rmse_db": 23.75106221850964,
      "mae_db": 12.04938729456998
    },
    "LoS": {
      "count": 33048375,
      "rmse_db": 3.3587124137556144,
      "mae_db": 2.540495993060126
    },
    "NLoS": {
      "count": 15813033,
      "rmse_db": 41.466874211293266,
      "mae_db": 31.922450798001115
    }
  }
}