{
  "model_type": "regime_obstruction_multiscale_try78",
  "feature_names": [
    "prior_sq",
    "prior",
    "log1p_d2d",
    "density_15",
    "density_41",
    "height_15",
    "height_41",
    "density_41_x_logd",
    "nlos_15",
    "nlos_41",
    "nlos_41_x_logd",
    "shadow_sigma",
    "theta_norm",
    "nlos_41_x_theta",
    "bias"
  ],
  "freq_ghz": 7.125,
  "rx_height_m": 1.5,
  "meters_per_pixel": 1.0,
  "height_scale": 90.0,
  "kernel_sizes": [
    15,
    41
  ],
  "city_type_thresholds": {
    "density_q1": 0.1957,
    "density_q2": 0.2549,
    "height_q1": 10.91,
    "height_q2": 15.95
  },
  "antenna_height_thresholds": {
    "q1": 58.12,
    "q2": 103.85
  },
  "meta": {
    "n_fit_samples": 10840,
    "max_pixels_per_region_sample": 1024,
    "ridge_lambda": 0.01,
    "seed": 1234,
    "fit_counts": {
      "dense_highrise|LoS|high_ant": 2497536,
      "dense_highrise|LoS|low_ant": 2546719,
      "dense_highrise|LoS|mid_ant": 2586833,
      "dense_highrise|NLoS|high_ant": 2370312,
      "dense_highrise|NLoS|low_ant": 2531462,
      "dense_highrise|NLoS|mid_ant": 2566999,
      "mixed_midrise|LoS|high_ant": 504832,
      "mixed_midrise|LoS|low_ant": 480256,
      "mixed_midrise|LoS|mid_ant": 519168,
      "mixed_midrise|NLoS|high_ant": 427414,
      "mixed_midrise|NLoS|low_ant": 478668,
      "mixed_midrise|NLoS|mid_ant": 509184,
      "open_lowrise|LoS|high_ant": 650240,
      "open_lowrise|LoS|low_ant": 641024,
      "open_lowrise|LoS|mid_ant": 649216,
      "open_lowrise|NLoS|high_ant": 318490,
      "open_lowrise|NLoS|low_ant": 571760,
      "open_lowrise|NLoS|mid_ant": 511856
    },
    "fit_rmse_db": {
      "dense_highrise|LoS|high_ant": 3.8424245275607825,
      "dense_highrise|LoS|low_ant": 3.7221490183575416,
      "dense_highrise|LoS|mid_ant": 3.6852103071387514,
      "dense_highrise|NLoS|high_ant": 2.415114646377749,
      "dense_highrise|NLoS|low_ant": 4.0637105873670745,
      "dense_highrise|NLoS|mid_ant": 3.3636734050340746,
      "mixed_midrise|LoS|high_ant": 3.9967010941852483,
      "mixed_midrise|LoS|low_ant": 3.656667922820282,
      "mixed_midrise|LoS|mid_ant": 3.7132238124502503,
      "mixed_midrise|NLoS|high_ant": 2.1131914786789228,
      "mixed_midrise|NLoS|low_ant": 3.624131930077263,
      "mixed_midrise|NLoS|mid_ant": 2.8678770771382647,
      "open_lowrise|LoS|high_ant": 3.9379185282581974,
      "open_lowrise|LoS|low_ant": 3.600225234772993,
      "open_lowrise|LoS|mid_ant": 3.6251038363191332,
      "open_lowrise|NLoS|high_ant": 1.8000991196268699,
      "open_lowrise|NLoS|low_ant": 3.096712887817092,
      "open_lowrise|NLoS|mid_ant": 2.2675931360281703
    },
    "split_contract": "try80_city_holdout",
    "val_ratio": 0.15,
    "test_ratio": 0.15,
    "split_seed": 42,
    "fit_cities": [
      "Abidjan",
      "Abu Dhabi",
      "Alexandria",
      "Antigua Guatemala",
      "Athens",
      "Bangalore",
      "Bangkok",
      "Bath",
      "Berlin",
      "Bratislava",
      "Brugge",
      "Buenos Aires",
      "Canberra",
      "Chefchaouen",
      "Dalian",
      "Hanoi",
      "Ho Chi Minh City",
      "Hyderabad",
      "Kinshasa",
      "Leuven",
      "Ljubljana",
      "Luanda",
      "Lyon",
      "Manaus",
      "Minsk",
      "Nagpur",
      "Paris",
      "Rio de Janeiro",
      "Santiago",
      "Shanghai",
      "Siem Reap",
      "St. Louis",
      "Thane",
      "Toledo",
      "Valparaiso",
      "Venice",
      "Vienna"
    ],
    "eval_split": "test",
    "eval_cities": [
      "Barcelona",
      "Beijing",
      "Carcassonne",
      "Copenhagen",
      "Halifax",
      "Jaipur",
      "Johannesburg",
      "Key West",
      "Kuala Lumpur",
      "Osaka",
      "Phuket",
      "Pune",
      "Surat",
      "Vancouver"
    ]
  },
  "coefficients": {
    "dense_highrise|LoS|high_ant": [
      -0.0013585340278337717,
      0.9638638830336366,
      2.6826781154868096,
      -0.07388958430830216,
      0.6439528184207556,
      -0.5062978082045168,
      -0.7524411510543032,
      -0.1027509838295489,
      0.14684927213741222,
      0.1550070449774266,
      -0.02060161536022328,
      -40.61697648588463,
      -24.112493988637528,
      -0.37439009162576703,
      33.585204578466474
    ],
    "dense_highrise|LoS|low_ant": [
      -0.0003743516363355613,
      0.7778459493535035,
      2.600316512128563,
      -0.06872077486286728,
      -0.5892580073958488,
      -0.22083854523804444,
      -0.9434689005720196,
      0.1417268924835409,
      0.10995864188348689,
      0.3659003123356975,
      -0.072878482865468,
      -33.41611191488346,
      -19.209246372395945,
      -0.49321498584025436,
      37.0564639916875
    ],
    "dense_highrise|LoS|mid_ant": [
      -0.000979120284626909,
      0.8287559621578794,
      3.1407550530450927,
      0.002164081576781151,
      -0.061752472769861275,
      -0.45139570217049363,
      -0.6180720385763355,
      0.017632751985721486,
      0.09752785223745312,
      0.6673218385164531,
      -0.10288767577220269,
      -45.43335176017184,
      -26.699169364650132,
      -0.7463917328059976,
      44.350676625522375
    ],
    "dense_highrise|NLoS|high_ant": [
      0.0019579555227709055,
      -0.45170431108717457,
      6.854689045172477,
      -0.6125472668983092,
      -17.177022987758463,
      3.2986799088667658,
      -3.888318814815435,
      2.736468552716655,
      1.1621424104460982,
      20.301302393032014,
      -3.0195401047763477,
      -7.333894855785402,
      -9.714194436182662,
      -9.336900339796987,
      143.13752134041783
    ],
    "dense_highrise|NLoS|low_ant": [
      0.0013892672954203009,
      -0.28104601448764954,
      4.557003372907572,
      2.2181187918104226,
      -27.766538478438232,
      7.464065878278184,
      3.3630528704377727,
      3.82225569273934,
      2.5060819352610384,
      0.6557129647568826,
      -0.06135806575285406,
      -7.819433251557065,
      -14.149680249108492,
      2.368301649979624,
      147.6755118344119
    ],
    "dense_highrise|NLoS|mid_ant": [
      0.005438297641581659,
      -1.4094469464526183,
      5.123986671554928,
      0.765317816006522,
      -33.69106354234151,
      7.291934926846721,
      3.2746789967955903,
      5.165655100395283,
      1.4976998123215985,
      13.012232192966513,
      -1.9386629197522591,
      -3.942529392634735,
      -8.25213728851891,
      -7.491932335054242,
      197.35379028334745
    ],
    "mixed_midrise|LoS|high_ant": [
      -0.0008463334905984078,
      0.8176628249731568,
      3.0490734513927036,
      -0.21015444566668176,
      -0.20593353257877628,
      -1.516988085244958,
      -1.2166031722205441,
      0.07326541632995615,
      0.004709658381684735,
      3.0660002929325385,
      -0.5227733532632597,
      -47.43059935706306,
      -28.291126543616482,
      -0.3550276576128325,
      46.35094284726413
    ],
    "mixed_midrise|LoS|low_ant": [
      0.00028622128601673435,
      0.6913789314492202,
      2.271553976011338,
      0.11806526333233344,
      0.6481932935605786,
      -2.7205361307752614,
      0.9593253624555124,
      -0.1572802359913194,
      -0.05411316430040322,
      1.448627323153307,
      -0.21008600917204742,
      -26.133706367898196,
      -14.822343686691283,
      -2.021042635183241,
      35.290895727249115
    ],
    "mixed_midrise|LoS|mid_ant": [
      -0.0006799859394666422,
      0.7369907627140196,
      3.409858415785407,
      -0.059636908013489046,
      -0.9210592143417413,
      -0.8143745515625234,
      -0.045739744305532216,
      0.1855588123030846,
      -0.03373092967561287,
      0.8853588454823625,
      -0.12962017243677723,
      -49.61831529003007,
      -29.214103823564756,
      -0.7839996985032744,
      52.264418405039294
    ],
    "mixed_midrise|NLoS|high_ant": [
      -0.00022853924652554573,
      0.011344417178826602,
      8.088512353183908,
      -1.657119846235307,
      -5.702554537093057,
      1.134073761816812,
      -7.07684730054056,
      1.072865951094336,
      0.8747028826861821,
      13.550130819375491,
      -1.5837055507752582,
      -7.383747991945439,
      -10.347522329682462,
      -13.816541422804022,
      113.41805995740889
    ],
    "mixed_midrise|NLoS|low_ant": [
      0.004882660133776913,
      -1.1383441381557269,
      1.9078087849576042,
      1.2324043281821924,
      -45.77772952983096,
      14.050738341506245,
      7.076761772897181,
      7.160873113236072,
      1.8073078278396923,
      -1.7441282671827838,
      0.2643138848593496,
      -8.057435298263949,
      -22.31423799195506,
      6.106272094309501,
      216.98034485134173
    ],
    "mixed_midrise|NLoS|mid_ant": [
      0.0016635054263609787,
      -0.37225835631265525,
      4.922113611026725,
      -0.5731333326438107,
      -29.31520715268009,
      15.940527201444601,
      -5.288485539773289,
      4.5832954788877,
      1.967438094494359,
      13.45295186638741,
      -2.271901856061032,
      -5.077721629989715,
      -9.783908365006482,
      -8.98927111591785,
      134.93352861790558
    ],
    "open_lowrise|LoS|high_ant": [
      -0.0017489666919789718,
      0.9611851341089579,
      3.3285910998962867,
      0.011137276709394683,
      1.118941628732115,
      -1.3834936873809796,
      -1.83260638059524,
      -0.19498705219232795,
      0.13691297261436214,
      -2.0114648607815284,
      0.3382173956946946,
      -52.587118311428355,
      -31.469124337344503,
      0.14112783923097308,
      43.50562998878801
    ],
    "open_lowrise|LoS|low_ant": [
      -0.00043367413978813945,
      0.7248160883454592,
      3.1038148271594,
      -0.39347825455457214,
      0.4223194521274413,
      3.390773170044068,
      -2.165732258337669,
      -0.06674428149706597,
      0.040960647510102706,
      -0.15420428565974817,
      0.056165139873320426,
      -42.640488102999,
      -24.915987927612345,
      -0.8739992986368217,
      47.29092305680027
    ],
    "open_lowrise|LoS|mid_ant": [
      -0.0007614586091533561,
      0.7480289312918242,
      3.4575238452224046,
      -0.13147368508356735,
      0.6735334557168938,
      -0.6438032141878655,
      -1.3135966225957143,
      -0.09903579664101013,
      -0.007255214240756302,
      1.9291515674788415,
      -0.2858839904009996,
      -49.346559422526916,
      -28.9830323510131,
      -1.8700504951001846,
      51.47566904830388
    ],
    "open_lowrise|NLoS|high_ant": [
      -0.002630428369944143,
      0.7186315656056926,
      7.806264278147977,
      -1.3405171963099396,
      4.432970415616717,
      -3.2072902102888574,
      4.8522644982248835,
      -0.8845669626836384,
      0.5314575276913841,
      -6.643687863783142,
      1.2152472699874317,
      -10.42250416460876,
      -19.198339544218538,
      -5.6633214994652565,
      85.37976226880922
    ],
    "open_lowrise|NLoS|low_ant": [
      0.006433553954955361,
      -1.657441080359244,
      4.01419314995775,
      0.15900274389222796,
      -43.839004592069045,
      9.036533264907394,
      16.915995351795125,
      6.849045962616076,
      1.1976233005859482,
      5.105417116411081,
      -0.847991726294655,
      -1.347569448130944,
      -11.206801885866128,
      -9.456548784306973,
      202.7872397075937
    ],
    "open_lowrise|NLoS|mid_ant": [
      0.002547290059466106,
      -0.8535206012846825,
      9.616568233700194,
      -1.9375398133942536,
      -14.504449872481937,
      16.035788183417342,
      -3.220632192796066,
      2.295267597993752,
      1.1400700718167833,
      19.62982467689187,
      -3.074526016995228,
      -6.6294011047091725,
      -14.373956216647823,
      -21.179215625214255,
      168.44742160351618
    ]
  }
}