{
  "model_type": "try79_numpy_spread_prior",
  "feature_names": [
    "prior_log_sq",
    "prior_log",
    "log1p_d2d",
    "theta_norm",
    "theta_inv",
    "h_norm",
    "h_norm_sq",
    "density_15",
    "density_41",
    "height_15",
    "height_41",
    "nlos_15",
    "nlos_41",
    "nlos_41_x_logd",
    "density_41_x_theta_inv",
    "blocker_41",
    "bias",
    "tx_clearance_41",
    "tx_below_frac_41",
    "theta_x_density_41",
    "tx_clearance_x_theta_inv",
    "tx_below_frac_x_density_41",
    "tx_below_frac_x_nlos_41"
  ],
  "metrics": [
    "delay_spread",
    "angular_spread"
  ],
  "topology_thresholds": {
    "density_q1": 0.12,
    "density_q2": 0.28,
    "height_q1": 12.0,
    "height_q2": 28.0
  },
  "antenna_height_thresholds": {
    "q1": 58.12,
    "q2": 103.85
  },
  "kernel_sizes": [
    15,
    41
  ],
  "height_norm_m": 90.0,
  "meta": {
    "n_train_samples": 10840,
    "metrics": [
      "delay_spread",
      "angular_spread"
    ],
    "split_seed": 42,
    "val_ratio": 0.15,
    "test_ratio": 0.15
  },
  "coefficients": {
    "delay_spread|open_sparse_vertical|LoS|mid_ant": [
      -1.0194986862355995,
      9.973535340051559,
      -1.0300038467206565,
      -4.530423268029485,
      -6.41196305850695,
      11.723975623491482,
      -9.016915283418799,
      -0.9731554472755328,
      -1.848924073185333,
      -2.8057634434047922,
      -1.577692940153646,
      -1.1101717977072518,
      -6.950387568343446,
      0.5400267639601406,
      0.5210632112541337,
      6.620666063105228,
      -10.929018729848348,
      0.2667661829382936,
      3.56647221549975,
      -2.3671590713612356,
      1.057859992603569,
      -15.276412901652602,
      -3.6140660432551437
    ],
    "delay_spread|open_sparse_vertical|LoS|all_ant": [
      -1.0108662700221094,
      8.272054227329981,
      -0.6764614000326904,
      0.3085535223879661,
      -1.1256747759626922,
      -20.901971426844085,
      12.46522801091013,
      -0.8135344997674187,
      -1.1056523729718963,
      -2.269028572572381,
      9.395491297375212,
      -0.9750293952231466,
      -5.830787098477235,
      0.6581232019307937,
      0.22556458693618608,
      -5.078754204665717,
      -0.7667880740089874,
      -0.4654155557375463,
      0.22742307245541066,
      -1.3295902309836143,
      1.2600888475697631,
      -4.359579385431654,
      -5.135745622533951
    ],
    "delay_spread|open_sparse_vertical|all_los|all_ant": [
      -0.08925873962332376,
      -0.7223626811403512,
      -0.36848786720768084,
      3.4079673512165645,
      5.159351799726241,
      -17.723422560103828,
      11.120196171213175,
      -0.8788718146540105,
      0.17305039400115066,
      -0.7793206328058293,
      13.3474424354941,
      -0.6476918743499731,
      -1.1219847253527206,
      0.584578514427762,
      -0.40414505620929414,
      -10.330271663225988,
      8.641914870521907,
      -0.8037349731313898,
      0.9964194935249441,
      0.5796616278162589,
      2.04024555614408,
      -1.4556988745307449,
      -4.041450813478561
    ],
    "delay_spread|global|LoS|all_ant": [
      -0.10047826627437183,
      3.160522391468209,
      -0.5879391655818902,
      1.2815935589099778,
      -0.2838509962873186,
      -11.529731441767352,
      7.013238130734528,
      -0.3101069687121513,
      -3.7429457562553554,
      -3.715020766410898,
      154.5478418876992,
      -1.3214093095546249,
      -0.6875256020481842,
      -0.399323502282369,
      -1.449579007264115,
      -147.24044445805242,
      1.109473253571999,
      -0.12061550539223279,
      2.42545565805736,
      -2.2826560273251837,
      0.8752703644730171,
      -6.544905087002322,
      -9.09708030071883
    ],
    "delay_spread|global|all_los|all_ant": [
      -0.2708405928704532,
      1.675740616563893,
      -0.4428975130628995,
      1.3256748301815962,
      1.5442437366004356,
      -8.345463889258346,
      5.297285313196539,
      -1.2614057521017357,
      -1.7676610053727726,
      -2.1445089039802716,
      105.95723225929129,
      -1.8215350564764115,
      -2.0491550757236277,
      0.6616341946245335,
      -0.2139457342938644,
      -101.62649838014244,
      2.99159759177333,
      -0.03448591109003454,
      3.283931476409251,
      -1.55554398570017,
      0.4142207343564738,
      -4.022607469028085,
      -5.029294200059386
    ],
    "delay_spread|open_sparse_vertical|NLoS|mid_ant": [
      -0.13054803274014756,
      1.8929806968728695,
      0.05087800201376826,
      -1.0347839639765297,
      -1.9252300037006493,
      -0.5681200502223788,
      -0.5399338094554093,
      -0.21731207436719485,
      -0.4244997097294436,
      0.2313837221035722,
      -1.1750132964493567,
      -0.05499101395882449,
      -0.025501530310310876,
      -0.17276204813997165,
      -0.5746645192950751,
      1.1251263061420318,
      -2.957631966377035,
      -0.2939006460858859,
      0.7416790960154631,
      0.14904324286186685,
      0.8628300786694566,
      -0.6660538333599073,
      -0.9446343973373234
    ],
    "delay_spread|open_sparse_vertical|NLoS|all_ant": [
      -0.1796313972122747,
      1.3817962777201556,
      -0.21866910606867015,
      -0.8369214060025884,
      0.08665332330283008,
      -1.0839171365869755,
      0.7064500845506638,
      -0.19291176839186117,
      -0.3721126103642518,
      0.17976731878278498,
      1.1295875881942086,
      -0.027739056332351356,
      -0.08580394381237474,
      0.05225904382622877,
      -0.225243826218272,
      -0.7617606195340935,
      -0.7245505231377808,
      0.20947427152788653,
      -0.35067477804605857,
      -0.14571574994044192,
      0.09223379892720858,
      0.9262144046279661,
      -0.4101688900775252
    ],
    "delay_spread|global|NLoS|all_ant": [
      -0.243306630761502,
      2.5131680396555507,
      -0.1666895653336141,
      -1.5665158723647405,
      -1.9402609769774273,
      1.665262912628976,
      -1.6109061743508106,
      -0.12048084560350523,
      -0.8961063555868576,
      0.045480784819460815,
      18.695201660785525,
      -0.0434347384714885,
      -0.4792963030533959,
      0.0025382744007724782,
      -0.14038241028019907,
      -18.52650617424478,
      -3.439994698875041,
      0.21500394479351534,
      1.047474219191554,
      -0.7581080785064362,
      0.17140788909474997,
      -0.5974383766434169,
      -1.6964667497271686
    ],
    "angular_spread|open_sparse_vertical|LoS|mid_ant": [
      -2.508638924819624,
      16.790811564066452,
      -0.4692147301802993,
      -8.025802666388236,
      -10.63370405250453,
      23.45406471961413,
      -18.52940080298055,
      2.34222170151559,
      -0.6560061983868801,
      -4.929022458960085,
      5.623218167584668,
      -1.3143074563191952,
      -6.4056299763222375,
      0.6454233528686747,
      -1.3768176201253466,
      0.3557118914798323,
      -18.627559098993146,
      -6.587693535573389,
      0.3120899669035332,
      0.7174356312052367,
      10.68225227924407,
      -7.564269150019255,
      -7.224454386502272
    ],
    "angular_spread|open_sparse_vertical|LoS|all_ant": [
      -2.291727062254502,
      15.693124626389649,
      -0.8108442875214668,
      -3.1333936908328344,
      -4.5133973911520915,
      -15.852934558364485,
      9.792573683170575,
      2.4373348664900334,
      -1.5429461159946893,
      -4.357412335810031,
      18.757891966175045,
      -1.1709967481836911,
      -6.1751245525522,
      0.556859134945657,
      0.25587911745923747,
      -12.650135739481966,
      -7.6352568456326715,
      -1.3776296881449075,
      -0.9124059915254177,
      -1.7962376835810836,
      2.9090148438669736,
      -5.184369786936193,
      -7.685933567425756
    ],
    "angular_spread|open_sparse_vertical|all_los|all_ant": [
      -0.8771872339826376,
      3.253153860750974,
      -0.5614009478282509,
      0.46521364386863795,
      3.0164748831521404,
      -13.568877543595027,
      8.749646072433306,
      0.5424446302412146,
      1.183282145453472,
      -1.988761643001078,
      14.59922705226632,
      -0.28018354668010675,
      -2.291600629220889,
      0.8535908249907161,
      -0.559666829879525,
      -10.364274087516367,
      3.499611515167588,
      -1.2261663473709843,
      1.677209354437591,
      1.7463037526778582,
      2.5660032761744103,
      -3.1579216760620143,
      -4.1109655260809355
    ],
    "angular_spread|global|LoS|all_ant": [
      -1.177907542189433,
      8.29177332225126,
      -0.5414751796000726,
      -1.3605930282680672,
      -1.7060413425420504,
      -9.926823991050094,
      6.019039500822858,
      2.5601604851661666,
      -5.8434182270070725,
      -3.983493270676887,
      322.8857351901316,
      -1.0904569333529814,
      0.5641169077206442,
      -0.24853590924692087,
      -1.2831510232886096,
      -310.53227915693265,
      -3.2811315182401883,
      -0.45458573953761483,
      0.33270291845285865,
      -4.533504955388012,
      1.320196101558431,
      -7.840484938156349,
      -12.345786073770215
    ],
    "angular_spread|global|all_los|all_ant": [
      -1.260729303333788,
      6.167545254174949,
      -0.4869985751192106,
      -1.0029148745337981,
      0.07785087311607541,
      -7.449110169413655,
      4.548690938340188,
      0.41386346535536955,
      -2.643134629523359,
      -3.4127923741803308,
      216.81103607779218,
      -0.8617868660221782,
      -2.347343169649088,
      0.8828481654287756,
      -0.5580159040344791,
      -209.9726242062534,
      -1.1396294665427769,
      -0.300976537272342,
      2.104453692259479,
      -2.058844843771914,
      0.9412898112637504,
      -3.4626292325383927,
      -3.4417173096345652
    ],
    "angular_spread|open_sparse_vertical|NLoS|mid_ant": [
      -0.4575485990973281,
      5.2905542579434,
      -0.031392719870983306,
      -2.116955757518427,
      -3.944987976180812,
      -3.2207854202869024,
      1.5182785913081256,
      -0.18647321917240126,
      -1.2050361074186025,
      0.10835999509815608,
      0.12702117044047798,
      -0.052921184048109256,
      -1.279255527802678,
      -0.1062464773479229,
      -0.4727144521710381,
      -0.6777667989607353,
      -6.0657758893232865,
      0.13835953372217125,
      0.3273280500454937,
      -0.7306085961871494,
      0.27482743606485516,
      -0.2180872691909221,
      -0.4631290608200834
    ],
    "angular_spread|open_sparse_vertical|NLoS|all_ant": [
      -0.4914958205151405,
      3.7504745380305717,
      -0.22731700720018347,
      -1.7310369251943754,
      -1.64187047120386,
      -0.8603797069414018,
      0.5509274130259054,
      -0.17655485888120107,
      -0.5759838060787669,
      0.10752073861458109,
      0.08483996539548389,
      -0.04522396387561598,
      -0.8520798368971935,
      0.07913215169724801,
      -0.05621793899458622,
      0.061213866460840316,
      -3.3661331281477493,
      0.1540287063308569,
      -0.27725995672778964,
      -0.5166638250122713,
      0.10243467825938328,
      0.6379436392847199,
      -0.21433698208802657
    ],
    "angular_spread|global|NLoS|all_ant": [
      -0.5057904334374678,
      3.8280573170642613,
      -0.12570090983922474,
      -1.8471722270785917,
      -2.2525284332472832,
      1.2731793339282895,
      -1.2624698367295377,
      -0.15121284482498268,
      -0.9013460456606084,
      0.07679026088462877,
      24.423460360007805,
      -0.05088022112830814,
      -0.4442033700131903,
      0.01941280748517481,
      -0.043639535462888276,
      -24.295877161911317,
      -4.146737473204158,
      0.17854255806005936,
      0.4479225014458572,
      -0.8517649898804743,
      0.1246280628860967,
      -0.10021425730586471,
      -0.9124242451019838
    ],
    "delay_spread|open_sparse_vertical|LoS|high_ant": [
      -0.7547147771932221,
      8.913498339562405,
      -0.5791570969643537,
      -0.14660456019566634,
      -4.003800781583495,
      -16.252676818061904,
      8.496244174010801,
      -0.35854010026810296,
      -1.5725972099726255,
      -3.178478687214979,
      4.330852663423683,
      -1.8009801720074958,
      -2.5301294598839514,
      -0.39212038347162903,
      1.0679305760723674,
      -1.345325211439612,
      -4.133879486029582,
      0.0348165852508763,
      20.67253198871244,
      -2.640715761593374,
      0.07792252406705896,
      -51.327531237233174,
      -77.236697052879
    ],
    "delay_spread|open_sparse_vertical|NLoS|high_ant": [
      -0.08959699847196342,
      1.0690399548161136,
      -0.033133074475152124,
      -0.5807465958485541,
      -0.9457532192181591,
      0.013153378747191382,
      -0.25964883091684376,
      -0.009431600542445559,
      -0.30890302868933633,
      -0.1756075128098504,
      0.23495711020872168,
      -0.03791421647494347,
      0.21609301185277435,
      -0.09624141048296982,
      0.11456657844172913,
      -0.05672177919887833,
      -1.5235983505292081,
      0.09440342726099865,
      -0.5700458853659669,
      -0.424640962286528,
      -0.017325385566581076,
      1.4908009742658348,
      -0.7756988579171346
    ],
    "angular_spread|open_sparse_vertical|LoS|high_ant": [
      -2.262019209454715,
      21.235628121053953,
      -0.8561927533277467,
      -3.2655740260476795,
      -8.667722053440032,
      -24.421506373032063,
      13.695763236380584,
      3.2046807393820256,
      -4.020545702239132,
      -5.801074017462894,
      7.242726091613612,
      -1.4271771500821564,
      -6.772288077345153,
      -0.14057701839630835,
      0.46702948634444996,
      -1.7354816057446119,
      -11.95030320083354,
      -0.821718001878696,
      7.764631010577609,
      -4.483707513633458,
      1.6438681783503575,
      -32.5059982227845,
      -69.31408945219694
    ],
    "angular_spread|open_sparse_vertical|NLoS|high_ant": [
      -0.3069508178528278,
      3.0983422946734276,
      -0.060324876213064316,
      -1.4118170928065514,
      -2.2971218579911707,
      -0.220731495247543,
      -0.06805096167199708,
      -0.036372254567478564,
      -0.6096483434512232,
      -0.176448553769933,
      0.03250663381358628,
      -0.05341890989392641,
      -0.4060089609469532,
      -0.07413289865873658,
      0.04296510470857729,
      -0.13572752773431235,
      -3.708482629433672,
      0.06531428798669484,
      -0.24361513382666256,
      -0.6526937403261396,
      -0.010637521484753247,
      0.2733479596713333,
      -0.4975548388077868
    ],
    "delay_spread|open_sparse_vertical|LoS|low_ant": [
      -0.2935728011357833,
      -12.792894111045033,
      0.8033533020844811,
      3.754461965742584,
      15.02606378127625,
      21.77413455466158,
      -21.189803655140427,
      -1.3738359747938949,
      3.685670995876076,
      -0.35315881212990197,
      14.31661605867072,
      -0.48522321271533986,
      10.62498433850919,
      1.728823275590221,
      3.6877976650419626,
      -5.947270743091344,
      18.799310912781486,
      2.005570854595162,
      1.254365778345016,
      -0.0024648812293091844,
      -1.6987275922783382,
      -5.740967316911068,
      -5.265862947783931
    ],
    "delay_spread|open_sparse_vertical|NLoS|low_ant": [
      -0.2164782021226908,
      -0.76468278697796,
      -0.19369448510141252,
      0.14913445833727487,
      3.8112810973099576,
      0.44472130451351416,
      -0.3591297985352646,
      -0.3003984618308315,
      -0.006731104564033151,
      0.4294500058505451,
      2.8206433359189655,
      0.004544552972535852,
      1.6838902491388368,
      0.3424942766116055,
      0.5369013488853489,
      -1.6453093778437355,
      3.9796540072486613,
      2.5753933485429195,
      -1.088331089662102,
      -0.5402116854940022,
      -2.359163813147651,
      1.7869958526302014,
      0.2928506617168516
    ],
    "angular_spread|open_sparse_vertical|LoS|low_ant": [
      -2.274545300527304,
      -7.9456943615772895,
      0.3226847566461304,
      1.5416079226525476,
      12.34482039659341,
      13.327332310907133,
      -13.635619213363393,
      1.3222575815884472,
      8.966275206270842,
      -1.45661534478563,
      17.146289089008256,
      -0.833241830524944,
      8.043698388141367,
      1.7246076346606458,
      3.66829339006174,
      -6.5284382410197095,
      13.877720723716141,
      -15.040656763663254,
      2.1025587714101195,
      5.300002962163516,
      21.23086071229771,
      -7.6955909260869495,
      -4.567679615910875
    ],
    "angular_spread|open_sparse_vertical|NLoS|low_ant": [
      -0.6483009863561556,
      1.7596055671384803,
      -0.27389954390691007,
      -0.8612710735410284,
      1.5823894453817702,
      0.14351357359987135,
      -0.2305089341405376,
      -0.2786901856524836,
      0.206407447573553,
      0.35715071584951225,
      0.5986936990594544,
      -0.04374517884013657,
      0.4597528151477632,
      0.33076905165456794,
      1.0169882722249306,
      0.7667181178462459,
      0.7315043253906386,
      2.2908905159013178,
      -0.8795733176481006,
      -0.8092492435243255,
      -2.0128463197898117,
      1.3023704989778326,
      0.3808410746248583
    ],
    "delay_spread|dense_block_midrise|LoS|high_ant": [
      0.1730419632534106,
      3.331443476959134,
      -0.28287815586276177,
      0.17907087913293532,
      -3.7958645880706983,
      -3.4445853270744067,
      1.1761205243913024,
      -0.6269137628541054,
      -1.859714014076702,
      -2.993764870659418,
      7.529267084845436,
      -1.9854726356737522,
      0.330106027276376,
      -0.8311355518288617,
      -1.2917247093522979,
      -1.8104274921735728,
      -3.615805081358175,
      -0.12329894845922895,
      -8.930179223808837,
      -0.5620604296852612,
      0.2814634595153668,
      4.342000841979248,
      1.870650416477107
    ],
    "delay_spread|dense_block_midrise|LoS|all_ant": [
      -0.2158682878286461,
      4.610618662081037,
      -0.6396676194942243,
      -0.155456034838218,
      -2.169137158504611,
      -6.589023740155421,
      3.9743177331083497,
      -0.2293309860670815,
      -3.0541688827847193,
      -5.268585197757247,
      79.26060728829437,
      -1.4232660778565696,
      -0.2505478720190818,
      -0.5733837621294934,
      -1.607608073456077,
      -68.99555706749663,
      -2.3569030432280913,
      -0.1018996461973356,
      4.352989803709444,
      -1.440161791071544,
      0.7776597230674767,
      -8.96081695104243,
      -11.387300150991168
    ],
    "delay_spread|dense_block_midrise|all_los|all_ant": [
      0.021154149030038642,
      -1.1714390180407306,
      -0.20408305204993754,
      1.7791093264673066,
      2.6813050645397114,
      -2.56641042849063,
      1.4700037295590536,
      -0.4707695085870709,
      -1.9052821571134138,
      -2.1868657112924432,
      139.88234085257034,
      -0.8853858730971316,
      0.6521331200448208,
      0.2037760755247908,
      -0.571419789973848,
      -135.38989557664556,
      4.434099526407467,
      0.05804812607103814,
      4.154119403179037,
      -1.321766469008553,
      0.3634061425826034,
      -4.288334841947078,
      -6.257072874270865
    ],
    "delay_spread|dense_block_midrise|NLoS|high_ant": [
      -0.1112308030760586,
      1.98375564444407,
      -0.15067913493073323,
      -1.1025569327241427,
      -1.732287707923329,
      -1.5314469123272345,
      0.8682913248229548,
      -0.03844875964823681,
      -0.3668687132515963,
      -0.14803237834366,
      -3.7101799445497434,
      -0.02527437031433183,
      -0.8281787450457976,
      -0.06260549670256345,
      -0.2896108327924701,
      3.5681107539401933,
      -2.8328607539381356,
      -0.005294510755192571,
      -6.70313637990194,
      -0.08139301438896632,
      0.07654445013982333,
      3.1071116176932634,
      11.2013252499629
    ],
    "delay_spread|dense_block_midrise|NLoS|all_ant": [
      -0.2655293423770009,
      3.0377050330863598,
      -0.17056304512513235,
      -1.9646613787190805,
      -2.7185687412682555,
      2.0585320227611312,
      -1.8435243191521973,
      -0.10848195786426666,
      -0.6461438637985815,
      0.0004519487279852384,
      -0.49537017047243265,
      -0.041293137517360266,
      -0.9804690727723654,
      0.03053392550603747,
      -0.05355333828707726,
      0.5767713577697261,
      -4.667247149127275,
      0.18233103443131177,
      1.2482228612373076,
      -0.5892836575299781,
      0.09527175889629676,
      -0.7928653923525695,
      -1.8569726021334718
    ],
    "angular_spread|dense_block_midrise|LoS|high_ant": [
      -0.39400621715611756,
      10.256704775041587,
      -0.35492060717690477,
      -1.9268344732012535,
      -6.259534773820283,
      -10.77506424883158,
      5.25471547379269,
      1.7720024198427302,
      -4.771779051812779,
      0.13025810625250966,
      67.37455278800543,
      -0.9679406364289964,
      -1.2535175481907397,
      -0.6205634491822524,
      -1.674375494126658,
      -57.71322874667821,
      -8.189210672701138,
      -0.26780659663302564,
      4.114547484944667,
      -3.0951172164165794,
      0.5737305149031089,
      -46.173826113373536,
      -7.88715268470959
    ],
    "angular_spread|dense_block_midrise|LoS|all_ant": [
      -0.9799739234049732,
      7.237297432357606,
      -0.5535805729208317,
      -1.902174370283731,
      -1.6973277082221299,
      -5.638647005751989,
      3.45395003517161,
      2.266064593277821,
      -4.760831794954854,
      -2.9733288900079504,
      221.8160149275237,
      -0.9286574979331439,
      3.4062258064127002,
      -0.6866847205396103,
      -1.460571931628213,
      -207.30526250382383,
      -3.668535984470942,
      -0.3153443082200644,
      2.936700336376667,
      -3.3025607771487784,
      1.2313368516088428,
      -10.480637567692295,
      -16.0520479017395
    ],
    "angular_spread|dense_block_midrise|all_los|all_ant": [
      -1.0345424726594301,
      4.17369319390412,
      -0.3244408577121554,
      -0.8957796077312036,
      0.589028047277203,
      -3.1298614618355862,
      1.2388834762651293,
      1.033813686152734,
      -2.7510111380836655,
      -3.3473028672373104,
      231.762381327867,
      0.06672533360308656,
      -1.2554754483582151,
      0.6979691315142093,
      -0.8520044778905799,
      -224.74393349882172,
      -0.39877311496393164,
      -0.08018324356354874,
      2.6707059214763067,
      -1.906775439336219,
      0.81922771363836,
      -3.4914768033256367,
      -4.348904120866014
    ],
    "angular_spread|dense_block_midrise|NLoS|high_ant": [
      -0.34349043729875156,
      4.211828622926409,
      -0.13751972636735962,
      -2.0634080394864815,
      -3.1561006529118427,
      -1.264641537403851,
      0.7290109850643361,
      -0.06439981353321228,
      -0.8430470741093559,
      -0.15669287709761653,
      0.9482547417899976,
      -0.03125024743213183,
      -1.1707608617953438,
      -0.04866459120274353,
      -0.40646562038235695,
      -1.451021144867839,
      -5.219330237849919,
      -0.0042225153375995556,
      -8.033671989807495,
      -0.43831743737203577,
      0.06346257000146302,
      8.931104335840018,
      9.537070499882605
    ],
    "angular_spread|dense_block_midrise|NLoS|all_ant": [
      -0.8535389698930655,
      7.974805913326467,
      -0.1702191167697144,
      -4.046022176665278,
      -5.9636796254286555,
      1.7931075939760253,
      -1.7388352503085571,
      -0.14707686628295327,
      -1.358554864694873,
      0.01961828238543709,
      6.034237013817314,
      -0.06207412057614609,
      -1.992910407393466,
      0.05642257502447992,
      -0.09545364754733239,
      -6.486008896244108,
      -10.023118786214008,
      0.17929658222693257,
      0.562820605297478,
      -1.2646335040457801,
      0.05072439903891873,
      -0.24245564017489185,
      -0.9763097677412937
    ],
    "delay_spread|dense_block_midrise|LoS|low_ant": [
      0.04869824608518716,
      -5.747954852361574,
      -0.18569555211681177,
      3.7844653006684696,
      9.321870650973608,
      -7.350779887905809,
      5.738175758380018,
      0.002136326842615163,
      -1.9253698287043182,
      -6.912909119013944,
      125.22526131002363,
      -0.8987247942275002,
      6.0871181956793325,
      0.3259564519126587,
      0.23460989508061428,
      -105.47053040702838,
      13.086802796699903,
      2.945327544709549,
      2.0170021581032738,
      -2.1532959038768302,
      -2.2865063355591935,
      -8.248708629574883,
      -9.64876420787833
    ],
    "delay_spread|dense_block_midrise|NLoS|low_ant": [
      -0.2980098603663389,
      1.2282124071399239,
      0.05525727890941784,
      -0.08994688341739888,
      -0.23419398663925797,
      1.4805914410540129,
      -2.1253264799060174,
      -0.147884577318046,
      -0.5075709151300636,
      0.20365460891497883,
      5.71730213899012,
      -0.047344886978965973,
      0.7076278803207011,
      0.24805358036811248,
      0.6872774884528692,
      -4.75068734955999,
      -0.30296005174173624,
      -0.043004672026641426,
      0.7668394108431665,
      -1.1935403775122506,
      0.740779963789608,
      -0.4557887078491124,
      -1.2968654283905485
    ],
    "angular_spread|dense_block_midrise|LoS|low_ant": [
      -0.6432778168092955,
      -8.738069040376468,
      -0.0474602141633821,
      3.8056049426355885,
      11.98992811120466,
      -5.5517736808949145,
      3.498632446771192,
      2.2036452558458337,
      0.0367149486482743,
      -4.52513354018083,
      322.4898166494816,
      -0.9206528073708345,
      11.190692624265159,
      0.14359978635360396,
      -0.29280942268039983,
      -300.1027760659437,
      15.731267258799539,
      -7.072244755882264,
      2.125924109351532,
      0.3368206591100268,
      10.895779453965496,
      -10.120574226315194,
      -11.3398981205388
    ],
    "angular_spread|dense_block_midrise|NLoS|low_ant": [
      -1.1970443792142336,
      9.016147540553611,
      -0.09563278570949182,
      -3.8167826717309183,
      -6.163283704603651,
      1.5289490212239476,
      -2.3228644016752016,
      -0.19459417850776642,
      -1.3790265305858687,
      0.1989666924795203,
      8.597011151117234,
      -0.08367656168722654,
      -1.8210186445206915,
      0.25340458082777795,
      0.7297041368266863,
      -8.159851162788524,
      -9.99692404451936,
      -0.033783571744990346,
      -0.03565466168178137,
      -2.103507136356042,
      0.7434826660550502,
      0.226259302527538,
      -0.33222350850522864
    ],
    "delay_spread|dense_block_midrise|LoS|mid_ant": [
      -0.16296360744556854,
      3.2679849869178477,
      -0.6588902684899139,
      -3.929705467300885,
      -4.969298887235561,
      29.46763341659443,
      -20.80961957813818,
      0.24486764074955605,
      -3.5308656267290406,
      -8.361199548772719,
      68.17504937777981,
      -1.2873723813178788,
      1.0144405825311398,
      -0.5452052443633999,
      -0.3062280603613491,
      -52.82820240742138,
      -8.915804033669163,
      2.3200144904527886,
      -3.6614112087982416,
      -3.226936850075794,
      -2.150860405969168,
      -1.512026955838964,
      -12.445041119334633
    ],
    "delay_spread|dense_block_midrise|NLoS|mid_ant": [
      -0.25602381512746414,
      3.3032767329229453,
      -0.1566676963377112,
      -2.1881207363640676,
      -3.2833627767207005,
      2.8775309113572325,
      -2.911779345266824,
      -0.12453697274703017,
      -0.7900353370479555,
      -0.104271198495196,
      -0.4486120126357176,
      -0.058429159558574195,
      -1.1862657122214524,
      -0.0023480820050585474,
      -0.3691324884618518,
      0.7997133697659429,
      -5.479064445974236,
      0.12623705001120278,
      0.396652243582695,
      -0.41429646252298813,
      0.5413286962457089,
      0.17292727561799057,
      -1.3530528130588044
    ],
    "angular_spread|dense_block_midrise|LoS|mid_ant": [
      -1.192103139940547,
      9.1559437954688,
      -0.35511381722652285,
      -7.299827572663495,
      -8.47869512641652,
      35.56176893299511,
      -26.223109424225562,
      3.0998030838147614,
      -6.278327435727703,
      -7.8310162268316335,
      277.7440050408437,
      -0.9282456907259226,
      4.26158512915756,
      -0.9505669323800655,
      -3.1018972758701358,
      -259.10725362920886,
      -15.78347759137434,
      -1.7353921479665018,
      -4.487963790802046,
      -3.183244518638627,
      4.527172443923485,
      -4.99945503809794,
      -17.59813614239188
    ],
    "angular_spread|dense_block_midrise|NLoS|mid_ant": [
      -1.0266128886468169,
      10.089639921401629,
      -0.13771726459060793,
      -5.048055835346451,
      -7.904714083434564,
      1.7398233576498896,
      -2.279586144704146,
      -0.1735190133807099,
      -1.7028715659307831,
      -0.06850107723004739,
      -1.9970695864481471,
      -0.08893174778672772,
      -2.716065866882789,
      0.06415267493660474,
      -0.33267265527106804,
      1.5290056614578666,
      -12.9485419327153,
      0.15597393407007895,
      -0.3857169499582208,
      -1.3745132618775213,
      0.3790742413978051,
      0.8361479136296168,
      -0.2613694815398518
    ],
    "delay_spread|dense_block_highrise|LoS|high_ant": [
      -0.741801169500468,
      6.026488009582923,
      -0.36972244355492134,
      3.56057542416706,
      2.8173818655462672,
      -33.72757202289104,
      16.536387153848374,
      -0.7807372642791653,
      -1.5519454756866393,
      -1.325463594483255,
      -25.117566545041576,
      -1.1963161749358524,
      -1.2892392633771794,
      0.04716785928012509,
      -1.5648700659857921,
      27.061972957192122,
      6.3822191603021,
      -0.08675932589828328,
      -13.717334066824352,
      0.018122796099922962,
      1.666806166434117,
      4.033248974613977,
      18.04482278698252
    ],
    "delay_spread|dense_block_highrise|LoS|all_ant": [
      -1.3651906558124864,
      8.819270656383635,
      -0.6641734876436042,
      -2.893559061600766,
      -2.5004657256948675,
      2.117134780019555,
      -3.0778513315684632,
      -0.8734063709375335,
      -1.3806948280151088,
      -0.3368883992170341,
      -20.982563602494906,
      -0.6156097216951022,
      -2.838039064401492,
      0.5494281699576219,
      0.47166933974346037,
      22.8475286385866,
      -5.372875995634242,
      0.27669557477029705,
      -1.663953333879849,
      -1.8515145304316663,
      1.116899580495954,
      3.114407987843402,
      -1.4540959371286917
    ],
    "delay_spread|dense_block_highrise|all_los|all_ant": [
      -0.1629477701028412,
      -0.3590588057134981,
      -0.22761908772046124,
      0.8299555606050519,
      1.948721655701204,
      7.5101259068988595,
      -6.806915685070617,
      -0.6195738181914912,
      -0.9899474497026188,
      0.06640081903914873,
      0.12315397763213216,
      -0.4871338053128171,
      -0.5906940163909624,
      0.44363948599691694,
      0.4190984435623266,
      1.4602833119062089,
      2.8121267309360527,
      0.4753841644937551,
      -0.3895844189536544,
      -1.4125406094664708,
      0.8215341299350837,
      0.8627762250961233,
      -0.4478801630400449
    ],
    "delay_spread|dense_block_highrise|NLoS|high_ant": [
      -0.26465715498268655,
      1.1430584752358783,
      -0.09793506224887485,
      -0.2942297941421042,
      1.148771228873359,
      -1.1360865386810466,
      -0.24638739706085738,
      -0.13685281413372144,
      -0.218923196282616,
      0.08357929556224031,
      -4.0263741295419635,
      -0.053104395085259534,
      0.03823372470677107,
      0.23854019290699166,
      -0.27297894730588645,
      4.657214198154049,
      0.8649577840200986,
      0.188982529107995,
      -3.3928513661730655,
      0.05396433488686243,
      0.21900556620381184,
      3.9365304838621187,
      2.6029841874669315
    ],
    "delay_spread|dense_block_highrise|NLoS|all_ant": [
      -0.2625128360996995,
      -0.06918119745866448,
      0.0866233306006774,
      0.1715872361676071,
      1.4105639599469555,
      7.380664220039257,
      -6.7191723766633,
      -0.11873838124703331,
      -0.6441087527989973,
      0.2205037479652194,
      10.52216109306775,
      -0.01259423545900084,
      0.9766356779962659,
      0.3190614552526414,
      0.4198323332415671,
      -9.296381445192525,
      1.5960996055316712,
      0.5389074316095338,
      -1.8771947210389974,
      -1.0693618988232048,
      0.2577013065448069,
      2.2065201694323453,
      1.4580495350986449
    ],
    "angular_spread|dense_block_highrise|LoS|high_ant": [
      -2.821642855592558,
      16.248526581245493,
      -0.16876761465098128,
      0.6016321305775794,
      -1.0810426405264368,
      -38.0377735437918,
      17.897079962346787,
      2.2274025849528245,
      -2.2696969575120445,
      -2.79888555882705,
      -3.5268263739446075,
      -1.0072086968594591,
      -1.9397199829233471,
      0.2258984158923402,
      -2.002545913925425,
      8.51915534618499,
      -0.46648187885086595,
      -0.7380337934366769,
      -14.604426611491744,
      -0.26949502671812164,
      3.428049880080738,
      -47.06818113823985,
      62.06177271573358
    ],
    "angular_spread|dense_block_highrise|LoS|all_ant": [
      -3.8198870444824617,
      17.753115374676366,
      -0.5333394994375473,
      -5.891714646335041,
      -5.521679841463847,
      5.590356757086477,
      -6.196299675024172,
      1.8291614313959366,
      -1.1183831121871093,
      -1.5556408896525278,
      -1.277312126383087,
      -0.5927126525808547,
      -2.0752552054211053,
      0.702616142513468,
      0.9581787597199262,
      6.654344623724026,
      -11.385186208667166,
      -0.427460128128877,
      -1.7449487761866043,
      -2.0823462538180344,
      3.4522135331581625,
      1.2597163486871403,
      1.0125213919854683
    ],
    "angular_spread|dense_block_highrise|all_los|all_ant": [
      -0.9264139001053995,
      3.2459877138682693,
      -0.22539702707086545,
      -0.6931682934178425,
      -0.2476366381994378,
      8.10251276227702,
      -8.277861536717662,
      0.06291320338122489,
      -0.24166391814451813,
      -0.19447605227429618,
      -3.011628256200482,
      -0.03472956341852604,
      -2.180237934869433,
      0.8307239648407313,
      0.8756469950141601,
      5.669044158730377,
      -0.9272122667317302,
      0.39809151228466144,
      -0.3474390443622317,
      -1.1237408116960452,
      1.199745711965297,
      0.5527562055796346,
      -0.08559183753126463
    ],
    "angular_spread|dense_block_highrise|NLoS|high_ant": [
      -0.6572161091547661,
      3.281561767958156,
      -0.09913810236932923,
      -1.3661408685100898,
      -0.5432170666471471,
      0.24230253055588274,
      -0.9796626583732684,
      -0.19399318092355405,
      0.11357298528916525,
      0.10109304370999728,
      -10.647556690884802,
      -0.08635546342767622,
      -0.2802832501176404,
      0.2106905059394157,
      0.20891813189181038,
      11.317238143220962,
      -1.9034747723677161,
      0.16904625881933355,
      -2.7375203549737845,
      -0.09648143688139636,
      0.1311447801455211,
      3.272229539039647,
      2.1926038730131454
    ],
    "angular_spread|dense_block_highrise|NLoS|all_ant": [
      -0.6651849696125273,
      1.9274967825414373,
      -0.013515541897574616,
      -0.6378110733960137,
      0.16218265572782128,
      5.661126561580939,
      -5.328624419944926,
      -0.1913498160323652,
      -0.0056951081613682356,
      0.2039270557833423,
      1.0796032737088788,
      -0.07326328521409481,
      0.2912517941386051,
      0.29986689909157904,
      0.8884717484541778,
      0.37626126671784227,
      -0.48883720278512993,
      0.4389962132769968,
      -1.6324575526873089,
      -0.8951562412393796,
      0.21775702891919493,
      1.8366761975335586,
      1.375585260818808
    ],
    "delay_spread|dense_block_highrise|LoS|low_ant": [
      -0.9432294804496657,
      4.081939047760323,
      -0.7480361363153722,
      -3.3062725283062515,
      -0.32117236197974264,
      23.876156642810386,
      -18.80301510399053,
      -1.0047020987145499,
      -0.5571775518713171,
      1.317714193752212,
      4.352958883529825,
      -0.10815478151750964,
      -1.401079124713823,
      0.6286758232521469,
      1.1392728955534575,
      -3.9537888094141094,
      -3.6178443802935987,
      -0.735041243093555,
      -0.659847172216784,
      -1.69731863805108,
      1.3521552059750355,
      0.8383300516624647,
      -1.0168693284392152
    ],
    "delay_spread|dense_block_highrise|NLoS|low_ant": [
      -0.12287198188012259,
      1.4289787006248789,
      -0.02027886883758737,
      0.9544777440163458,
      -2.056503143142985,
      1.447859698249959,
      -1.9390156350734598,
      -0.13673037845617486,
      -1.9746352379780612,
      0.17566572458362192,
      -0.15807036403662492,
      -0.062021878125729006,
      -1.8401072309097741,
      0.11742580050554402,
      1.1966106427284955,
      0.19090193965867466,
      -1.1150094891855213,
      1.19789485999462,
      -1.8391707303796228,
      -3.172977124304533,
      -1.0654630010491137,
      2.0901053175073345,
      1.4807151159898204
    ],
    "angular_spread|dense_block_highrise|LoS|low_ant": [
      -1.8065905481207407,
      -4.707443960201169,
      -0.5612398654745723,
      0.4402276166921169,
      9.717283364147628,
      21.18591026757708,
      -15.727512262925808,
      0.8557419399478623,
      5.134309866294528,
      0.6781150342271255,
      5.990373498960484,
      -0.4795698643302219,
      6.16436299251269,
      1.0653458941906002,
      4.0987795086462215,
      -0.24114032336985214,
      10.154595472210916,
      -3.9267969694603475,
      0.14209818076422953,
      1.036986379187167,
      5.229109873077817,
      -2.24361959000078,
      0.2663027749081449
    ],
    "angular_spread|dense_block_highrise|NLoS|low_ant": [
      -0.4383721469093788,
      7.206847192070469,
      -0.1770137799923673,
      -2.028323008451244,
      -7.485667293944417,
      1.1699508033922972,
      -1.610125479156799,
      -0.19304995821011578,
      -3.3237797231954844,
      0.12555736508317397,
      -0.29907036214091903,
      -0.12083859248602896,
      -4.568931784932203,
      0.07316694723420078,
      0.5793797980051464,
      -1.0662058196219466,
      -9.526670242085766,
      0.9845485941503274,
      -1.4105639895575512,
      -3.9021336072776194,
      -0.880680366628444,
      1.5834270736708378,
      1.1526457454770878
    ],
    "delay_spread|dense_block_highrise|LoS|mid_ant": [
      -1.4163820698847556,
      -0.8006557366957952,
      -0.12076380828757645,
      0.4618924403766936,
      8.579710201311062,
      10.17146403407392,
      -8.871920592977437,
      -1.0956552680583391,
      0.9705523066086642,
      0.5030075700584883,
      1.286507260208707,
      -0.18899727447249287,
      2.257881284339796,
      2.0515113663353888,
      2.0602850813251297,
      4.055682601135651,
      9.04826737434152,
      0.855105118522971,
      -0.545253917244949,
      -1.0928318157346817,
      1.6260766706365233,
      0.4728258643824521,
      -0.3818655860070036
    ],
    "delay_spread|dense_block_highrise|NLoS|mid_ant": [
      -0.32763439906541647,
      -0.3841454719347548,
      0.03277165742937072,
      1.159191392464449,
      2.5229826896518404,
      6.810369915745932,
      -7.411096003394158,
      -0.04132119546322757,
      -1.1238141893595746,
      0.34290424827371896,
      12.451445060809727,
      0.11092347906572461,
      0.3231210185152803,
      0.662136512424975,
      0.9901260530301602,
      -10.224771893207116,
      3.6984283068805692,
      1.4170325903043497,
      -1.7446361875902243,
      -2.118051833415086,
      0.007924199664023987,
      2.2231029831888782,
      0.8799266750868874
    ],
    "angular_spread|dense_block_highrise|LoS|mid_ant": [
      -3.1807923862696668,
      -3.75381247674586,
      0.32365169439971586,
      -0.8732256689194532,
      8.886999702641319,
      35.38290777904057,
      -28.795739950542174,
      1.3297399778514551,
      6.358413334763044,
      -0.7397124293887894,
      7.887254442945713,
      -0.4765639814077615,
      5.384658937732738,
      2.2295380371095903,
      4.114340454716415,
      3.4329948673056974,
      8.030513523677767,
      -2.766562560743148,
      -1.0698361560073304,
      2.239625626428344,
      7.7612983183482855,
      -0.30719754624128043,
      4.032817418041276
    ],
    "angular_spread|dense_block_highrise|NLoS|mid_ant": [
      -0.8988676217497803,
      3.006127791186662,
      -0.07253198917842256,
      -1.1917973805362165,
      -0.7533900907250208,
      11.061256550846077,
      -10.180949319470963,
      -0.16634572694340483,
      -0.5286416602474429,
      0.3226249498884979,
      6.960884378021986,
      -0.004915597405667499,
      -0.6163088530983252,
      0.5615782096774985,
      1.446777492297616,
      -4.613172903103422,
      -1.9512897726821476,
      1.3146162378860076,
      -2.4790425530204114,
      -1.9763807654612977,
      -0.08912982700294998,
      2.848734803531139,
      1.8691089013785507
    ],
    "delay_spread|mixed_compact_midrise|LoS|mid_ant": [
      -0.5322662880065583,
      2.1330016254190656,
      -0.9155322103680408,
      1.0548269655154316,
      4.254659276766247,
      -9.041478689227068,
      5.261254357926594,
      -0.5850012497132393,
      -2.1433738923744095,
      -3.4910424139712095,
      10.792666182613756,
      -0.8166557743432122,
      -1.7024088572453526,
      0.6808160064081622,
      0.12779339141106721,
      -0.9050829543515618,
      5.315092095118784,
      1.4822131715928542,
      0.06274187313658079,
      -2.2711788270373323,
      1.2948916887869617,
      -6.762048047815131,
      -3.8242781129238215
    ],
    "delay_spread|mixed_compact_midrise|LoS|all_ant": [
      -0.4896149741691338,
      2.064298567493453,
      -0.5622393716678832,
      2.1850729925947556,
      4.153209810260892,
      -17.314478765358427,
      10.631638487238336,
      -0.483139942586603,
      -2.8798195457754425,
      -2.88934577835329,
      176.2684826746018,
      -0.9358863739237518,
      -0.9719432326270835,
      0.4258663279731855,
      -0.9906663037408334,
      -169.65652300488773,
      6.359850331209834,
      -0.08464723588338174,
      -1.2656562160232854,
      -1.879523745433524,
      1.2608192294440552,
      0.2819793936605906,
      -5.491809417980799
    ],
    "delay_spread|mixed_compact_midrise|all_los|all_ant": [
      -0.04508581355543529,
      -1.1072086230061704,
      -0.651562699443079,
      2.311811969776587,
      5.486645062884766,
      -9.572124259420551,
      6.546442292260808,
      -0.5862092182014812,
      -1.7412555926381794,
      -0.938565257110952,
      111.36502196507526,
      -0.540772961026337,
      -0.8656354433867811,
      0.4852960719265888,
      -0.9538626614089702,
      -107.81850051775504,
      7.836229811326501,
      -0.11790914800721661,
      0.4716208518967262,
      -0.7825994123549455,
      1.4377241206129199,
      -0.27161965994415543,
      -2.9502219101753413
    ],
    "delay_spread|mixed_compact_midrise|NLoS|mid_ant": [
      -0.3830082688661228,
      4.300544673249704,
      -0.27780020896098256,
      -2.5388577498587512,
      -3.328744019429249,
      1.4082771153936062,
      -2.2048115733317517,
      -0.2691799513042109,
      -1.0539162385423064,
      0.20291489729912024,
      -4.95939139702327,
      -0.1066859027418761,
      -1.8339405736684937,
      0.1453674282278994,
      -0.4274120198237364,
      5.59188053973173,
      -5.866651133142751,
      0.29824856561099944,
      0.11086556211737268,
      -0.626781011500192,
      0.8276225616094622,
      0.1623928486161288,
      -0.7473132054240533
    ],
    "delay_spread|mixed_compact_midrise|NLoS|all_ant": [
      -0.3430705133955601,
      2.9921192173585536,
      -0.39446881343535,
      -1.7742307125790107,
      -1.1605664213327838,
      0.9572387423974479,
      -0.9176368160928409,
      -0.20535901075637222,
      -0.8705762997400206,
      0.16809059051260494,
      3.26858805810223,
      -0.05653748508076375,
      -1.20195007032859,
      0.22597509617674738,
      -0.018210011740046345,
      -2.6876719276634784,
      -2.9309780507550283,
      0.37555231415720663,
      0.42319394056779364,
      -0.8579373335778865,
      0.2166568465693841,
      0.09956883883587951,
      -1.191289829251663
    ],
    "angular_spread|mixed_compact_midrise|LoS|mid_ant": [
      -2.2956783495774933,
      10.579570293358687,
      -0.7110516796303423,
      -2.0108044213431233,
      0.06039872284134162,
      -10.317736214006766,
      4.708106934016073,
      2.6985369531126326,
      -1.2022640253561445,
      -5.848646331635118,
      59.99300637645041,
      -0.8989295624648638,
      -3.379614440503548,
      0.936559549862598,
      -2.1675918015658935,
      -48.53934732435533,
      -2.0282633418459204,
      -5.936696445739108,
      -0.35525440984385637,
      0.9790673616660278,
      12.360042383923277,
      -5.2206824049425755,
      -9.543530410120413
    ],
    "angular_spread|mixed_compact_midrise|LoS|all_ant": [
      -2.1298970208378813,
      11.432914226473773,
      -0.9296566435077787,
      -2.400258279020231,
      -0.5751205752833407,
      -12.3489714049256,
      7.8036120063898915,
      2.8625354432907,
      -5.328144929925287,
      -5.162710047817388,
      345.2986610933505,
      -0.8787224028932296,
      -3.2913817784495336,
      0.5956378649087372,
      -1.6947051535688307,
      -334.92009701600654,
      -3.082907184577853,
      -0.8822785758300857,
      -1.8705974525875997,
      -3.6145521092711106,
      3.2307917768001904,
      -1.3747565783581375,
      -8.13652334759536
    ],
    "angular_spread|mixed_compact_midrise|all_los|all_ant": [
      -0.8973640393077672,
      3.1653916955656993,
      -0.7996039549478141,
      -0.25516414114379654,
      3.35204739013768,
      -7.359091334652723,
      4.823886082537706,
      0.7883379811190924,
      -1.6612877511086803,
      -2.1701463360797706,
      165.28105544954343,
      -0.01541496741108069,
      -2.5583786199201626,
      0.9015957764892825,
      -1.2914097544225895,
      -159.86755725416475,
      2.9780117026423003,
      -0.4997517182345922,
      0.7614234657307276,
      -0.34992990219273445,
      2.2963937724433117,
      -1.2224551919085218,
      -2.6761154591035465
    ],
    "angular_spread|mixed_compact_midrise|NLoS|mid_ant": [
      -1.1307308167440728,
      10.480975526216973,
      -0.23392021740456692,
      -5.533455224423041,
      -7.915533625709434,
      4.7880212644218405,
      -4.522158731697674,
      -0.31369975248326337,
      -1.8597744976449364,
      0.23159920627147498,
      -0.3783117546943964,
      -0.1193097292235848,
      -3.0299825334932633,
      0.1553700617580398,
      -0.3182839619431102,
      0.08909660761394758,
      -13.429686525960928,
      0.37191001076669084,
      -1.0091111588196315,
      -1.545699230494446,
      0.4957634193588005,
      1.355787999889521,
      0.5765476578757633
    ],
    "angular_spread|mixed_compact_midrise|NLoS|all_ant": [
      -0.7950262086259984,
      5.900347931273067,
      -0.3269208957474187,
      -2.822046281080025,
      -2.948645877573499,
      0.9021595878540322,
      -0.9004090581155489,
      -0.22475976063621855,
      -1.0193335872877118,
      0.15998211093401898,
      9.034208558722247,
      -0.06561289517608962,
      -1.4809728047154733,
      0.19132153503185115,
      0.15223947397845272,
      -8.76212613362142,
      -5.797587315159924,
      0.31825319604617414,
      -0.24238637342679578,
      -1.1630382158993264,
      0.15044086973826565,
      0.6567694221912818,
      -0.2700837698067514
    ],
    "delay_spread|mixed_compact_midrise|LoS|low_ant": [
      0.021480494011633336,
      -13.40300515761366,
      0.3081955452199084,
      4.236987244126385,
      16.555428351404046,
      16.51958018111983,
      -14.588799275981218,
      -0.6769849455399369,
      1.0609584327546493,
      -1.1557825637663772,
      153.13404514189827,
      -0.10614618394434835,
      11.080455629826794,
      1.1216710214720818,
      1.1346491383778023,
      -143.9959313022494,
      20.824158732336493,
      -2.2186080948474816,
      -0.18211838405721414,
      -0.07261039247250245,
      3.896966506428895,
      -0.8442002440773115,
      -4.14131372400326
    ],
    "delay_spread|mixed_compact_midrise|NLoS|low_ant": [
      -0.39702087177158796,
      0.6027230508996494,
      -0.09198525882331457,
      0.509912403650726,
      2.098925586967081,
      1.5555276901903987,
      -2.4512931027313027,
      -0.26315623142342115,
      -0.7604805165783343,
      0.43868717752441505,
      13.641643839639025,
      -0.004742948267899191,
      1.0012931225449422,
      0.5265296592822188,
      0.90560071012088,
      -11.911656439437142,
      2.598684057873171,
      -1.7874337295127865,
      -0.4587217817921839,
      -1.670467710003832,
      3.4779014061903806,
      0.9858016514023374,
      -0.2551433745363374
    ],
    "angular_spread|mixed_compact_midrise|LoS|low_ant": [
      -1.2538329613472379,
      -12.128628255425074,
      -0.15348009499588394,
      3.0193957436402092,
      15.629561305172649,
      13.013167158568587,
      -11.387243042793397,
      1.6767881099733795,
      4.529587601909839,
      -2.1038987596337275,
      274.3569754816203,
      -0.4835210405827243,
      9.18225239194472,
      1.3184968649514566,
      1.6431159407151075,
      -262.2711435278639,
      18.625216517604454,
      -12.866225418764701,
      0.936388748329441,
      2.889333928793488,
      18.023084310377207,
      -3.7872236779474897,
      -5.690393230736819
    ],
    "angular_spread|mixed_compact_midrise|NLoS|low_ant": [
      -0.9432123018054418,
      4.125942066339596,
      -0.16647224536804411,
      -1.1021270222842872,
      -0.7952007468547149,
      1.3284506277739807,
      -2.130513533302468,
      -0.27764428467321034,
      -0.5958899692640917,
      0.3743989501755185,
      15.715752942531276,
      -0.04150489335253712,
      -0.19736233294134164,
      0.39376759768572056,
      1.2249206459761324,
      -14.148108158621197,
      -1.9271406127379174,
      -1.5703418618161846,
      -0.9287826170253868,
      -1.813966482876024,
      2.9480287910525833,
      1.3223223485678632,
      0.4662251347897313
    ],
    "delay_spread|open_sparse_lowrise|LoS|mid_ant": [
      -0.9429763516483715,
      19.291475892556985,
      -1.7190232129702252,
      -1.861133834774298,
      -12.098794745881344,
      -30.031218461424473,
      20.43961240756759,
      0.588088887553823,
      -5.8778253114733605,
      -14.678181056268857,
      50.79930302101197,
      -1.4722203665318077,
      -17.57650823041849,
      -0.015926321430863262,
      -0.6986762311229469,
      -22.005248553555802,
      -13.964825730428343,
      0.28025508964362167,
      10.1740660337017,
      -5.1792802702761636,
      -1.4423968654242294,
      -112.24134969149839,
      26.3277496564539
    ],
    "delay_spread|open_sparse_lowrise|LoS|all_ant": [
      -0.9239171922118476,
      15.486615878793021,
      -1.1833529540418433,
      -3.268926016736564,
      -11.474587322326595,
      -7.489687146105524,
      4.252517051982108,
      -0.029984179225016665,
      -4.045109086184133,
      -9.001661074444927,
      2.3059095889176184,
      -1.4095872693052192,
      -13.677606134980687,
      0.1758085668791924,
      -0.46151293257644055,
      21.845442039916648,
      -14.71639697139084,
      0.06909769412228588,
      -1.9614994172388653,
      -3.585042492599673,
      -0.333723439660353,
      -18.10570440152349,
      -9.081624392971449
    ],
    "delay_spread|open_sparse_lowrise|all_los|all_ant": [
      -0.03720516681836521,
      -0.6571001458316489,
      0.05404624978907604,
      2.2846291348621177,
      1.6306528454316136,
      -7.325826078853982,
      4.419624384979831,
      -0.29340945285968195,
      -0.12073271238857858,
      -7.075631673574982,
      7.909555581796476,
      -0.8606774797724613,
      0.16104064955405697,
      0.3252559932692896,
      1.0919997593352864,
      6.894706007849573,
      3.941912233246595,
      -0.09394747305394213,
      2.3679539967637444,
      -1.2133362929126388,
      -0.23129694938503534,
      -11.127140775735377,
      -8.138026311961626
    ],
    "delay_spread|open_sparse_lowrise|NLoS|mid_ant": [
      -0.07045534188043175,
      1.6364002767257342,
      -0.17971109092915766,
      0.6052900965715127,
      0.04840975033954259,
      -13.059429657622843,
      8.906449257598737,
      -0.09157903970517035,
      -0.32179467992788485,
      -0.16080789789747044,
      2.375399433187511,
      -0.056574754057049766,
      -1.383565105333785,
      0.011905068465648516,
      -0.3909740158515697,
      -2.3567229265773473,
      0.6559028989743543,
      -0.29323703674082635,
      0.6138636768262741,
      0.06871834490146178,
      0.5536234894622589,
      -0.9450707747470437,
      -1.179091265936086
    ],
    "delay_spread|open_sparse_lowrise|NLoS|all_ant": [
      -0.12534294704512616,
      2.3340598379533253,
      -0.21138313652997337,
      -1.2490944963142436,
      -1.9549976182505693,
      -1.5654832740796707,
      1.0874926281693689,
      -0.10351849089804357,
      -0.5311011770853206,
      -0.33283233216069497,
      9.797640884296912,
      -0.04704895586894336,
      -1.6109664304920712,
      -0.004606374589410929,
      -0.47103194704829615,
      -9.490387430076511,
      -3.2039950640938115,
      -0.050397242934666686,
      0.2372174391474312,
      -0.05978019898199797,
      0.16597989205632915,
      0.3672457697327504,
      -1.7340690699680308
    ],
    "angular_spread|open_sparse_lowrise|LoS|mid_ant": [
      -0.7185100370710968,
      30.343600652238738,
      -1.1553560247016803,
      -6.778505056887172,
      -21.79386666097993,
      -14.739770364722364,
      8.715406285978736,
      3.4718174228373804,
      -13.871570925295364,
      -7.400457065434934,
      183.3048893934747,
      -1.5618065372330063,
      -14.980484284099681,
      -1.223504964681249,
      -4.678980631341115,
      -148.31799166511513,
      -28.602924369824674,
      -0.9273794040206,
      19.969645828574123,
      -9.186575867560055,
      1.1500223588271137,
      -148.18549925927013,
      -15.48570883476068
    ],
    "angular_spread|open_sparse_lowrise|LoS|all_ant": [
      -0.5339389817156993,
      13.012723720245736,
      -0.48949435937266406,
      -2.652917607822671,
      -8.426983196806848,
      -8.351090090788464,
      4.6767016465268805,
      2.443031514510019,
      -6.183501140408168,
      0.10161305298916537,
      136.34318417175538,
      -1.5088859130574794,
      -5.306348621299756,
      -0.4178612456719339,
      -0.346784557039275,
      -105.29197822997637,
      -11.06945071571423,
      -0.29332193593241995,
      3.331470559012849,
      -5.831772932327421,
      -0.2614203069924028,
      -50.10682068499525,
      -21.12516517466435
    ],
    "angular_spread|open_sparse_lowrise|all_los|all_ant": [
      -1.0955493541460446,
      4.502599457865162,
      0.025373857435432436,
      -0.22025879748129218,
      -0.36959109556312314,
      -8.735453331792845,
      4.926114637641773,
      1.708355949065302,
      -0.939710342480613,
      -7.690638910675009,
      97.37181907225549,
      -0.25781051109126546,
      -1.430893002548892,
      0.7095604820438316,
      0.9728804572582203,
      -75.46124000672953,
      -0.5843667735935467,
      -0.4870200216661444,
      5.222150026551061,
      -1.9084944289458974,
      -0.02248913129678091,
      -24.600384333004644,
      -10.498372132587507
    ],
    "angular_spread|open_sparse_lowrise|NLoS|mid_ant": [
      -0.14835745974379336,
      2.203807638537284,
      -0.09378157798272893,
      0.03698675863470123,
      -0.6426477010551308,
      -8.968428451751864,
      6.018365323376018,
      -0.07459211953511256,
      -0.4980860853339898,
      -0.5120154539138249,
      3.5102731810915127,
      -0.05817075335523116,
      -1.3252557762437382,
      0.06304707019481946,
      -0.4153062615542207,
      -3.323276432397604,
      -0.6078222187406048,
      -0.23114495499495166,
      1.6289499643527732,
      -0.08313004727458782,
      0.40632631939511055,
      -2.7804611032785367,
      -2.145999192165817
    ],
    "angular_spread|open_sparse_lowrise|NLoS|all_ant": [
      -0.25152855881224634,
      3.7653612960400813,
      -0.1733590486247486,
      -1.7903490676649614,
      -2.8288460059518927,
      -1.0045144052602801,
      0.7915085156733965,
      -0.10649536117267297,
      -1.0641073997150456,
      -0.3036968069828284,
      17.31808763886811,
      -0.04055236756384676,
      -1.6731688626293064,
      -0.01597120237147982,
      -0.6123019158987725,
      -17.576893072615412,
      -4.615028521674332,
      -0.020766103566447314,
      0.9861813773001376,
      -0.45455307611555495,
      0.08180704886195558,
      -1.249926049415713,
      -1.694709539760607
    ],
    "delay_spread|open_sparse_lowrise|LoS|low_ant": [
      -0.2845985624217572,
      10.657737570511669,
      -1.2144712829613447,
      -2.7529450494183823,
      -8.898093673475483,
      2.2630746246632647,
      -3.0808563214513196,
      0.2882443802358628,
      -4.31391403652951,
      -16.768858969881705,
      -12.727812874083007,
      -1.006886986480397,
      -10.982457246221598,
      -0.1406466272909341,
      -0.18543854417232697,
      51.312525108062836,
      -11.614241181104765,
      1.359777954597209,
      -4.708588639687953,
      -4.128839194682946,
      -1.2671338948102184,
      -23.135492241599962,
      -4.037024464538302
    ],
    "delay_spread|open_sparse_lowrise|NLoS|low_ant": [
      -0.16434019851270695,
      1.4927837269113806,
      -0.239884128405354,
      -1.2326626634947773,
      -0.40621699417634977,
      1.2051857173314706,
      -1.3256680694892722,
      -0.14703215055638763,
      -0.46209727167081116,
      -0.715362228262424,
      9.185068668803272,
      -0.06114365341707134,
      -1.0142357921988112,
      0.188792374886203,
      -0.29553201972915216,
      -6.995361820440503,
      -1.6405927677011898,
      1.1482484502934185,
      0.02494512924070722,
      -0.16617606290300063,
      -0.3130548992238972,
      -0.07574723960659703,
      -1.2548797499190742
    ],
    "angular_spread|open_sparse_lowrise|LoS|low_ant": [
      -2.1777129548334027,
      25.957758749258428,
      -0.6955888272864916,
      -6.893782614912767,
      -16.41860545411176,
      -5.079196471006141,
      1.6451541303794797,
      3.0836666447625305,
      -8.597558123189085,
      -12.496890136645225,
      220.25391352585115,
      -1.3360850326229696,
      -9.850024187949272,
      -0.4704047116129602,
      -5.005721976332783,
      -180.72882459481724,
      -23.27419696786017,
      -15.834371929842787,
      -3.319116336607974,
      -3.592431416281559,
      20.075890886942613,
      -34.31348230955371,
      -3.3383169068949434
    ],
    "angular_spread|open_sparse_lowrise|NLoS|low_ant": [
      -0.37555964455412594,
      4.029803615448615,
      -0.2519994416175944,
      -2.24264774758933,
      -2.506579700280777,
      0.8013368191402633,
      -0.6975066932103331,
      -0.16059432052358544,
      -1.0261597804115408,
      -0.46727342572110797,
      17.231520710690948,
      -0.04954592973040024,
      -1.7627492370657158,
      0.09213146020403011,
      -0.4922645366742473,
      -16.45592471012831,
      -4.742175417274758,
      0.8157193165472774,
      0.9121090861208975,
      -0.5360830307082664,
      -0.34619713183978545,
      -1.5825555513937877,
      -1.330032916385769
    ],
    "delay_spread|open_sparse_lowrise|LoS|high_ant": [
      -1.2196147441828187,
      13.759956060464159,
      -0.9151763445450369,
      -4.436739197213948,
      -10.177448051059526,
      2.6317523723921403,
      -1.2460445000472256,
      -0.6066927287052435,
      -2.268670787464153,
      -0.10152340034389397,
      -27.651586326337917,
      -2.437756573287951,
      -6.245711787224737,
      -0.28620426710730834,
      0.614194309197854,
      38.99098087882409,
      -14.621155935495612,
      0.14647928114189335,
      8.673617379884035e-19,
      -2.884091726053237,
      -0.449859951568755,
      0.0,
      0.0
    ],
    "delay_spread|open_sparse_lowrise|NLoS|high_ant": [
      -0.016367254833090563,
      0.24280778856807858,
      -0.014135396194638895,
      -0.012727758420845663,
      -0.11624872151931219,
      -0.7826217859454516,
      0.4190883735668236,
      -0.007921727015676984,
      -0.03653237752224052,
      -0.07440658220288301,
      0.24631814386949244,
      -0.01263126873991151,
      -0.16173443071583618,
      0.007880283634318738,
      -0.014184998595719771,
      -0.185410979214007,
      -0.12916419099695925,
      -0.0063487663857802745,
      -2.710505431213761e-20,
      -0.02202698039004373,
      0.011968014840889312,
      0.0,
      0.0
    ],
    "angular_spread|open_sparse_lowrise|LoS|high_ant": [
      -0.3462578366547887,
      13.455170860934786,
      -0.6541937725080753,
      -3.563133940910715,
      -9.68303212438202,
      -2.7731357896997704,
      1.71031494654674,
      1.241429838709836,
      -4.929571667312587,
      15.068379285042125,
      14.39112099989954,
      -1.324140028402272,
      -5.386000659904421,
      -0.5830495146976865,
      1.0802431893744364,
      2.6134691556529286,
      -13.24181280571538,
      0.06291104064143838,
      -4.336808689942018e-19,
      -6.010289468594775,
      -0.8481108045093166,
      0.0,
      0.0
    ],
    "angular_spread|open_sparse_lowrise|NLoS|high_ant": [
      -0.010159875961812533,
      0.2419325584660132,
      -0.004004464106901729,
      -0.02090835627186461,
      -0.13888211475582588,
      -0.646564928428644,
      0.34642147178660676,
      -4.9635967771850107e-05,
      -0.061847653370820994,
      -0.1335315597783862,
      0.3252783509301765,
      -0.014260651679469204,
      -0.15194128715304442,
      0.007070981669672403,
      -0.01820420587542141,
      -0.23917218288792855,
      -0.1600398164845208,
      0.00031232410474180475,
      -2.710505431213761e-20,
      -0.0439194769836033,
      -0.013538213584886036,
      0.0,
      0.0
    ],
    "delay_spread|mixed_compact_lowrise|LoS|mid_ant": [
      -0.13907339598730592,
      8.133987261924034,
      -0.7364062383810444,
      -2.066266102020926,
      -8.327169884178886,
      4.187344962690104,
      -3.877334587739075,
      0.6085200075230849,
      -4.2431919549802455,
      -14.818192601093552,
      56.2000137137879,
      -1.561700416102854,
      -6.064583640104332,
      -0.5202546007710814,
      0.24280090001711935,
      -30.33859226811277,
      -10.383556388243544,
      1.909638237700911,
      -8.673617379884035e-19,
      -4.488776499721722,
      -2.8600721962330504,
      0.0,
      0.0
    ],
    "delay_spread|mixed_compact_lowrise|LoS|all_ant": [
      -0.26410053832161684,
      6.665468195226139,
      -0.552969804773994,
      0.2874465294312532,
      -4.239058676179915,
      -12.323515783609622,
      7.264231824625252,
      -0.025521282187028652,
      -3.062576275747104,
      -8.677742859981421,
      79.43193600371197,
      -1.5470748631214846,
      -5.084796840081731,
      -0.15936937213611788,
      -1.1308604343809592,
      -59.42075510693855,
      -3.958306570835887,
      -0.3174783977261414,
      0.419719842684815,
      -1.9361352229435662,
      0.43976797890190356,
      -6.484984001723598,
      -8.826167660083348
    ],
    "delay_spread|mixed_compact_lowrise|all_los|all_ant": [
      -0.007256670512969767,
      -0.9114994905809143,
      -0.017464059548511754,
      2.5833726087211852,
      2.636946057866717,
      -10.558772259346178,
      6.695360498976344,
      -0.271139444907856,
      -1.0606491087383194,
      -5.867933071027243,
      100.28671426512271,
      -0.8644969284034483,
      0.40429119961830806,
      0.2779192297288695,
      -0.31885057841150216,
      -88.8673145689399,
      5.226494179473027,
      -0.3689630987962191,
      2.556557564035597,
      -0.7460886072522642,
      0.500002846056476,
      -4.482509278223572,
      -7.236599705007003
    ],
    "delay_spread|mixed_compact_lowrise|NLoS|mid_ant": [
      -0.0703795327088314,
      2.466632408107712,
      -0.1818982299319146,
      -1.1469196729665043,
      -2.475461668142379,
      -3.155076026493499,
      2.0265243860429285,
      -0.06534246529987399,
      -0.617017408668234,
      -0.42067029580833787,
      2.9068089515330438,
      -0.04465906576832064,
      -1.5813920158532488,
      -0.15075934277552502,
      -0.5547718176656311,
      -2.855176450061602,
      -3.615916049405914,
      -0.13020817601667858,
      0.5853327124854184,
      -0.06319808892338442,
      0.31497758468002784,
      0.5480203783438636,
      -3.050621354461049
    ],
    "delay_spread|mixed_compact_lowrise|NLoS|all_ant": [
      -0.1639242150900476,
      3.331646847237394,
      -0.28467092339679545,
      -2.0467386535332954,
      -3.1554310191102934,
      -0.849787104866881,
      0.6676377817027427,
      -0.09450481708128015,
      -0.7988617903862041,
      -0.35347633656292254,
      6.7314226818451655,
      -0.05278830517421712,
      -1.4951324510708985,
      -0.18086005786047246,
      -0.569431076155983,
      -6.590333736689118,
      -5.189514940773906,
      -0.025877968340113838,
      0.3826946321662533,
      -0.227387082968931,
      0.22891678173737118,
      0.4996923308699318,
      -1.400673210460426
    ],
    "angular_spread|mixed_compact_lowrise|LoS|mid_ant": [
      -1.3449189025330133,
      23.956374757545348,
      -0.6824727654060047,
      -6.931280305079252,
      -17.11497916194682,
      -2.3567005069252622,
      -0.07027408546015694,
      3.741250467715139,
      -10.21234054001484,
      -10.652288832721286,
      174.15027388185547,
      -1.3473427952953403,
      -9.824240810722154,
      -0.6444215372081763,
      -3.2185539534331267,
      -141.5007043459693,
      -24.11510559755507,
      -0.9975852086079062,
      1.3877787807814457e-17,
      -6.978382255007729,
      1.13526568537147,
      0.0,
      0.0
    ],
    "angular_spread|mixed_compact_lowrise|LoS|all_ant": [
      -1.2606547347185935,
      15.056048899394751,
      -0.6310143887640446,
      -3.252002289142048,
      -7.642125228471825,
      -12.401306036109649,
      7.748034949780393,
      2.5533452044741374,
      -6.577590703964718,
      -1.1286926348268498,
      201.2564657138881,
      -1.2996603974552647,
      -6.3500349811462575,
      0.033634618703375536,
      -1.3405098679378586,
      -175.39205436268978,
      -10.986703464481563,
      -0.46084037026072555,
      0.2121076390405598,
      -5.223141951580547,
      0.19114579343484572,
      -15.579923596023686,
      -16.45204632265133
    ],
    "angular_spread|mixed_compact_lowrise|all_los|all_ant": [
      -1.1624909336393567,
      4.768843035781523,
      -0.26759621022339125,
      -0.3491425538130082,
      0.996272473504366,
      -11.772587546725815,
      7.715271670753977,
      1.5811905988420916,
      -1.791851576214574,
      -6.697486215241376,
      175.53844858472607,
      -0.08901242038041972,
      -2.3082503935871537,
      0.9095097952595576,
      -0.42242481723586317,
      -158.15400823796978,
      0.5553790617127888,
      -0.619516009248245,
      2.6185435771812133,
      -1.3539075433191707,
      0.6393544149203041,
      -8.843777338171153,
      -6.048547974528272
    ],
    "angular_spread|mixed_compact_lowrise|NLoS|mid_ant": [
      -0.23993579802542128,
      4.9500785821166415,
      -0.1500044568041872,
      -2.24614460987901,
      -4.212404669741242,
      -2.486725635041365,
      1.5994729035002238,
      -0.08934274186322355,
      -1.3638678799711192,
      -0.5288192887362737,
      3.9542568203509716,
      -0.0588111859664771,
      -1.954983394473573,
      -0.15309647942866053,
      -0.8546188945017278,
      -4.513784102374767,
      -6.456321699528229,
      -0.1340987862292007,
      0.2884031463214094,
      -0.5092638301728355,
      0.25295030741570046,
      0.3003607253659431,
      -1.38926985752332
    ],
    "angular_spread|mixed_compact_lowrise|NLoS|all_ant": [
      -0.43678030443020316,
      6.057972064928901,
      -0.23711221461502605,
      -3.062197396759308,
      -4.717851885870327,
      -0.6310418067831646,
      0.5661170368296622,
      -0.11346120416040423,
      -1.5164838085524293,
      -0.2946009850243434,
      11.722177964974762,
      -0.05027936430037787,
      -1.9022724886735762,
      -0.13419247801935094,
      -0.7585699455692714,
      -12.248914573979684,
      -7.783216437708888,
      -0.002830749354383406,
      1.4801112162318766,
      -0.7575558198918428,
      0.13024528619254264,
      -0.8739644867267675,
      -2.382492492021244
    ],
    "delay_spread|mixed_compact_lowrise|LoS|high_ant": [
      -0.429531474359713,
      7.234952496334983,
      -0.46782331380893266,
      -2.504342054272249,
      -7.00859134941906,
      5.582626506022718,
      -3.2844679648100867,
      -0.5521576010406068,
      -1.7428624287666883,
      -1.319336829729163,
      -0.7000388704125241,
      -2.334415368172308,
      -1.7122120807598555,
      -0.598823460625563,
      0.3011250503550797,
      11.059749988559105,
      -9.511451031168152,
      0.045636274100803814,
      8.673617379884035e-19,
      -2.0481809384174956,
      -0.29029603737946197,
      0.0,
      0.0
    ],
    "delay_spread|mixed_compact_lowrise|NLoS|high_ant": [
      -0.026018641145470766,
      0.5498670053781424,
      -0.043391231842779085,
      -0.3263810254474606,
      -0.5564812726045992,
      -0.10637288838848759,
      0.07959321519556802,
      -0.006693200960108697,
      -0.11066287620770499,
      -0.08221043590124456,
      0.16408319950196135,
      -0.006442394952608965,
      -0.32775665448541597,
      -0.012117757807467178,
      -0.03191860018481648,
      -0.10358065363087005,
      -0.8817690265020299,
      0.0035458056283338354,
      5.421010862427522e-20,
      -0.07855708516273233,
      -0.013378395315095833,
      0.0,
      0.0
    ],
    "angular_spread|mixed_compact_lowrise|LoS|high_ant": [
      -0.7876242362474154,
      15.194082815204155,
      -0.689004150954303,
      -4.320222864923738,
      -10.287387580428907,
      -3.014968705657783,
      1.9000779956329097,
      1.4059028203673518,
      -5.353955948739512,
      11.380348080443065,
      47.12396251166895,
      -1.2192850760595801,
      -6.6544211611737545,
      -0.24509699985058936,
      0.2055972531809443,
      -33.36033306948296,
      -14.61193235183333,
      -0.059492358234964016,
      4.336808689942018e-19,
      -5.558760697408525,
      -0.4558368915090679,
      0.0,
      0.0
    ],
    "angular_spread|mixed_compact_lowrise|NLoS|high_ant": [
      -0.04699098822383456,
      0.9906470061393269,
      -0.04072570315409748,
      -0.4263090565193581,
      -0.7956805999299293,
      -0.6718079808215225,
      0.43214410162263983,
      -0.015820409101181876,
      -0.256336701705182,
      -0.0958498023632149,
      0.4389864624261135,
      -0.01464650149770494,
      -0.3349038554379342,
      -0.032038495393806675,
      -0.1376898609676443,
      -0.5546802701079415,
      -1.2219974056213518,
      -0.01813069805581892,
      5.421010862427522e-20,
      -0.11777464570646706,
      0.010529055927094376,
      0.0,
      0.0
    ],
    "delay_spread|mixed_compact_lowrise|LoS|low_ant": [
      -0.06184321186057773,
      1.1211153522147055,
      -0.44330702995681837,
      1.7996596804187515,
      2.1180851450612237,
      -13.410625329111124,
      8.411468083464781,
      0.35618545443737337,
      -4.221319888296808,
      -17.02902975726392,
      189.05172577591395,
      -1.0463463278948697,
      -1.0821887097787073,
      0.1345925445078909,
      -1.8151509746485628,
      -153.21424076711133,
      3.897632691655089,
      2.630716636276189,
      -3.8758349607307627,
      -2.403261287843643,
      0.35179539860467385,
      1.2959983234598746,
      -6.066463928648417
    ],
    "delay_spread|mixed_compact_lowrise|NLoS|low_ant": [
      -0.21337705984756483,
      1.6617065946944354,
      -0.0868422640619413,
      -1.3664935564248348,
      -1.0008979722112854,
      3.5148513077717296,
      -3.808802747616215,
      -0.15793258543932717,
      -0.4239724885238316,
      -0.7100600965484779,
      8.069943891036228,
      -0.10005123776014947,
      0.7530325020046398,
      -0.05535781792397174,
      -0.4067417627791489,
      -5.960083172748472,
      -2.3631118381688707,
      -0.5388937013999251,
      -0.2267975327258738,
      -0.014604617964985257,
      1.984403086997673,
      1.2780719237102973,
      -0.6326481426700549
    ],
    "angular_spread|mixed_compact_lowrise|LoS|low_ant": [
      -2.1046404668203453,
      10.866278233157358,
      -0.33254736064533996,
      -2.4809014387544988,
      -2.0573522137821296,
      -11.629511435658296,
      6.474024313310039,
      3.2619049169470538,
      -5.918142269195805,
      -14.4772142407539,
      411.62347290995024,
      -1.1918762235502331,
      -0.7777134983100024,
      0.3377776520396831,
      -3.6961855877203793,
      -369.3719302637674,
      -4.557631356594846,
      -8.489656617295182,
      -3.3822999753492993,
      -2.2245025367854883,
      13.8175398304288,
      -4.527998985263784,
      -10.367514865032518
    ],
    "angular_spread|mixed_compact_lowrise|NLoS|low_ant": [
      -0.6647242356373821,
      5.364604872521608,
      -0.14483111816669497,
      -2.818521865418936,
      -3.3748413389544387,
      1.8979951407290467,
      -2.1283205253873563,
      -0.169489200101015,
      -0.7258184267494978,
      -0.5131799690281998,
      11.561796811153473,
      -0.08091833146927747,
      -0.5078403717802011,
      -0.02389898112648046,
      -0.5075789592679383,
      -10.410113372554383,
      -6.197850608777408,
      -1.4565645455338196,
      0.8322555968994442,
      -0.21864716886800778,
      2.502339356017449,
      -0.11667530031694325,
      -1.5545722478527084
    ],
    "delay_spread|mixed_compact_midrise|LoS|high_ant": [
      -0.05014280116047204,
      2.5399478426455295,
      -0.23696892707130604,
      2.664013890932986,
      0.586735373869667,
      -18.11940885862087,
      9.466622641844616,
      -0.36157275302672304,
      -2.0196178634597755,
      -3.4993001715046965,
      99.32416278854727,
      -1.8052797784913654,
      -0.939313305363609,
      -0.20309724776972635,
      -0.3314746829638321,
      -94.95360690641671,
      3.2375568358171147,
      -0.01421574289973357,
      11.143837865013555,
      -1.682107231006992,
      0.12405765025901293,
      -31.956185730843707,
      1.115096158974997
    ],
    "delay_spread|mixed_compact_midrise|NLoS|high_ant": [
      -0.07930789517467732,
      1.0586767783787066,
      -0.09589484501819784,
      -0.33459706475117734,
      -0.47321105978652944,
      -2.1989251085410517,
      1.1506883421211522,
      -0.05875371872143402,
      -0.29003938405511837,
      -0.12891164001036703,
      1.4987289111954885,
      -0.0503592144998827,
      -0.3774023513635116,
      -0.002492852477317546,
      -0.18460033208602472,
      -1.33729978086262,
      -0.7964553204414745,
      0.028773899493747125,
      3.3252672070604024,
      -0.1071588260396146,
      0.07068141332990364,
      -4.123185135754205,
      -3.3667372831452886
    ],
    "angular_spread|mixed_compact_midrise|LoS|high_ant": [
      -1.2372641924065892,
      12.931002051455428,
      -0.5332316177091664,
      -0.9485907215136385,
      -4.065033544888069,
      -23.686634258927597,
      12.787499121045006,
      3.359793598883641,
      -5.9973609019354335,
      -6.105823547027591,
      251.71815033847662,
      -1.3166972331008122,
      -4.48972277525136,
      0.047100712485156356,
      -1.5894400130562034,
      -242.30422168744238,
      -5.012372939881278,
      -0.6466293864518239,
      12.538853176918622,
      -4.406695326446496,
      1.7016759297815982,
      -36.41995849384922,
      -23.688408445984667
    ],
    "angular_spread|mixed_compact_midrise|NLoS|high_ant": [
      -0.2894889200062797,
      2.971674350806166,
      -0.11657574738569557,
      -1.2024325511473815,
      -1.7506395893485458,
      -2.0809867890452987,
      1.1401277046469454,
      -0.06552598235049976,
      -0.5801640418752699,
      -0.17369973569574057,
      1.7617784477154321,
      -0.04925913856921326,
      -0.728423949345133,
      -0.006763838813580485,
      -0.18716462841063966,
      -1.8814835442261904,
      -2.9696576000975097,
      0.029485241236889503,
      3.9050376756935545,
      -0.386836956084533,
      0.06275129547409293,
      -6.599995341842971,
      -2.948259296166974
    ]
  }
}