{
  "model_type": "regime_obstruction_multiscale_v1",
  "dataset": "C:\\TFG\\TFGpractice\\Datasets\\CKM_Dataset_270326.h5",
  "split_seed": 42,
  "official_metric_mask": "topology == 0 and dataset mask > 0",
  "city_type_thresholds": {
    "density_q1": 0.1956760965207146,
    "density_q2": 0.2549084200418514,
    "height_q1": 10.913664557109195,
    "height_q2": 15.950557886832314
  },
  "antenna_height_thresholds": {
    "q1": 58.12179183959961,
    "q2": 103.85484313964844
  },
  "city_type_by_city": {
    "Abu Dhabi": "dense_highrise",
    "Buenos Aires": "dense_highrise",
    "Canberra": "mixed_midrise",
    "Shanghai": "dense_highrise",
    "Athens": "dense_highrise",
    "Rio de Janeiro": "mixed_midrise",
    "Bilbao": "dense_highrise",
    "Kuala Lumpur": "dense_highrise",
    "Mexico City": "dense_highrise",
    "Tunis": "mixed_midrise",
    "Victoria": "open_lowrise",
    "Kinshasa": "mixed_midrise",
    "Johannesburg": "mixed_midrise",
    "Bangalore": "dense_highrise",
    "Paris": "dense_highrise",
    "Ho Chi Minh City": "dense_highrise",
    "Vancouver": "open_lowrise",
    "Hyderabad": "dense_highrise",
    "Siem Reap": "open_lowrise",
    "Santiago": "dense_highrise",
    "Hanoi": "dense_highrise",
    "Pune": "dense_highrise",
    "Bangkok": "dense_highrise",
    "Berlin": "dense_highrise",
    "Dhaka": "dense_highrise",
    "Copenhagen": "mixed_midrise",
    "Bratislava": "dense_highrise",
    "Carcassonne": "open_lowrise",
    "Jaipur": "dense_highrise",
    "Beijing": "dense_highrise",
    "Valparaiso": "dense_highrise",
    "Nagpur": "dense_highrise",
    "Marrakesh": "open_lowrise",
    "Lyon": "mixed_midrise",
    "Venice": "open_lowrise",
    "Alexandria": "mixed_midrise",
    "Cleveland": "mixed_midrise",
    "Minsk": "mixed_midrise",
    "Munich": "dense_highrise",
    "Antigua Guatemala": "open_lowrise",
    "Vienna": "dense_highrise",
    "Leuven": "mixed_midrise",
    "Halifax": "open_lowrise",
    "Brugge": "mixed_midrise",
    "St. Louis": "mixed_midrise",
    "Surat": "dense_highrise",
    "Abidjan": "mixed_midrise",
    "Barcelona": "dense_highrise",
    "Chiang Mai": "dense_highrise",
    "Fortaleza": "dense_highrise",
    "Nazareth": "mixed_midrise",
    "Luanda": "dense_highrise",
    "Key West": "mixed_midrise",
    "Osaka": "dense_highrise",
    "Salvador": "dense_highrise",
    "Ljubljana": "mixed_midrise",
    "Dubrovnik": "mixed_midrise",
    "Chefchaouen": "open_lowrise",
    "Segovia": "mixed_midrise",
    "Phuket": "dense_highrise",
    "Nice": "mixed_midrise",
    "Dalian": "dense_highrise",
    "Manaus": "dense_highrise",
    "Bath": "mixed_midrise",
    "Thane": "dense_highrise",
    "Toledo": "mixed_midrise"
  },
  "local_kernel_sizes": [
    15,
    41
  ],
  "train_sample_frac": 0.05,
  "val_sample_frac": 0.1,
  "pixel_sample_prob": 0.02,
  "formula": "hybrid_damped_coherent_two_ray_deepshadow_vinogradov_nlos",
  "a2g_params_json": null,
  "feature_order": [
    "prior_db_squared",
    "prior_db",
    "log1p_distance_m",
    "local_building_density_small",
    "local_building_density_large",
    "local_mean_height_small_norm",
    "local_mean_height_large_norm",
    "local_building_density_large_x_log1p_distance_m",
    "nlos_support_small",
    "nlos_support_large",
    "nlos_support_large_x_log1p_distance_m",
    "shadow_sigma_db",
    "theta_norm",
    "nlos_support_large_x_theta_norm",
    "bias"
  ],
  "coefficients": {
    "dense_highrise|LoS|low_ant": {
      "weights": [
        -0.000952448044866081,
        -2.159402004667775,
        29.131461955640315,
        0.15628008336059385,
        -3.1674791596610072,
        -4.075811757878545,
        2.8111199279805916,
        0.5906413458156324,
        0.07969434351622956,
        1.947191974940224,
        -0.36812472178634603,
        -420.0410646167587,
        -247.2109465608674,
        -0.4867572120771556
      ],
      "bias": 486.1746072880256,
      "count": 199995,
      "distance_scale_m": 362.03867196751236,
      "height_scale": 255.0,
      "meters_per_pixel": 1.0,
      "receiver_height_m": 1.5
    },
    "dense_highrise|NLoS|low_ant": {
      "weights": [
        -0.004323034457471542,
        1.3090181672623742,
        -54.84803186235263,
        -32.208154231660195,
        -84.1887174626566,
        177.4259122111544,
        -251.81523462730965,
        15.777389747355041,
        -9.176466495013504,
        -299.34168032667793,
        46.69378662964042,
        70.53849208177122,
        -30.614960921134987,
        246.79957113836457
      ],
      "bias": -206.65602892085957,
      "count": 205061,
      "distance_scale_m": 362.03867196751236,
      "height_scale": 255.0,
      "meters_per_pixel": 1.0,
      "receiver_height_m": 1.5
    },
    "dense_highrise|LoS|high_ant": {
      "weights": [
        -0.0010333036871714395,
        0.8353480429140101,
        3.2292676259784816,
        -0.6557058072552687,
        2.025406031081414,
        0.6995265410027343,
        -3.856120114331544,
        -0.2769357712811886,
        0.38794097534883126,
        -1.6251399810971385,
        0.22578413205820422,
        -50.69690780899117,
        -30.207229127796303,
        0.19934297119984784
      ],
      "bias": 47.95849145717345,
      "count": 311449,
      "distance_scale_m": 362.03867196751236,
      "height_scale": 255.0,
      "meters_per_pixel": 1.0,
      "receiver_height_m": 1.5
    },
    "dense_highrise|NLoS|high_ant": {
      "weights": [
        -0.008684396185731287,
        2.7233768883810825,
        -12.625347311006795,
        -16.875700103122668,
        77.15588888497489,
        -135.41125921275867,
        96.38425210169446,
        -15.713184016421234,
        -8.372813626857345,
        -101.25663118999874,
        17.159162743140087,
        18.535605197347365,
        -12.590263581165512,
        55.86522627003197
      ],
      "bias": -224.279903972783,
      "count": 100189,
      "distance_scale_m": 362.03867196751236,
      "height_scale": 255.0,
      "meters_per_pixel": 1.0,
      "receiver_height_m": 1.5
    },
    "mixed_midrise|LoS|mid_ant": {
      "weights": [
        -0.03942103762608255,
        1.7090144213538787,
        58.005395317284524,
        0.1313079297443535,
        7.354601094467843,
        -4.524812917518091,
        6.293426057537844,
        -1.4753036477053643,
        0.25090672718120977,
        -6.042935409915513,
        1.0607692846932637,
        -962.8189259873819,
        -578.5151114498371,
        0.9027893077111089
      ],
      "bias": 743.9728387379952,
      "count": 189227,
      "distance_scale_m": 362.03867196751236,
      "height_scale": 255.0,
      "meters_per_pixel": 1.0,
      "receiver_height_m": 1.5
    },
    "mixed_midrise|NLoS|mid_ant": {
      "weights": [
        -0.008227927455494366,
        2.679649703639521,
        23.710226528877982,
        -30.62171028973531,
        20.36013380797123,
        -87.20305010968521,
        -106.6624642705297,
        -1.2757738410464057,
        -11.337510671400075,
        221.32579755221897,
        -36.38723321859273,
        12.344941623629214,
        94.03986564335378,
        -73.54235919344738
      ],
      "bias": -414.50842675018504,
      "count": 70035,
      "distance_scale_m": 362.03867196751236,
      "height_scale": 255.0,
      "meters_per_pixel": 1.0,
      "receiver_height_m": 1.5
    },
    "open_lowrise|LoS|high_ant": {
      "weights": [
        0.0008404166875001477,
        0.27152342459537526,
        4.942182838638799,
        0.7984911251641722,
        -2.068731013768763,
        -28.536391066569934,
        -10.862346885387176,
        0.3256290754184018,
        -0.16705146471589705,
        3.826504838582916,
        -0.5852272906107419,
        -80.83957624573375,
        -48.59750846175173,
        -0.3440637014428851
      ],
      "bias": 99.4962729871376,
      "count": 93966,
      "distance_scale_m": 362.03867196751236,
      "height_scale": 255.0,
      "meters_per_pixel": 1.0,
      "receiver_height_m": 1.5
    },
    "open_lowrise|NLoS|high_ant": {
      "weights": [
        0.013007552689970545,
        -3.5860548991026437,
        1.012841654167512,
        23.323718768860076,
        -32.63613466535289,
        -733.3727053382011,
        740.6962149169959,
        6.419479270700207,
        6.726345639420072,
        163.65725075004735,
        -23.614800115446762,
        3.7881563812044448,
        12.887879733531138,
        -98.19403909778974
      ],
      "bias": 215.07115663548555,
      "count": 7370,
      "distance_scale_m": 362.03867196751236,
      "height_scale": 255.0,
      "meters_per_pixel": 1.0,
      "receiver_height_m": 1.5
    },
    "open_lowrise|LoS|low_ant": {
      "weights": [
        0.0014270011984743646,
        -2.8675817649268214,
        31.3263528068752,
        0.5869765056796407,
        -11.761148654498932,
        -25.933697644292646,
        8.747394556089754,
        2.0824928952006343,
        -0.12001781278889974,
        2.31880384426712,
        -0.5181853666001638,
        -454.50590671762967,
        -268.28499238533743,
        4.983991126898545
      ],
      "bias": 547.6876168507513,
      "count": 73715,
      "distance_scale_m": 362.03867196751236,
      "height_scale": 255.0,
      "meters_per_pixel": 1.0,
      "receiver_height_m": 1.5
    },
    "open_lowrise|NLoS|low_ant": {
      "weights": [
        -0.006455927425534661,
        2.297061287818293,
        -1.0658202658237637,
        -50.80666351277095,
        27.51461479718049,
        233.8649320748508,
        -325.81046674005336,
        -4.693195228147112,
        -16.662084750348182,
        108.72558075207822,
        -15.204109112240483,
        12.288471970593244,
        30.646662737045883,
        -54.681574422511105
      ],
      "bias": -243.76634011226642,
      "count": 19837,
      "distance_scale_m": 362.03867196751236,
      "height_scale": 255.0,
      "meters_per_pixel": 1.0,
      "receiver_height_m": 1.5
    },
    "mixed_midrise|LoS|low_ant": {
      "weights": [
        0.0008481692412533628,
        -2.547546177620262,
        29.612143642121207,
        -0.14018434756218093,
        -0.49301998832773164,
        -1.4790148053681027,
        -6.463649689899828,
        0.13615041152132984,
        0.012424283729531036,
        -0.3424029723417985,
        0.056242373542387605,
        -416.9862646754877,
        -245.1694547362865,
        0.8911883112215847
      ],
      "bias": 501.85634728736215,
      "count": 167560,
      "distance_scale_m": 362.03867196751236,
      "height_scale": 255.0,
      "meters_per_pixel": 1.0,
      "receiver_height_m": 1.5
    },
    "mixed_midrise|NLoS|low_ant": {
      "weights": [
        -0.0116682680515881,
        3.6875541439943618,
        -49.1607076598995,
        -37.23240402444136,
        -57.84296088817368,
        258.3374721659651,
        -420.23020565331854,
        11.283360496121459,
        -15.028974173917458,
        -235.93118199993987,
        38.06199737239139,
        50.11796483210077,
        -124.23628661406745,
        259.2175836626799
      ],
      "bias": -291.04376311107455,
      "count": 98869,
      "distance_scale_m": 362.03867196751236,
      "height_scale": 255.0,
      "meters_per_pixel": 1.0,
      "receiver_height_m": 1.5
    },
    "mixed_midrise|LoS|high_ant": {
      "weights": [
        0.0009634038602662427,
        0.4414003871242176,
        3.300237593439921,
        -0.26375742985341205,
        0.8304505433157643,
        1.9874248957734106,
        -3.103714470081797,
        -0.13121472038697946,
        0.11515241065085392,
        1.221048801800635,
        -0.20025954063704257,
        -51.8545096387628,
        -30.98836285451879,
        -0.5034919693021687
      ],
      "bias": 67.93253655123824,
      "count": 222855,
      "distance_scale_m": 362.03867196751236,
      "height_scale": 255.0,
      "meters_per_pixel": 1.0,
      "receiver_height_m": 1.5
    },
    "mixed_midrise|NLoS|high_ant": {
      "weights": [
        -0.00021099994565992856,
        -0.017008114915571266,
        -5.76022328091194,
        9.752489402096442,
        103.70200887186401,
        -435.3801075391143,
        475.07617416120917,
        -21.26160730215153,
        -3.9145717775900173,
        -91.17050201011075,
        16.925092314514213,
        5.77097476286891,
        -29.38587094595754,
        27.60681054209462
      ],
      "bias": 24.2200458948578,
      "count": 34396,
      "distance_scale_m": 362.03867196751236,
      "height_scale": 255.0,
      "meters_per_pixel": 1.0,
      "receiver_height_m": 1.5
    },
    "open_lowrise|LoS|mid_ant": {
      "weights": [
        -0.05306974483691821,
        1.6720181592796572,
        80.25175636342811,
        -0.16221229934411624,
        -13.660163600560454,
        -1.7178227909156671,
        -24.056886539672448,
        2.550421906279428,
        0.1707168214754288,
        -17.695656647474387,
        2.710842029674498,
        -1333.7912539606523,
        -802.6488203790017,
        16.049909025648642
      ],
      "bias": 1047.03534414152,
      "count": 49403,
      "distance_scale_m": 362.03867196751236,
      "height_scale": 255.0,
      "meters_per_pixel": 1.0,
      "receiver_height_m": 1.5
    },
    "open_lowrise|NLoS|mid_ant": {
      "weights": [
        -0.02794135240587528,
        9.041546440482891,
        -6.513555544460715,
        0.11268231122529379,
        235.4741257509603,
        -580.3838712338095,
        -181.48103547878821,
        -42.87575775718611,
        -8.402260580009905,
        231.9080715364258,
        -31.16204108639564,
        21.669369176694143,
        85.40164203816397,
        -250.21926701786484
      ],
      "bias": -819.8821730535849,
      "count": 8844,
      "distance_scale_m": 362.03867196751236,
      "height_scale": 255.0,
      "meters_per_pixel": 1.0,
      "receiver_height_m": 1.5
    },
    "dense_highrise|LoS|mid_ant": {
      "weights": [
        -0.03885001537902474,
        2.0893200967422048,
        53.861053234089646,
        -0.10574968301671658,
        0.03748074181254137,
        -0.5693454729840118,
        -1.6684159401204746,
        -0.001604523516705756,
        0.11415415878434802,
        1.218862676352208,
        -0.1801132047315622,
        -903.022614880841,
        -542.9895597175599,
        -1.2201682983362097
      ],
      "bias": 677.2836131598993,
      "count": 251368,
      "distance_scale_m": 362.03867196751236,
      "height_scale": 255.0,
      "meters_per_pixel": 1.0,
      "receiver_height_m": 1.5
    },
    "dense_highrise|NLoS|mid_ant": {
      "weights": [
        -0.001245171878372943,
        0.3007047470318453,
        -26.04348619847116,
        -46.13848170624455,
        -8.187650983914876,
        201.0266430245464,
        -349.15859097350466,
        3.632756623280899,
        -10.198459536782348,
        -117.79899958277285,
        17.25348626121522,
        41.729305194656355,
        -16.411532663961367,
        132.4603320510793
      ],
      "bias": -96.83642497080909,
      "count": 156413,
      "distance_scale_m": 362.03867196751236,
      "height_scale": 255.0,
      "meters_per_pixel": 1.0,
      "receiver_height_m": 1.5
    }
  },
  "val_results": {
    "overall": {
      "count": 48861408,
      "rmse_db": 23.77892977621475,
      "mae_db": 12.25333497668037
    },
    "LoS": {
      "count": 33048375,
      "rmse_db": 3.615565787359841,
      "mae_db": 2.8191966738448277
    },
    "NLoS": {
      "count": 15813033,
      "rmse_db": 41.47108101016743,
      "mae_db": 31.97016876109508
    }
  }
}