{
  "model_type": "regime_obstruction_multiscale_v1",
  "dataset": "C:\\TFG\\TFGpractice\\Datasets\\CKM_Dataset_270326.h5",
  "split_seed": 42,
  "official_metric_mask": "topology == 0 and dataset mask > 0",
  "city_type_thresholds": {
    "density_q1": 0.1956760965207146,
    "density_q2": 0.2549084200418514,
    "height_q1": 10.913664557109195,
    "height_q2": 15.950557886832314
  },
  "antenna_height_thresholds": {
    "q1": 58.12179183959961,
    "q2": 103.85484313964844
  },
  "city_type_by_city": {
    "Abu Dhabi": "dense_highrise",
    "Buenos Aires": "dense_highrise",
    "Canberra": "mixed_midrise",
    "Shanghai": "dense_highrise",
    "Athens": "dense_highrise",
    "Rio de Janeiro": "mixed_midrise",
    "Bilbao": "dense_highrise",
    "Kuala Lumpur": "dense_highrise",
    "Mexico City": "dense_highrise",
    "Tunis": "mixed_midrise",
    "Victoria": "open_lowrise",
    "Kinshasa": "mixed_midrise",
    "Johannesburg": "mixed_midrise",
    "Bangalore": "dense_highrise",
    "Paris": "dense_highrise",
    "Ho Chi Minh City": "dense_highrise",
    "Vancouver": "open_lowrise",
    "Hyderabad": "dense_highrise",
    "Siem Reap": "open_lowrise",
    "Santiago": "dense_highrise",
    "Hanoi": "dense_highrise",
    "Pune": "dense_highrise",
    "Bangkok": "dense_highrise",
    "Berlin": "dense_highrise",
    "Dhaka": "dense_highrise",
    "Copenhagen": "mixed_midrise",
    "Bratislava": "dense_highrise",
    "Carcassonne": "open_lowrise",
    "Jaipur": "dense_highrise",
    "Beijing": "dense_highrise",
    "Valparaiso": "dense_highrise",
    "Nagpur": "dense_highrise",
    "Marrakesh": "open_lowrise",
    "Lyon": "mixed_midrise",
    "Venice": "open_lowrise",
    "Alexandria": "mixed_midrise",
    "Cleveland": "mixed_midrise",
    "Minsk": "mixed_midrise",
    "Munich": "dense_highrise",
    "Antigua Guatemala": "open_lowrise",
    "Vienna": "dense_highrise",
    "Leuven": "mixed_midrise",
    "Halifax": "open_lowrise",
    "Brugge": "mixed_midrise",
    "St. Louis": "mixed_midrise",
    "Surat": "dense_highrise",
    "Abidjan": "mixed_midrise",
    "Barcelona": "dense_highrise",
    "Chiang Mai": "dense_highrise",
    "Fortaleza": "dense_highrise",
    "Nazareth": "mixed_midrise",
    "Luanda": "dense_highrise",
    "Key West": "mixed_midrise",
    "Osaka": "dense_highrise",
    "Salvador": "dense_highrise",
    "Ljubljana": "mixed_midrise",
    "Dubrovnik": "mixed_midrise",
    "Chefchaouen": "open_lowrise",
    "Segovia": "mixed_midrise",
    "Phuket": "dense_highrise",
    "Nice": "mixed_midrise",
    "Dalian": "dense_highrise",
    "Manaus": "dense_highrise",
    "Bath": "mixed_midrise",
    "Thane": "dense_highrise",
    "Toledo": "mixed_midrise"
  },
  "local_kernel_sizes": [
    15,
    41
  ],
  "formula": "a2g_paper_eq9_eq10_eq11",
  "a2g_params_json": "C:\\TFG\\TFGpractice\\TFGFortyFifthTry45\\prior_calibration\\a2g_best_params_train_search.json",
  "feature_order": [
    "prior_db_squared",
    "prior_db",
    "log1p_distance_m",
    "local_building_density_small",
    "local_building_density_large",
    "local_mean_height_small_norm",
    "local_mean_height_large_norm",
    "local_building_density_large_x_log1p_distance_m",
    "nlos_support_small",
    "nlos_support_large",
    "nlos_support_large_x_log1p_distance_m",
    "shadow_sigma_db",
    "bias"
  ],
  "coefficients": {
    "dense_highrise|LoS|low_ant": {
      "weights": [
        -0.0011203728786147837,
        1.1017598243630875,
        1.3086218119078337,
        -0.182955284446617,
        0.21926480931223688,
        -1.6360655726658864,
        -0.8633376503922062,
        -0.04087517217019633,
        0.08227579172398257,
        -0.31843430532034833,
        0.04960643767068045,
        -4.108432419385522
      ],
      "bias": -3.798867580789123,
      "count": 415795,
      "distance_scale_m": 362.03867196751236,
      "height_scale": 255.0,
      "meters_per_pixel": 1.0,
      "receiver_height_m": 1.5
    },
    "dense_highrise|NLoS|low_ant": {
      "weights": [
        0.055825796185152564,
        -4.526635375786322,
        -39.16270234147999,
        -35.32155549511984,
        -67.42570099961158,
        218.46438384415882,
        -284.7990976222364,
        11.890777150494023,
        -6.116511238662193,
        -72.32446348849889,
        9.612947962682544,
        31.431706512825237
      ],
      "bias": 133.50163244683642,
      "count": 440554,
      "distance_scale_m": 362.03867196751236,
      "height_scale": 255.0,
      "meters_per_pixel": 1.0,
      "receiver_height_m": 1.5
    },
    "dense_highrise|LoS|mid_ant": {
      "weights": [
        0.0012147422340161127,
        0.7174056492891641,
        0.6679394163826358,
        -0.24147038121277153,
        1.0596552908492538,
        0.8787819156307256,
        -3.893909023052855,
        -0.16598304319756074,
        0.11716868136239265,
        -1.2726451224014028,
        0.23172314786420958,
        -1.9616811787542743
      ],
      "bias": 13.481712565460072,
      "count": 529585,
      "distance_scale_m": 362.03867196751236,
      "height_scale": 255.0,
      "meters_per_pixel": 1.0,
      "receiver_height_m": 1.5
    },
    "dense_highrise|NLoS|mid_ant": {
      "weights": [
        0.07525564694131442,
        -7.940022590498312,
        -19.41848878911243,
        -41.62203717834226,
        0.5540419352745967,
        161.290927331561,
        -269.8648916902912,
        0.42762421532467737,
        -11.314228396500036,
        62.06095219616802,
        -11.163681879531337,
        31.76883357769101
      ],
      "bias": 147.1681932159323,
      "count": 348336,
      "distance_scale_m": 362.03867196751236,
      "height_scale": 255.0,
      "meters_per_pixel": 1.0,
      "receiver_height_m": 1.5
    },
    "mixed_midrise|LoS|high_ant": {
      "weights": [
        -0.0015159832720024584,
        1.195202744370073,
        0.9604395451686608,
        -0.13332776518808517,
        3.8798299327914516,
        0.026515656336451986,
        -7.70382282899884,
        -0.7143498172792945,
        0.1106354436361833,
        -2.4020197216741694,
        0.45187729432804125,
        -2.785417946068076
      ],
      "bias": -8.298523436021332,
      "count": 395780,
      "distance_scale_m": 362.03867196751236,
      "height_scale": 255.0,
      "meters_per_pixel": 1.0,
      "receiver_height_m": 1.5
    },
    "mixed_midrise|NLoS|high_ant": {
      "weights": [
        0.033999445302779895,
        -4.451261934956516,
        -4.617822544177263,
        -2.9001417963465403,
        133.63276410086414,
        -285.55841891123305,
        281.17703394303396,
        -25.701738338518094,
        -5.775696999913383,
        -27.382291845441085,
        6.901276541217967,
        15.74468008550148
      ],
      "bias": 90.94163844687607,
      "count": 71328,
      "distance_scale_m": 362.03867196751236,
      "height_scale": 255.0,
      "meters_per_pixel": 1.0,
      "receiver_height_m": 1.5
    },
    "mixed_midrise|LoS|mid_ant": {
      "weights": [
        0.002308361272949667,
        0.48259426837639735,
        0.8278284635334743,
        0.0952969913386903,
        2.7021315722130015,
        -5.634557082031904,
        1.2274648070002845,
        -0.5613122555261835,
        -0.09795446580716766,
        -1.6117875656127916,
        0.3314389389992671,
        -1.8019238769766526
      ],
      "bias": 25.006807131044468,
      "count": 338346,
      "distance_scale_m": 362.03867196751236,
      "height_scale": 255.0,
      "meters_per_pixel": 1.0,
      "receiver_height_m": 1.5
    },
    "mixed_midrise|NLoS|mid_ant": {
      "weights": [
        -0.18478275711182615,
        23.89144117728226,
        -2.168193871147024,
        -31.60552143066225,
        128.60860677063334,
        21.055437471244446,
        -221.1151715763579,
        -23.113870307996255,
        -10.58268837376565,
        52.82077645756538,
        -6.984195229521739,
        20.765522910261737
      ],
      "bias": -864.0327784782379,
      "count": 125979,
      "distance_scale_m": 362.03867196751236,
      "height_scale": 255.0,
      "meters_per_pixel": 1.0,
      "receiver_height_m": 1.5
    },
    "dense_highrise|LoS|high_ant": {
      "weights": [
        -0.0007354446693649276,
        1.055482244955424,
        0.8454365644465992,
        -0.2495629815453158,
        0.5531172783244662,
        -0.7287396623243754,
        -4.060006515752143,
        -0.05040503239014088,
        0.1657216214389501,
        0.14738960774999246,
        -0.05231791154050094,
        -2.4324600226106234
      ],
      "bias": -1.6889019669330962,
      "count": 660649,
      "distance_scale_m": 362.03867196751236,
      "height_scale": 255.0,
      "meters_per_pixel": 1.0,
      "receiver_height_m": 1.5
    },
    "dense_highrise|NLoS|high_ant": {
      "weights": [
        0.039214890863888116,
        -4.011324417634687,
        -14.542030262622756,
        -23.419133444596568,
        70.51334877984235,
        -54.58421430027749,
        -13.67166188136579,
        -12.066441050884466,
        -5.887557682066367,
        24.43072315328058,
        -2.4203836639176464,
        27.195496089863504
      ],
      "bias": 27.884605558455476,
      "count": 204865,
      "distance_scale_m": 362.03867196751236,
      "height_scale": 255.0,
      "meters_per_pixel": 1.0,
      "receiver_height_m": 1.5
    },
    "open_lowrise|LoS|mid_ant": {
      "weights": [
        -0.0002032004050119905,
        0.9906840445927501,
        0.6613086129720454,
        -0.3611193465054324,
        2.959466575643656,
        -1.0818281156697018,
        -9.611177240923192,
        -0.42848820916875535,
        0.10152668929795476,
        -1.5125998224305681,
        0.25306347828547693,
        -2.0284513034310963
      ],
      "bias": 0.3945758111305399,
      "count": 134955,
      "distance_scale_m": 362.03867196751236,
      "height_scale": 255.0,
      "meters_per_pixel": 1.0,
      "receiver_height_m": 1.5
    },
    "open_lowrise|NLoS|mid_ant": {
      "weights": [
        0.29561752645972955,
        -38.39576495146491,
        5.16202166751243,
        -9.270108361785955,
        -50.31414132633028,
        -137.19140174755114,
        -20.52011241422308,
        10.17785416654955,
        -8.518410841846892,
        71.0803212486989,
        -10.029634706953987,
        -3.4969836791211057
      ],
      "bias": 1255.2475857246272,
      "count": 27140,
      "distance_scale_m": 362.03867196751236,
      "height_scale": 255.0,
      "meters_per_pixel": 1.0,
      "receiver_height_m": 1.5
    },
    "mixed_midrise|LoS|low_ant": {
      "weights": [
        -0.0012319404061222681,
        1.0988790316921202,
        1.4689690778119304,
        -0.41624941398143156,
        2.0757573782168057,
        11.285794047439216,
        -8.058012520117861,
        -0.34339028360914386,
        -0.10920567124744975,
        -0.9367413291679125,
        0.19165459325587758,
        -4.079637942677413
      ],
      "bias": -3.383807183047086,
      "count": 286825,
      "distance_scale_m": 362.03867196751236,
      "height_scale": 255.0,
      "meters_per_pixel": 1.0,
      "receiver_height_m": 1.5
    },
    "mixed_midrise|NLoS|low_ant": {
      "weights": [
        -0.02430529236279806,
        4.216781985184049,
        -21.563264846235207,
        -40.126931921622244,
        -26.416279419690525,
        290.01555940909134,
        -487.38178504269837,
        5.589002620467746,
        -11.373017419489395,
        27.49836810009689,
        -5.637281441050513,
        37.90252076660324
      ],
      "bias": -248.7130700413302,
      "count": 185069,
      "distance_scale_m": 362.03867196751236,
      "height_scale": 255.0,
      "meters_per_pixel": 1.0,
      "receiver_height_m": 1.5
    },
    "open_lowrise|LoS|low_ant": {
      "weights": [
        -0.0013790190856139504,
        1.1338639210773758,
        1.4883355060455843,
        0.3196501014444836,
        -4.921029541535772,
        -16.209069484095707,
        -2.0976301029177415,
        0.947925601403762,
        -0.1955692613057728,
        2.684487129317756,
        -0.48819794857128285,
        -4.678437945847892
      ],
      "bias": -5.058180091696434,
      "count": 136254,
      "distance_scale_m": 362.03867196751236,
      "height_scale": 255.0,
      "meters_per_pixel": 1.0,
      "receiver_height_m": 1.5
    },
    "open_lowrise|NLoS|low_ant": {
      "weights": [
        -0.11249091728436354,
        12.760319218833363,
        3.0091489991929756,
        -46.1129618306693,
        33.028252652514524,
        447.98199827150717,
        -610.5671301459871,
        -5.139371673578963,
        -7.803954878271567,
        129.82047349081316,
        -21.890820288696073,
        26.777895632912227
      ],
      "bias": -520.3309968989449,
      "count": 45242,
      "distance_scale_m": 362.03867196751236,
      "height_scale": 255.0,
      "meters_per_pixel": 1.0,
      "receiver_height_m": 1.5
    },
    "open_lowrise|LoS|high_ant": {
      "weights": [
        -0.004082891456214561,
        1.6786321541280889,
        1.1495066725599428,
        -0.12114679099310263,
        8.141562099805723,
        -12.875627471689679,
        6.057642854455854,
        -1.6192172508528864,
        0.12526073759969605,
        -6.142804272590518,
        1.1629102755322247,
        -3.404727166208207
      ],
      "bias": -31.703632660618418,
      "count": 168344,
      "distance_scale_m": 362.03867196751236,
      "height_scale": 255.0,
      "meters_per_pixel": 1.0,
      "receiver_height_m": 1.5
    },
    "open_lowrise|NLoS|high_ant": {
      "weights": [
        0.015254229608383905,
        -2.143790280003366,
        -5.94008386815646,
        31.78410494108113,
        -21.322134772936067,
        -577.7957244498573,
        524.8712455832812,
        -0.08262539771104882,
        0.6153493687995759,
        -24.22402111355134,
        6.083327584217185,
        8.066588827483816
      ],
      "bias": 61.91562819832306,
      "count": 14219,
      "distance_scale_m": 362.03867196751236,
      "height_scale": 255.0,
      "meters_per_pixel": 1.0,
      "receiver_height_m": 1.5
    }
  },
  "val_results": {
    "overall": {
      "count": 485380287,
      "rmse_db": 23.603601234933663,
      "mae_db": 12.277627769174833
    },
    "LoS": {
      "count": 329805515,
      "rmse_db": 3.814301284570905,
      "mae_db": 3.0449134581143613
    },
    "NLoS": {
      "count": 155574772,
      "rmse_db": 41.32017152901844,
      "mae_db": 31.850210523190505
    }
  }
}